// This file is computer-generated by onnx2c 
// (TODO: add creating command line here)
// (TODO: print creation date here )

// ONNX model:
// produced by pytorch, version 2.2.1
// ONNX IR version: 10
// Model documentation: 
/*

*/

#include <float.h>
#include <math.h>
#include <stdbool.h>
#include <stdint.h>
#include <string.h>
#define MAX(X,Y) ( X > Y ? X : Y)
#define MIN(X,Y) ( X < Y ? X : Y)
#define CLIP(X,L) ( MAX(MIN(X,L), -L) )

static const float tensor_features_2_conv_3_fc_0_weight[8][8] = 
{
  {-0.018978647887706756592f, -0.034986630082130432129f, -0.010676732286810874939f, -0.044835191220045089722f, -0.038553118705749511719f, -0.029037412256002426147f, 0.027713317424058914185f, -8.0510435509495437145e-05f},
  {-0.039354514330625534058f, -0.046960804611444473267f, -0.038177441805601119995f, -0.0030715230386704206467f, 0.019167372956871986389f, -0.040416698902845382690f, -0.056081954389810562134f, -0.023147629573941230774f},
  {-0.017238358035683631897f, -0.051272563636302947998f, -0.025109531357884407043f, -0.026322729885578155518f, -0.13187189400196075439f, -0.14851118624210357666f, 0.018650529906153678894f, -0.0028462845366448163986f},
  {-0.0071393367834389209747f, -0.028481282293796539307f, 0.0011762051144614815712f, 0.0020914040505886077881f, -0.021515654399991035461f, 0.013230329379439353943f, -0.011432296596467494965f, -0.025878807529807090759f},
  {-0.020218048244714736938f, 0.0016999281942844390869f, -0.0052863657474517822266f, 0.0099442703649401664734f, -0.0047437208704650402069f, -0.010907945223152637482f, -0.0019133145688101649284f, -0.010673498734831809998f},
  {-0.013288984075188636780f, -0.016260862350463867188f, -0.0093153836205601692200f, -0.016290826722979545593f, -0.015744609758257865906f, 0.012096176855266094208f, -0.013733073137700557709f, 0.0027907313778996467590f},
  {-0.27276900410652160645f, -0.46002653241157531738f, 0.19297631084918975830f, -0.0030679623596370220184f, 0.43437406420707702637f, -0.26504638791084289551f, 0.22152493894100189209f, 0.10550870746374130249f},
  {-0.017764262855052947998f, -0.019272973760962486267f, -0.021117853000760078430f, -0.016055278480052947998f, -0.020527817308902740479f, -0.026096325367689132690f, -0.011630490422248840332f, 0.0080516608431935310364f}
};
static const float tensor_features_2_conv_3_fc_0_bias[8] = 
{-0.044444121420383453369f, -0.035425450652837753296f, -0.027440685778856277466f, -0.0060053863562643527985f, 0.0000000000000000000f, -0.0051160962320864200592f, 0.41765302419662475586f, -0.0099672432988882064819f};
static const float tensor_features_2_conv_3_fc_2_weight[8][8] = 
{
  {-0.019577212631702423096f, 0.016717525199055671692f, 0.050706453621387481689f, -0.0061867274343967437744f, -0.015938600525259971619f, -0.0053126248531043529510f, -0.36502268910408020020f, -0.0069936667568981647491f},
  {0.022366531193256378174f, 0.052088629454374313354f, -0.0035612401552498340607f, -0.014867984689772129059f, 0.0082121035084128379822f, -0.00074959022458642721176f, 0.61235117912292480469f, 0.027716441079974174500f},
  {-0.0025968269910663366318f, -0.051128081977367401123f, -0.051365200430154800415f, 0.0074685765430331230164f, -0.0034635048359632492065f, 0.0024332061875611543655f, 0.044302228838205337524f, 0.0075637428089976310730f},
  {0.049679711461067199707f, -0.032937508076429367065f, -0.094590321183204650879f, 0.0043455092236399650574f, -0.0072986423037946224213f, 0.0053746541962027549744f, 0.044776182621717453003f, 0.0076530505903065204620f},
  {0.037632711231708526611f, 0.024466874077916145325f, 0.050547346472740173340f, 0.021069120615720748901f, 0.0039352593012154102325f, -0.013462772592902183533f, 0.28888592123985290527f, -0.0078777717426419258118f},
  {-0.020864211022853851318f, 0.0021662260405719280243f, -0.026126233860850334167f, 0.0077143227681517601013f, -0.0045392876490950584412f, 0.011214922182261943817f, -0.28562620282173156738f, 0.0070998817682266235352f},
  {0.010408628731966018677f, -0.016646491363644599915f, 0.048910997807979583740f, -0.020573668181896209717f, -0.00012980596511624753475f, 0.0042187767103314399719f, 0.30675011873245239258f, -0.0056050266139209270477f},
  {-0.061275530606508255005f, -0.019678207114338874817f, -0.056769289076328277588f, -0.017779294401407241821f, 0.0085418531671166419983f, 0.0054284529760479927063f, -0.036775615066289901733f, -0.0017285919748246669769f}
};
static const float tensor_features_2_conv_3_fc_2_bias[8] = 
{-0.32714107632637023926f, 0.24812431633472442627f, -0.51977914571762084961f, -0.34288960695266723633f, 0.23763377964496612549f, -0.55579167604446411133f, 0.36760863661766052246f, -0.43393138051033020020f};
static const float tensor_features_5_conv_5_fc_0_weight[24][72] = 
{
  {0.12540911138057708740f, -0.026017460972070693970f, -0.096517898142337799072f, 0.10268120467662811279f, -0.020488021895289421082f, 0.10669806599617004395f, 0.10913569480180740356f, 0.16521994769573211670f, -0.054702214896678924561f, -0.063795812427997589111f, -0.086492694914340972900f, 0.065519258379936218262f, 0.055271692574024200439f, 0.19357702136039733887f, 0.031989693641662597656f, -0.090611681342124938965f, -0.12695606052875518799f, -0.13052290678024291992f, 0.097803682088851928711f, 0.0053976136259734630585f, -0.034935131669044494629f, -0.018813578411936759949f, 0.11131863296031951904f, 0.18539308011531829834f, -0.16297166049480438232f, -0.077763997018337249756f, 0.023987606167793273926f, 0.037300698459148406982f, -0.23651874065399169922f, -0.025216765701770782471f, -0.00073454115772619843483f, -0.0031760539859533309937f, 0.055879238992929458618f, 0.033101860433816909790f, -0.20846349000930786133f, -0.037952110171318054199f, -0.021787405014038085938f, 0.037881098687648773193f, -0.066006653010845184326f, 0.086890034377574920654f, -0.027496438473463058472f, 0.11924544721841812134f, 0.19100135564804077148f, 0.16024993360042572021f, 0.017921313643455505371f, 0.059374034404754638672f, 0.037080664187669754028f, -0.093859106302261352539f, -0.071808025240898132324f, -0.050883281975984573364f, -0.23520360887050628662f, 0.14879742264747619629f, -0.15585623681545257568f, 0.11033680289983749390f, 0.12409092485904693604f, -0.066182434558868408203f, -0.016370205208659172058f, 0.10167484730482101440f, -0.12481553852558135986f, -0.099001355469226837158f, 0.17778109014034271240f, 0.031976282596588134766f, 0.010819944553077220917f, -0.077099584043025970459f, -0.0048367069102823734283f, 0.098761342465877532959f, -0.26190939545631408691f, -0.0082695968449115753174f, 0.15067654848098754883f, -0.19413085281848907471f, 0.11956694722175598145f, -0.052808731794357299805f},
  {-0.33755692839622497559f, -0.23206998407840728760f, 0.062286991626024246216f, 0.20100593566894531250f, -0.064075209200382232666f, 0.067279621958732604980f, 0.22842317819595336914f, 0.027210965752601623535f, 0.044342111796140670776f, -0.23504467308521270752f, -0.11192895472049713135f, 0.40285035967826843262f, -0.18165338039398193359f, -0.018207835033535957336f, -0.041934493929147720337f, -0.36232092976570129395f, -0.12898856401443481445f, -0.22411181032657623291f, 0.0063145277090370655060f, -0.080625012516975402832f, -0.083354897797107696533f, -0.18614007532596588135f, -0.22900548577308654785f, 0.29755899310111999512f, -0.044443529099225997925f, 0.095319993793964385986f, -0.29605317115783691406f, 0.0066638146527111530304f, -0.064546540379524230957f, -0.062827378511428833008f, -0.18878489732742309570f, -0.26035851240158081055f, -0.053056240081787109375f, -0.11523617804050445557f, -0.0045477249659597873688f, 0.20125149190425872803f, 0.13379038870334625244f, -0.14876253902912139893f, -0.24147842824459075928f, -0.16391034424304962158f, -0.47629940509796142578f, 0.0038122984115034341812f, -0.026343952864408493042f, 0.36685845255851745605f, 0.036343675106763839722f, 0.12734399735927581787f, -0.29250961542129516602f, -0.014220523647964000702f, -0.19959175586700439453f, -0.070612117648124694824f, -0.14587536454200744629f, -0.045306034386157989502f, 0.057306095957756042480f, -0.067724429070949554443f, 0.084769606590270996094f, -0.54457092285156250000f, 0.073278203606605529785f, 0.045730400830507278442f, 0.052471272647380828857f, -0.38381674885749816895f, 0.12284956127405166626f, -0.36853352189064025879f, -0.28515532612800598145f, -0.14241161942481994629f, -0.070274502038955688477f, -0.10807337611913681030f, -0.29992020130157470703f, 0.22201901674270629883f, 0.15148943662643432617f, 0.19446541368961334229f, 0.18227553367614746094f, -0.33576485514640808105f},
  {0.0053057684563100337982f, -0.30817472934722900391f, -0.13220372796058654785f, 0.11005309969186782837f, 0.14836812019348144531f, -0.019655788317322731018f, 0.17289003729820251465f, 0.19952136278152465820f, 0.0027120052836835384369f, -0.058900751173496246338f, 0.031454838812351226807f, 0.32893705368041992188f, -0.11846676468849182129f, 0.15462727844715118408f, -0.00045554715325124561787f, -0.40414032340049743652f, -0.030501158908009529114f, -0.25868299603462219238f, -0.20046783983707427979f, 0.022082513198256492615f, -0.12121850252151489258f, -0.33824896812438964844f, 0.19041453301906585693f, -0.080220706760883331299f, -0.019839525222778320312f, 0.26658570766448974609f, -0.29516261816024780273f, 0.19020351767539978027f, 0.058505676686763763428f, -0.10008586198091506958f, -0.16810193657875061035f, -0.16444881260395050049f, 0.14554087817668914795f, -0.45774045586585998535f, -0.20788748562335968018f, 0.19240447878837585449f, 0.11418876051902770996f, 0.024466414004564285278f, -0.15417923033237457275f, -0.16273295879364013672f, -0.47171670198440551758f, 0.062460884451866149902f, -0.045289404690265655518f, 0.20406426489353179932f, 0.061375886201858520508f, -0.018575327470898628235f, -0.11884442716836929321f, 0.016526592895388603210f, -0.073245920240879058838f, -0.098761290311813354492f, -0.13437214493751525879f, 0.086788311600685119629f, 0.053004112094640731812f, -0.25577241182327270508f, 0.40222671627998352051f, -0.27143222093582153320f, 0.035637788474559783936f, 0.26294353604316711426f, 0.24751758575439453125f, -0.58476281166076660156f, 0.045181225985288619995f, -0.42288836836814880371f, -0.040577266365289688110f, -0.22912964224815368652f, -0.022403126582503318787f, -0.13373139500617980957f, 0.028058031573891639709f, 0.11909322440624237061f, 0.045307151973247528076f, 0.23167543113231658936f, 0.13114996254444122314f, -0.29565763473510742188f},
  {-0.021182723343372344971f, -0.10853409767150878906f, 0.48977157473564147949f, 0.046433832496404647827f, -0.32616609334945678711f, -0.27717369794845581055f, 0.043111089617013931274f, 0.76277816295623779297f, 0.083595037460327148438f, -0.24331453442573547363f, 0.59496307373046875000f, 0.097713634371757507324f, -0.10977865010499954224f, -0.049366597086191177368f, 0.058478865772485733032f, -0.00043944030767306685448f, -0.11936944723129272461f, 0.45294222235679626465f, 0.0036008814349770545959f, 0.24961000680923461914f, -0.0032098721712827682495f, 0.046316027641296386719f, 0.045275885611772537231f, -0.060578685253858566284f, -0.10762820392847061157f, -0.10915157198905944824f, -0.14826722443103790283f, -0.050401747226715087891f, 0.10483296215534210205f, -0.47139346599578857422f, 0.063779808580875396729f, 0.58056396245956420898f, 0.030446713790297508240f, -0.090345881879329681396f, 0.0053214593790471553802f, -0.71497517824172973633f, -0.0098355514928698539734f, 0.026736389845609664917f, 0.095976479351520538330f, 0.10999497771263122559f, -0.13542093336582183838f, -0.50211542844772338867f, -0.11028172820806503296f, 0.059681907296180725098f, -0.98556071519851684570f, -0.026533538475632667542f, 0.053779125213623046875f, -0.011506460607051849365f, 0.14728686213493347168f, 0.0091058351099491119385f, -0.16762216389179229736f, -0.00073546142084524035454f, 0.065550759434700012207f, -0.0030436026863753795624f, -0.12968339025974273682f, -0.048641078174114227295f, -0.20003689825534820557f, -0.43570548295974731445f, 0.11552673578262329102f, -0.13130162656307220459f, 0.075470395386219024658f, 0.0090033505111932754517f, -0.36529406905174255371f, 0.16417725384235382080f, -0.055685169994831085205f, -0.049629438668489456177f, 0.060121055692434310913f, -0.29919382929801940918f, 0.0056808926165103912354f, 0.19645883142948150635f, 0.018257331103086471558f, -0.13966988027095794678f},
  {0.10408323258161544800f, -0.080428987741470336914f, 0.010924478061497211456f, 0.13476477563381195068f, -0.011957520619034767151f, 0.054343402385711669922f, 0.058092825114727020264f, 0.084595210850238800049f, -0.064371995627880096436f, 0.077747114002704620361f, -0.037320628762245178223f, 0.098175831139087677002f, -0.023546881973743438721f, -0.058385558426380157471f, 0.022321237251162528992f, 0.021382562816143035889f, 0.014058704487979412079f, -0.047552604228258132935f, -0.13812787830829620361f, 0.081969365477561950684f, -0.062809966504573822021f, -0.29555371403694152832f, -0.0072570466436445713043f, 0.11945079267024993896f, -0.020279347896575927734f, 0.16123794019222259521f, -0.057739529758691787720f, -0.057408966124057769775f, -0.14817012846469879150f, -0.026301905512809753418f, 0.050692316144704818726f, -0.17505574226379394531f, 0.34037455916404724121f, 0.012631019577383995056f, 0.081603296101093292236f, -0.022749023512005805969f, 0.063439533114433288574f, 0.16210570931434631348f, -0.063812814652919769287f, 0.089240849018096923828f, 0.026629939675331115723f, 0.016411850228905677795f, -0.22392328083515167236f, 0.14103493094444274902f, -0.12577675282955169678f, -0.11976061761379241943f, 0.14662456512451171875f, -0.14059129357337951660f, -0.024326680228114128113f, 0.12203837931156158447f, 0.038420170545578002930f, 0.12022133916616439819f, -0.10027055442333221436f, -0.13774693012237548828f, 0.43235933780670166016f, -0.10626363009214401245f, 0.027460545301437377930f, 0.051846057176589965820f, -0.053720772266387939453f, -0.060217224061489105225f, 0.065165907144546508789f, -0.15363948047161102295f, -0.010651466436684131622f, -0.20272496342658996582f, 0.075026497244834899902f, 0.094509519636631011963f, -0.035164855420589447021f, 0.14356920123100280762f, 0.013706403784453868866f, 0.093219697475433349609f, 0.12067107856273651123f, -0.093897774815559387207f},
  {0.15334254503250122070f, 0.039318297058343887329f, -0.030374469235539436340f, 0.20485301315784454346f, 0.0058775218203663825989f, -0.011052466928958892822f, -0.028790725395083427429f, 0.092720851302146911621f, -0.082970611751079559326f, 0.11837863922119140625f, 0.021140329539775848389f, 0.031636729836463928223f, 0.011964532546699047089f, 0.0061637582257390022278f, -0.10684945434331893921f, -0.26984137296676635742f, -0.072284668684005737305f, -0.15594147145748138428f, 0.055488619953393936157f, -0.15542441606521606445f, -0.14413318037986755371f, 0.17313039302825927734f, 0.062694780528545379639f, 0.21928657591342926025f, 0.16293355822563171387f, 0.13850750029087066650f, -0.073374614119529724121f, 0.11375338584184646606f, 0.12192228436470031738f, -0.19121751189231872559f, 0.17899884283542633057f, -0.021619899198412895203f, -0.034632727503776550293f, -0.14244599640369415283f, -0.015634283423423767090f, 0.024264812469482421875f, -0.30051451921463012695f, 0.16887946426868438721f, -0.079359985888004302979f, 0.28101983666419982910f, -0.10115838050842285156f, 0.19679573178291320801f, 0.13095542788505554199f, 0.11072179675102233887f, -0.040625300258398056030f, -0.23751763999462127686f, -0.13293631374835968018f, 0.11902419477701187134f, -0.22944180667400360107f, 0.015532599762082099915f, 0.041566003113985061646f, -0.25865545868873596191f, 0.15113689005374908447f, -0.083134025335311889648f, 0.15447300672531127930f, 0.036138832569122314453f, -0.048609826713800430298f, 0.18730263411998748779f, 0.26597282290458679199f, -0.080927148461341857910f, 0.11555544286966323853f, -0.14812447130680084229f, -0.18409375846385955811f, -0.044643018394708633423f, 0.018394684419035911560f, 0.017097370699048042297f, -0.022513762116432189941f, 0.075669288635253906250f, 0.27849581837654113770f, 0.014587858691811561584f, -0.012551658786833286285f, -0.11542616784572601318f},
  {-0.028797337785363197327f, -0.050873406231403350830f, -0.095334120094776153564f, 0.10889390110969543457f, 0.0012675324687734246254f, 0.025938669219613075256f, 0.077515244483947753906f, 0.15246082842350006104f, -0.064336746931076049805f, 0.033329762518405914307f, -0.00062987365527078509331f, 0.10657149553298950195f, -0.021623063832521438599f, 0.037561073899269104004f, 0.10043565928936004639f, -0.53898912668228149414f, -0.055576987564563751221f, -0.17770627140998840332f, 0.069206766784191131592f, -0.034268599003553390503f, -0.029810285195708274841f, -0.25077965855598449707f, -0.068293094635009765625f, -0.096180006861686706543f, -0.024284593760967254639f, -0.038953416049480438232f, 0.15757359564304351807f, 0.040466275066137313843f, -0.037846233695745468140f, -0.039282739162445068359f, 0.13796548545360565186f, 0.19040174782276153564f, 0.15350320935249328613f, -0.093714185059070587158f, 0.11498679965734481812f, -0.099839486181735992432f, -0.0052643097005784511566f, 0.061159882694482803345f, -0.0064426795579493045807f, 0.064540252089500427246f, 0.013544382527470588684f, 0.12392088025808334351f, -0.10295543819665908813f, 0.028392398729920387268f, 0.057759981602430343628f, 0.011865348555147647858f, 0.044080454856157302856f, 0.16225343942642211914f, 0.098813302814960479736f, -0.036889396607875823975f, 0.062968969345092773438f, 0.063876926898956298828f, -0.35865795612335205078f, 0.20748652517795562744f, -0.019040605053305625916f, -0.081805787980556488037f, -0.021462870761752128601f, 0.014700769446790218353f, 0.071480311453342437744f, -0.0048898896202445030212f, 0.12145384401082992554f, -0.065392322838306427002f, -0.093820892274379730225f, -0.067678079009056091309f, 0.052490498870611190796f, -0.11011040955781936646f, -0.069239206612110137939f, -0.12227978557348251343f, 0.21815413236618041992f, 0.21570000052452087402f, 0.0086331414058804512024f, -0.050813533365726470947f},
  {0.054268967360258102417f, -0.030520716682076454163f, -0.043354794383049011230f, -0.037724837660789489746f, -0.11130002886056900024f, 0.060276027768850326538f, -0.052439045161008834839f, 0.075858645141124725342f, -0.024972284212708473206f, -0.13250504434108734131f, 0.0049309553578495979309f, 0.080837100744247436523f, 0.017225978896021842957f, 0.12719871103763580322f, 0.062571249902248382568f, -0.20475593209266662598f, -0.10568512231111526489f, -0.0063059576787054538727f, -0.026538357138633728027f, -0.14891186356544494629f, -0.0065173506736755371094f, 0.024894660338759422302f, 0.018304459750652313232f, 0.015498002991080284119f, 0.042591273784637451172f, -0.084571868181228637695f, -0.071990124881267547607f, 0.039371713995933532715f, -0.080612398684024810791f, -0.035436023026704788208f, 0.019016927108168601990f, 0.060657363384962081909f, -0.070491872727870941162f, -0.054318092763423919678f, 0.033449798822402954102f, 0.12923085689544677734f, 0.051655173301696777344f, -0.010507861152291297913f, -0.090128839015960693359f, 0.044233385473489761353f, -0.066403515636920928955f, 0.0054561784490942955017f, -0.024568213149905204773f, -0.0086098574101924896240f, 0.10517171770334243774f, -0.015206169337034225464f, -0.021109558641910552979f, -0.050885152071714401245f, -0.028911639004945755005f, -0.0028763988520950078964f, 0.033901404589414596558f, -0.050174623727798461914f, 0.025019379332661628723f, 0.012723966501653194427f, 0.11622709780931472778f, -0.045427110046148300171f, -0.13099901378154754639f, 0.048976626247167587280f, -0.015026846900582313538f, -0.089087843894958496094f, 0.046200130134820938110f, -0.028695369139313697815f, -0.0078957034274935722351f, -0.099627479910850524902f, -0.064864024519920349121f, -0.064516969025135040283f, 0.072581470012664794922f, 0.030159138143062591553f, 0.0037267687730491161346f, 0.12666827440261840820f, 0.051235098391771316528f, -0.016272859647870063782f},
  {0.037721026688814163208f, 0.0028031691908836364746f, 0.031925391405820846558f, -0.025234661996364593506f, -0.021280437707901000977f, 0.024838238954544067383f, 0.058742191642522811890f, 0.030151261016726493835f, 0.029048811644315719604f, 0.11158862709999084473f, -0.024646013975143432617f, 0.024792499840259552002f, -0.0092025073245167732239f, 0.041345253586769104004f, 0.063871830701828002930f, -0.14829301834106445312f, -0.039070077240467071533f, -0.060298122465610504150f, 0.033469356596469879150f, 0.055107779800891876221f, -0.092085808515548706055f, -0.094161406159400939941f, 0.0018905497854575514793f, -0.062784053385257720947f, 0.028227912262082099915f, -0.049195267260074615479f, 0.034321554005146026611f, 0.030166303738951683044f, -0.064413934946060180664f, -0.10144788771867752075f, 0.082329399883747100830f, 0.11152354627847671509f, 0.045425496995449066162f, 0.011144432239234447479f, -0.025917736813426017761f, 0.025753917172551155090f, -0.012817455455660820007f, -0.0023528800811618566513f, -0.042292471975088119507f, 0.10517686605453491211f, -0.073631495237350463867f, -0.0010260512353852391243f, -0.066472113132476806641f, 0.016785264015197753906f, 0.10126348584890365601f, 0.086596697568893432617f, 0.031658779829740524292f, 0.0051708789542317390442f, 0.053013369441032409668f, 0.032297343015670776367f, 0.045636717230081558228f, 0.021738510578870773315f, -0.095123872160911560059f, -0.033999960869550704956f, -0.0070228208787739276886f, -0.018297752365469932556f, -0.0061005204916000366211f, 0.047992438077926635742f, -0.062198989093303680420f, -0.045957107096910476685f, 0.023263022303581237793f, 0.013090420514345169067f, -0.0060108681209385395050f, 0.044207993894815444946f, -0.0079932529479265213013f, 0.095467641949653625488f, 0.10966861993074417114f, 0.068112380802631378174f, 0.078669957816600799561f, 0.031107399612665176392f, -0.0038231865037232637405f, -0.0075513189658522605896f},
  {-0.084446005523204803467f, -0.0046691857278347015381f, -0.080748423933982849121f, 0.055865239351987838745f, -0.061057157814502716064f, 0.027089422568678855896f, 0.0026270078960806131363f, 0.016307625919580459595f, -0.047183811664581298828f, -0.049139004200696945190f, -0.039867967367172241211f, 0.095680773258209228516f, -0.020081026479601860046f, 0.090958252549171447754f, 0.079460553824901580811f, -0.28032201528549194336f, -0.039785567671060562134f, -0.072592578828334808350f, -0.0054485914297401905060f, 0.0060055330395698547363f, -0.055469218641519546509f, -0.037370715290307998657f, 0.057022105902433395386f, -0.024704281240701675415f, -0.020842060446739196777f, -0.046297043561935424805f, -0.12620973587036132812f, 0.013640481978654861450f, 0.034391775727272033691f, -0.0069121113047003746033f, 0.082576848566532135010f, -0.021007297560572624207f, 0.072030298411846160889f, -0.11372631043195724487f, 0.042111057788133621216f, -0.15313136577606201172f, -0.0015781973488628864288f, 0.013194583356380462646f, 0.030513886362314224243f, 0.22774092853069305420f, -0.068354055285453796387f, 0.038542374968528747559f, -0.0083626825362443923950f, 0.020335672423243522644f, -0.077678278088569641113f, 0.013217173516750335693f, -0.0094185238704085350037f, -0.043952044099569320679f, -0.11381612718105316162f, 0.14875839650630950928f, 0.12482132017612457275f, 0.071703433990478515625f, -0.0062284865416586399078f, -0.050809260457754135132f, 0.095540665090084075928f, -0.0037297811359167098999f, -0.011293228715658187866f, 0.075434923171997070312f, 0.031836196780204772949f, -0.056742530316114425659f, 0.020665122196078300476f, -0.037508498877286911011f, -0.054793067276477813721f, -0.038590654730796813965f, -0.063011623919010162354f, 0.11545008420944213867f, -0.012357351370155811310f, 0.16188670694828033447f, 0.13240981101989746094f, 0.067449033260345458984f, 0.025783171877264976501f, -0.038419853895902633667f},
  {-0.10022994130849838257f, -0.36497199535369873047f, 0.30791613459587097168f, 0.048181239515542984009f, -0.064630307257175445557f, -0.084275268018245697021f, -0.088624201714992523193f, 0.047307875007390975952f, 0.057539910078048706055f, 0.11705117672681808472f, 0.19850362837314605713f, 0.032206922769546508789f, 0.40481823682785034180f, 0.0083469320088624954224f, 0.20205363631248474121f, 0.36448270082473754883f, -0.075906254351139068604f, 0.018777081742882728577f, 0.20765033364295959473f, -0.23106418550014495850f, -0.082496859133243560791f, -0.065484881401062011719f, 0.18266640603542327881f, 0.047895696014165878296f, -0.046502709388732910156f, 0.022120041772723197937f, 0.27106359601020812988f, -0.40248158574104309082f, -0.44855892658233642578f, 0.35776659846305847168f, -0.22050073742866516113f, -0.36191985011100769043f, -0.12121175974607467651f, -0.026942415162920951843f, 0.016387946903705596924f, 0.27608746290206909180f, -0.16886933147907257080f, 0.070703983306884765625f, -0.22474700212478637695f, 0.083295077085494995117f, 0.34074872732162475586f, 0.13796345889568328857f, 0.097756832838058471680f, 0.26485601067543029785f, -0.092438325285911560059f, -0.0088251614943146705627f, 0.059376817196607589722f, 0.066266939043998718262f, -0.23437397181987762451f, -0.062504582107067108154f, -0.049021154642105102539f, -0.089938886463642120361f, 0.00073965085903182625771f, 0.071762181818485260010f, -0.33062082529067993164f, 0.22157551348209381104f, -0.060965858399868011475f, -0.29218003153800964355f, 0.038600310683250427246f, 0.34904325008392333984f, -0.085505180060863494873f, -0.36270385980606079102f, -0.11854456365108489990f, 0.15036112070083618164f, 0.072886779904365539551f, -0.016462959349155426025f, -0.059421386569738388062f, 0.19514054059982299805f, -0.031889595091342926025f, 0.025421869009733200073f, 0.20110389590263366699f, -0.15727512538433074951f},
  {0.034813303500413894653f, -0.018387744203209877014f, -0.16144560277462005615f, 0.13398580253124237061f, -0.010628801770508289337f, -0.031858053058385848999f, 0.26226866245269775391f, 0.30695006251335144043f, -0.26068967580795288086f, -0.10556941479444503784f, 0.023753831163048744202f, 0.10458595305681228638f, -0.029129907488822937012f, 0.15117795765399932861f, 0.050997659564018249512f, -0.050246804952621459961f, -0.063603445887565612793f, -0.064546793699264526367f, -0.11624836921691894531f, 0.23185880482196807861f, -0.036928988993167877197f, -0.17061202228069305420f, 0.045769494026899337769f, 0.051848135888576507568f, 0.021660177037119865417f, 0.045787725597620010376f, -0.094529248774051666260f, 0.018114771693944931030f, 0.069178164005279541016f, -0.060433544218540191650f, -0.051357362419366836548f, -0.13117299973964691162f, 0.10011343657970428467f, -0.055014848709106445312f, -0.033188499510288238525f, 0.055592007935047149658f, 0.017682686448097229004f, -0.052193712443113327026f, -0.075076423585414886475f, 0.058339465409517288208f, 0.11067717522382736206f, 0.045896444469690322876f, -0.056164186447858810425f, -0.018757773563265800476f, -0.041376449167728424072f, 0.055256668478250503540f, 0.088730610907077789307f, -0.30847612023353576660f, -0.17055550217628479004f, -0.047416262328624725342f, 0.050831738859415054321f, -0.051532890647649765015f, -0.014092855155467987061f, 0.12228928506374359131f, -0.027277922257781028748f, -0.11269532144069671631f, -0.17817139625549316406f, 0.13765867054462432861f, 0.14351883530616760254f, -0.16763563454151153564f, 0.019010433927178382874f, -0.016744127497076988220f, -0.097847826778888702393f, -0.10517129302024841309f, -0.079819135367870330811f, -0.040157869458198547363f, -0.25760543346405029297f, 0.045222230255603790283f, 0.20202291011810302734f, 0.22046624124050140381f, -0.022645970806479454041f, -0.033288884907960891724f},
  {0.067063808441162109375f, -0.028365680947899818420f, -0.0066341217607259750366f, 0.011952328495681285858f, -0.019378015771508216858f, 0.060444518923759460449f, -0.00044781746692024171352f, 0.027228960767388343811f, -0.058280378580093383789f, -0.047813884913921356201f, -0.0097190216183662414551f, 0.062308557331562042236f, 0.00034934838186018168926f, 0.043450899422168731689f, 0.034619834274053573608f, -0.11233574897050857544f, -0.039473414421081542969f, -0.014439268037676811218f, 0.045322727411985397339f, 0.034497287124395370483f, 0.0079492079094052314758f, -0.042723767459392547607f, -0.018001407384872436523f, 0.058168362826108932495f, 0.020943766459822654724f, -0.10059896856546401978f, -0.054416656494140625000f, 0.010797716677188873291f, 0.021060319617390632629f, -0.024738317355513572693f, -0.0048920153640210628510f, -0.019245596602559089661f, 0.044036731123924255371f, -0.035712298005819320679f, 0.00087704317411407828331f, -0.057024594396352767944f, -0.029195629060268402100f, 0.051128517836332321167f, 0.031366970390081405640f, -0.0081921778619289398193f, -0.056511256843805313110f, 0.052931699901819229126f, 0.0055699124932289123535f, 0.0047362591139972209930f, -0.033702719956636428833f, -0.0074556022882461547852f, 0.048152849078178405762f, 0.070900835096836090088f, -0.11981167644262313843f, 0.018519999459385871887f, -0.0041821338236331939697f, 0.059960190206766128540f, -0.12129122763872146606f, 0.0040028062649071216583f, 0.051244150847196578979f, 0.0074418443255126476288f, 0.0025345019530504941940f, -0.048170853406190872192f, 0.044126570224761962891f, -0.10679413378238677979f, 0.039760757237672805786f, -0.054735884070396423340f, -0.067007027566432952881f, 0.0055264225229620933533f, -0.0056829876266419887543f, -0.033350005745887756348f, 0.11456380784511566162f, 0.072499416768550872803f, -0.010187788866460323334f, 0.10080699622631072998f, -0.016043748706579208374f, -0.00076145800994709134102f},
  {0.29512357711791992188f, -0.42337813973426818848f, 0.074138864874839782715f, -0.010254247114062309265f, -0.25206184387207031250f, -0.12527959048748016357f, 0.32332697510719299316f, 0.34810090065002441406f, 0.17658412456512451172f, 0.075527265667915344238f, 0.13149984180927276611f, 0.50948613882064819336f, 0.020588122308254241943f, -0.10153386741876602173f, 0.021087840199470520020f, -0.20075005292892456055f, 0.12747031450271606445f, 0.26456212997436523438f, -0.032392129302024841309f, 0.19113153219223022461f, 0.087137594819068908691f, -0.18389970064163208008f, 0.094792716205120086670f, 0.21304897964000701904f, 0.13954456150531768799f, -0.016773691400885581970f, -0.34450525045394897461f, -0.058315660804510116577f, -0.17542697489261627197f, -0.20474836230278015137f, 0.10464174300432205200f, 0.099068872630596160889f, 0.21537373960018157959f, -0.36874243617057800293f, -0.23697221279144287109f, 0.098672904074192047119f, -0.18479077517986297607f, 0.15658932924270629883f, 0.099721908569335937500f, 0.19126179814338684082f, -0.080748572945594787598f, -0.053516127169132232666f, 0.11051627993583679199f, 0.19848875701427459717f, -0.088056065142154693604f, 0.056847132742404937744f, -0.079203598201274871826f, -0.20633608102798461914f, -0.067787274718284606934f, 0.20697678625583648682f, -0.11543589830398559570f, -0.13900111615657806396f, 0.0024480340071022510529f, -0.17845961451530456543f, 0.14180915057659149170f, -0.14184321463108062744f, 0.047354903072118759155f, 0.21276853978633880615f, 0.12244576215744018555f, -0.24795185029506683350f, 0.30803859233856201172f, -0.51173323392868041992f, -0.42977422475814819336f, -0.23485684394836425781f, -0.21843743324279785156f, -0.056430485099554061890f, -0.098112955689430236816f, 0.14103992283344268799f, 0.12008669227361679077f, -0.14387713372707366943f, 0.099312111735343933105f, -0.33605986833572387695f},
  {-0.34802481532096862793f, -0.40007436275482177734f, -0.27074009180068969727f, 0.19814655184745788574f, 0.16931681334972381592f, 0.24146623909473419189f, -0.041739732027053833008f, -0.17665675282478332520f, 0.0078459186479449272156f, -0.026395592838525772095f, -0.38875624537467956543f, 0.44221159815788269043f, 0.053976457566022872925f, -0.030836107209324836731f, 0.30580431222915649414f, -0.24040225148200988770f, 0.013622255995869636536f, 0.45258137583732604980f, 0.41527926921844482422f, -0.10010782629251480103f, 0.072732843458652496338f, 0.024036265909671783447f, 0.073509715497493743896f, 0.10645852237939834595f, 0.28629586100578308105f, -0.075305901467800140381f, 0.20116791129112243652f, -0.34847545623779296875f, -0.017190923914313316345f, 0.045531213283538818359f, 0.22509413957595825195f, -0.12454077601432800293f, -0.060594324022531509399f, 0.16893108189105987549f, 0.22794336080551147461f, 0.083533540368080139160f, 0.22843480110168457031f, -0.10275333374738693237f, -0.18866394460201263428f, -0.20669732987880706787f, -0.16822016239166259766f, -0.22624364495277404785f, -0.10741443186998367310f, 0.26272755861282348633f, 0.40276083350181579590f, -0.010083114728331565857f, -0.45566037297248840332f, 0.18574209511280059814f, 0.064121693372726440430f, -0.063730977475643157959f, 0.18444043397903442383f, -0.090641312301158905029f, 0.021326085552573204041f, 0.17683614790439605713f, 0.13588167726993560791f, 0.15424129366874694824f, -0.16306906938552856445f, 0.030449908226728439331f, 0.067774556577205657959f, -0.23289306461811065674f, -0.27692270278930664062f, -0.48976212739944458008f, -0.24162542819976806641f, 0.088390603661537170410f, 0.31710633635520935059f, 0.22825376689434051514f, -0.12782061100006103516f, -0.0069175129756331443787f, -0.31727570295333862305f, 0.18835900723934173584f, 0.32554298639297485352f, -0.14242778718471527100f},
  {-0.048908844590187072754f, -0.16689373552799224854f, -0.43704620003700256348f, -0.040865197777748107910f, 0.30204701423645019531f, 0.26186698675155639648f, 0.10100315511226654053f, -0.25296255946159362793f, 0.14333964884281158447f, -0.070941753685474395752f, -0.33511227369308471680f, 0.043280433863401412964f, -0.15238854289054870605f, -0.21571771800518035889f, 0.17602375149726867676f, -0.32111084461212158203f, -0.012069847434759140015f, 0.24862138926982879639f, -0.058148007839918136597f, 0.27505064010620117188f, -0.097442075610160827637f, -0.15512691438198089600f, -0.081557735800743103027f, 0.26211729645729064941f, -0.082344099879264831543f, -0.11910241097211837769f, 0.14714875817298889160f, 0.094911508262157440186f, -0.43119400739669799805f, -0.24820351600646972656f, 0.055848829448223114014f, 0.13049365580081939697f, 0.21131819486618041992f, -0.30931037664413452148f, -0.023711582645773887634f, -0.44746303558349609375f, 0.21159675717353820801f, 0.044704925268888473511f, -0.17726172506809234619f, -0.10876962542533874512f, -0.24348221719264984131f, 0.028657924383878707886f, -0.011819806881248950958f, 0.20289349555969238281f, 0.10989220440387725830f, -0.00024434062652289867401f, -0.011125741526484489441f, -0.10258697718381881714f, -0.15542155504226684570f, 0.028197240084409713745f, -0.10908601433038711548f, 0.16265328228473663330f, 0.0056282514706254005432f, -0.095989204943180084229f, 0.10610487312078475952f, -0.25201168656349182129f, -0.076504290103912353516f, 0.094203956425189971924f, -0.20193952322006225586f, -0.31128665804862976074f, 0.48584428429603576660f, -0.18863351643085479736f, -0.11580280214548110962f, -0.34080404043197631836f, 0.26512026786804199219f, -0.035088986158370971680f, -0.059518709778785705566f, -0.25022727251052856445f, -0.013869207352399826050f, 0.079539336264133453369f, 0.027142394334077835083f, -0.18028701841831207275f},
  {-0.0040986854583024978638f, -0.0010030521079897880554f, -0.0022899857722222805023f, 0.035505671054124832153f, -0.0081597436219453811646f, -0.033177364617586135864f, -0.0025223908014595508575f, 0.027834795415401458740f, -0.026102183386683464050f, -0.0043982556089758872986f, 0.035282079130411148071f, -0.00059033028082922101021f, -0.0062902113422751426697f, 0.023485533893108367920f, 0.015740724280476570129f, -0.072904311120510101318f, -0.042236901819705963135f, -0.038503728806972503662f, -0.024198800325393676758f, -0.0086251730099320411682f, -0.031937826424837112427f, -0.017841409891843795776f, 0.014836679212749004364f, -0.034342151135206222534f, -0.019748190417885780334f, -0.074879005551338195801f, 0.012504406273365020752f, -0.0038486958947032690048f, 0.0091162417083978652954f, -0.041614685207605361938f, -0.012563683092594146729f, -0.0076056779362261295319f, 0.026967793703079223633f, -0.034823872148990631104f, -0.0034041679464280605316f, 0.037199098616838455200f, -0.048753481358289718628f, 0.051419347524642944336f, -0.0096441609784960746765f, 0.021427091211080551147f, 0.0086735645309090614319f, 0.020076483488082885742f, 0.00036648969398811459541f, 0.0074858427979052066803f, 0.033431954681873321533f, -0.040487878024578094482f, 0.019282072782516479492f, -0.031484361737966537476f, -0.022857591509819030762f, 0.088979296386241912842f, 0.0057091284543275833130f, 0.026948140934109687805f, -0.014574320986866950989f, 0.018454616889357566833f, 0.075881145894527435303f, -0.0072667384520173072815f, -0.029514292255043983459f, -0.0099869361147284507751f, -0.0074397833086550235748f, -0.0034443298354744911194f, 0.033973265439271926880f, -0.025728615000844001770f, -0.010290847159922122955f, -0.014198967255651950836f, 0.0046861930750310420990f, 0.037442121654748916626f, -0.0012299907393753528595f, -0.0053580738604068756104f, 0.010902035050094127655f, 0.067380860447883605957f, 0.023661354556679725647f, -0.0018558272859081625938f},
  {0.033529717475175857544f, 0.011912023648619651794f, -0.082069680094718933105f, 0.064753733575344085693f, -0.068503692746162414551f, 0.13278864324092864990f, 0.19361713528633117676f, 0.11009819060564041138f, -0.21965195238590240479f, -0.029238231480121612549f, -0.040721483528614044189f, 0.013542695902287960052f, 0.15898393094539642334f, 0.063950419425964355469f, 0.11529894173145294189f, -0.31234484910964965820f, -0.017080420628190040588f, -0.16298322379589080811f, -0.050222247838973999023f, 0.16001158952713012695f, 0.052151706069707870483f, 0.13295973837375640869f, -0.00021414103684946894646f, 0.16502790153026580811f, 0.12878765165805816650f, -0.00053125625709071755409f, -0.048329528421163558960f, 0.016375375911593437195f, -0.063780114054679870605f, -0.052709978073835372925f, 0.098358862102031707764f, -0.12161707878112792969f, 0.089610747992992401123f, 0.012246970087289810181f, 0.18472971022129058838f, 0.24325779080390930176f, 0.12192881107330322266f, 0.10906248539686203003f, 0.029710676521062850952f, 0.0016716732643544673920f, -0.18543991446495056152f, 0.13793568313121795654f, -0.017042966559529304504f, -0.026453120633959770203f, -0.080730520188808441162f, 0.093982338905334472656f, -0.086072593927383422852f, 0.024220503866672515869f, -0.33130156993865966797f, 0.14676816761493682861f, 0.14038556814193725586f, -0.0019630929455161094666f, -0.031369902193546295166f, 0.16564278304576873779f, 0.20104870200157165527f, -0.051083397120237350464f, -0.099935404956340789795f, 0.077559724450111389160f, 0.084062732756137847900f, -0.18334499001502990723f, 0.19805613160133361816f, -0.0064799827523529529572f, -0.082300849258899688721f, -0.065408445894718170166f, 0.0014847281854599714279f, 0.11306091398000717163f, 0.18928329646587371826f, 0.14863739907741546631f, -0.11754621565341949463f, 0.075527735054492950439f, 0.0035682702437043190002f, 0.030540198087692260742f},
  {-0.14480791985988616943f, 0.012493373826146125793f, 0.011947890743613243103f, 0.13579289615154266357f, 0.038959059864282608032f, -0.026621036231517791748f, 0.088321059942245483398f, 0.027177751064300537109f, 0.0024686956312507390976f, 0.0032220841385424137115f, 0.010916880331933498383f, 0.053073722869157791138f, 0.035773009061813354492f, 0.093932278454303741455f, 0.058169320225715637207f, -0.11451930552721023560f, -0.025669138878583908081f, 0.011917241849005222321f, -8.0575824540574103594e-05f, 0.10690209269523620605f, -0.052146531641483306885f, -0.098394811153411865234f, 0.080162018537521362305f, 0.12394168972969055176f, -0.10397459566593170166f, 0.019957877695560455322f, -0.028569947928190231323f, -0.026688039302825927734f, 0.048898525536060333252f, -0.029161417856812477112f, 0.0076257218606770038605f, 0.021606823429465293884f, 0.091247625648975372314f, -0.051607165485620498657f, -0.0026347110979259014130f, -0.0070855622179806232452f, 0.066062822937965393066f, -0.062589347362518310547f, -0.012829816900193691254f, -0.040748171508312225342f, 0.014238572679460048676f, -0.046574097126722335815f, -0.18585605919361114502f, 0.0053368969820439815521f, -0.079054959118366241455f, -0.038203202188014984131f, -0.031015930697321891785f, -0.011546068824827671051f, -0.12663961946964263916f, -0.041236441582441329956f, 0.060341380536556243896f, -0.044872254133224487305f, -0.10960631817579269409f, -0.0042042015120387077332f, 0.025447541847825050354f, 0.039336007088422775269f, -0.026776587590575218201f, -0.097708001732826232910f, 0.079433426260948181152f, -0.058072578161954879761f, 0.038178578019142150879f, 0.047536890953779220581f, -0.052130095660686492920f, -0.10106126964092254639f, -0.0067544295452535152435f, 0.051235914230346679688f, 0.0066470238380134105682f, -0.046654578298330307007f, 0.027881624177098274231f, 0.10277215391397476196f, 0.0032085266429930925369f, -0.031538929790258407593f},
  {-0.0087943337857723236084f, -0.46417656540870666504f, 0.21440732479095458984f, 0.39793723821640014648f, -0.084673598408699035645f, -0.21467784047126770020f, -0.20849506556987762451f, 0.29249641299247741699f, 0.39963784813880920410f, -0.20915509760379791260f, -0.027516974136233329773f, 0.52836853265762329102f, 0.028999313712120056152f, -0.12047047168016433716f, 0.71515548229217529297f, -0.017153149470686912537f, -0.44285580515861511230f, 0.23617221415042877197f, 0.020554460585117340088f, 0.041961617767810821533f, -0.096531316637992858887f, -0.50696825981140136719f, 0.20827364921569824219f, 0.016819255426526069641f, -0.35783421993255615234f, -0.28630939126014709473f, -0.039656627923250198364f, -0.25816765427589416504f, -0.21686236560344696045f, -0.34901690483093261719f, -0.17779156565666198730f, 0.15398152172565460205f, 0.21908895671367645264f, -0.53670144081115722656f, 0.16675855219364166260f, -0.069284461438655853271f, 0.30077165365219116211f, -0.097547307610511779785f, -0.29773595929145812988f, -0.045783229172229766846f, -0.21614198386669158936f, -0.29575470089912414551f, -0.076372712850570678711f, 0.61730653047561645508f, -0.20045742392539978027f, -0.13497434556484222412f, 0.24994537234306335449f, 0.10120690613985061646f, -0.052864797413349151611f, -0.10809306800365447998f, -0.32822966575622558594f, 0.056920647621154785156f, -0.34687578678131103516f, 0.096743382513523101807f, 0.17562839388847351074f, -0.14080362021923065186f, -0.49699968099594116211f, -0.30718693137168884277f, 0.32909613847732543945f, -0.40505164861679077148f, 0.29829949140548706055f, -0.51380085945129394531f, -0.59798067808151245117f, -0.23792019486427307129f, 0.17021094262599945068f, -0.058475617319345474243f, -0.18142051994800567627f, -0.0058385804295539855957f, 0.29040360450744628906f, 0.51976931095123291016f, 0.46299999952316284180f, -0.85309100151062011719f},
  {0.084670789539813995361f, -0.45323812961578369141f, -0.23313446342945098877f, 0.054445859044790267944f, -0.090987168252468109131f, 0.12600880861282348633f, 0.079615227878093719482f, 0.45036605000495910645f, 0.098469972610473632812f, -0.46482768654823303223f, 0.10703904926776885986f, 0.24653850495815277100f, 0.23405656218528747559f, 0.0057462831027805805206f, 0.053612835705280303955f, 0.074710637331008911133f, -0.080356426537036895752f, -0.24940346181392669678f, -0.021939774975180625916f, 0.37470883131027221680f, -0.035995535552501678467f, 0.066026158630847930908f, -0.059450965374708175659f, 0.062015876173973083496f, 0.24060665071010589600f, 0.19595205783843994141f, 0.047029215842485427856f, -0.20173382759094238281f, 0.060281783342361450195f, 0.21877637505531311035f, 0.034306485205888748169f, 0.33869421482086181641f, 0.46510928869247436523f, -0.089375726878643035889f, 0.052430596202611923218f, -0.66154670715332031250f, 0.33946779370307922363f, -0.044228188693523406982f, 0.28875431418418884277f, -0.23868556320667266846f, 0.15935768187046051025f, 0.16633468866348266602f, -0.14068710803985595703f, -0.14092072844505310059f, -0.12273818999528884888f, -0.025716617703437805176f, -0.010882338508963584900f, 0.0074352854862809181213f, 0.32086732983589172363f, -0.015841541811823844910f, -0.14446602761745452881f, 0.15919637680053710938f, -0.016728155314922332764f, 0.060443654656410217285f, -0.040180053561925888062f, 0.026321483775973320007f, -0.057210162281990051270f, 0.34951248764991760254f, -0.034639474004507064819f, 0.013995794579386711121f, 0.37655019760131835938f, -0.52931922674179077148f, -0.0064477617852389812469f, 0.098931565880775451660f, -0.25645565986633300781f, 0.0055607212707400321960f, 0.0097171161323785781860f, -0.38959926366806030273f, -0.058904342353343963623f, -0.35304298996925354004f, 0.046132214367389678955f, 0.071876004338264465332f},
  {-0.024283319711685180664f, -0.28259429335594177246f, -0.070653773844242095947f, 0.49523684382438659668f, 0.23696316778659820557f, 0.22231817245483398438f, -0.045179069042205810547f, 0.61084789037704467773f, 0.10744711756706237793f, -0.63566601276397705078f, 0.088037081062793731689f, 0.57538211345672607422f, 0.29000717401504516602f, -0.17126920819282531738f, 0.51958203315734863281f, 0.042597010731697082520f, -0.15590520203113555908f, -0.067646525800228118896f, 0.28593626618385314941f, -0.029320469126105308533f, -0.26159957051277160645f, -0.30201759934425354004f, -0.038180168718099594116f, 0.059391498565673828125f, -0.090991854667663574219f, -0.089113578200340270996f, 0.023304326459765434265f, -0.22476395964622497559f, 0.25914520025253295898f, 0.60051411390304565430f, 0.17129474878311157227f, -0.10607442259788513184f, 0.59966754913330078125f, -0.46878096461296081543f, 0.14972928166389465332f, 0.75523072481155395508f, 0.29957348108291625977f, -0.075941167771816253662f, 0.29478731751441955566f, -0.089828066527843475342f, -0.13938634097576141357f, 0.26291254162788391113f, -0.21636494994163513184f, 0.068509653210639953613f, -0.23441483080387115479f, -0.057523731142282485962f, 0.072744660079479217529f, 0.022000070661306381226f, 0.32932043075561523438f, -0.023989452049136161804f, -0.35266336798667907715f, 0.048420865088701248169f, 0.042327303439378738403f, -0.080109208822250366211f, 0.041474960744380950928f, 0.072039246559143066406f, -0.41311848163604736328f, 0.37298151850700378418f, 0.45628616213798522949f, -0.19265218079090118408f, 0.028689490631222724915f, -0.36147031188011169434f, -0.20348770916461944580f, 0.052278552204370498657f, -0.49380457401275634766f, 0.13674364984035491943f, 0.25681859254837036133f, 0.86747521162033081055f, -0.067634932696819305420f, -0.19055917859077453613f, 0.22433383762836456299f, -0.45422539114952087402f},
  {0.13588662445545196533f, -0.23724851012229919434f, -0.092601962387561798096f, 0.12346033751964569092f, 0.062307968735694885254f, -0.069159440696239471436f, 0.23072642087936401367f, -0.032218322157859802246f, 0.33563324809074401855f, 0.14296558499336242676f, 0.042605385184288024902f, 0.25915655493736267090f, 0.11003904789686203003f, 0.26842281222343444824f, 0.22671540081501007080f, -0.40863692760467529297f, -0.28333762288093566895f, -0.017474500462412834167f, -0.20424225926399230957f, 0.46690222620964050293f, -0.20272307097911834717f, -0.39154213666915893555f, 0.045720670372247695923f, 0.083906888961791992188f, 0.24535307288169860840f, 0.23876266181468963623f, -0.070505946874618530273f, -0.00078738800948485732079f, 0.052466038614511489868f, -0.11113923043012619019f, 0.082991622388362884521f, 0.24234528839588165283f, 0.17860455811023712158f, -0.24818071722984313965f, -0.11537640541791915894f, -0.34956780076026916504f, -0.18733736872673034668f, -0.035108327865600585938f, 0.0055037545971572399139f, 0.29402947425842285156f, -0.19562670588493347168f, -0.0060443333350121974945f, 0.033000815659761428833f, 0.33484798669815063477f, 0.0094520198181271553040f, 0.18426585197448730469f, -0.18037685751914978027f, -0.14600780606269836426f, 0.10123979300260543823f, 0.20349270105361938477f, -0.19181086122989654541f, 0.069507643580436706543f, -0.24977055191993713379f, 0.24034544825553894043f, 0.28983247280120849609f, -0.046055801212787628174f, -0.28535684943199157715f, 0.015686212107539176941f, -0.13764934241771697998f, -0.21225108206272125244f, 0.26548001170158386230f, -0.27581340074539184570f, -0.26347970962524414062f, 0.089381538331508636475f, 0.13503468036651611328f, -0.059109736233949661255f, -0.17529577016830444336f, -0.015192029997706413269f, -0.18415471911430358887f, 0.088857486844062805176f, 0.17612600326538085938f, -0.27074751257896423340f},
  {-0.40890750288963317871f, -0.12467728555202484131f, 0.012111601419746875763f, 0.036136638373136520386f, -0.014498236589133739471f, 0.073307871818542480469f, 0.32227432727813720703f, 0.17933563888072967529f, 0.0065127154812216758728f, -0.16609151661396026611f, -0.037951774895191192627f, 0.20849040150642395020f, -0.073858737945556640625f, 0.23716126382350921631f, 0.30972957611083984375f, -0.31967687606811523438f, -0.26750022172927856445f, -0.00025381596060469746590f, 0.046694844961166381836f, 0.013225975446403026581f, -0.11728633195161819458f, -0.0097515285015106201172f, 0.055228643119335174561f, 0.49384236335754394531f, 0.12523369491100311279f, -0.090486779808998107910f, -0.074202209711074829102f, -0.0053666983731091022491f, -0.0035428309347480535507f, -0.16070626676082611084f, 0.36028581857681274414f, 0.096822969615459442139f, 0.33345192670822143555f, -0.22730861604213714600f, -0.19509083032608032227f, -0.14846128225326538086f, -0.10169895738363265991f, 0.20174238085746765137f, -0.095373444259166717529f, 0.27680918574333190918f, -0.17092716693878173828f, -0.013070734217762947083f, -0.022154206410050392151f, 0.37410938739776611328f, -0.12229157984256744385f, -0.0080977100878953933716f, -0.13255140185356140137f, -0.33462914824485778809f, -0.020101033151149749756f, 0.25200614333152770996f, -0.23210105299949645996f, 0.40640231966972351074f, -0.095810748636722564697f, -0.082658037543296813965f, 0.35693702101707458496f, -0.19588543474674224854f, -0.28141149878501892090f, 0.12765979766845703125f, -0.098504863679409027100f, 0.012074789032340049744f, 0.15671403706073760986f, -0.11461697518825531006f, -0.32573530077934265137f, -0.061292834579944610596f, 0.026564558967947959900f, 0.042070373892784118652f, -0.018961830064654350281f, 0.11419209092855453491f, 0.21813139319419860840f, 0.18513093888759613037f, 0.17625498771667480469f, -0.22448889911174774170f}
};
static const float tensor_features_5_conv_5_fc_0_bias[24] = 
{-0.38028860092163085938f, -0.38195148110389709473f, -0.48141425848007202148f, 0.13614363968372344971f, -0.42918786406517028809f, -0.42372846603393554688f, -0.35217401385307312012f, -0.30207839608192443848f, -0.29475608468055725098f, -0.28848558664321899414f, 0.42579209804534912109f, -0.43896088004112243652f, -0.22066564857959747314f, -0.16249687969684600830f, -0.17313812673091888428f, -0.33166542649269104004f, -0.18584744632244110107f, -0.43809100985527038574f, -0.25998976826667785645f, -0.25010508298873901367f, -0.0043069240637123584747f, -0.36888140439987182617f, -0.31455501914024353027f, -0.48947441577911376953f};
static const float tensor_features_5_conv_5_fc_2_weight[72][24] = 
{
  {0.16545368731021881104f, 0.28222784399986267090f, -0.066278375685214996338f, 0.39586910605430603027f, -0.075211361050605773926f, 0.11085583269596099854f, -0.012806185521185398102f, -0.047140721231698989868f, 0.087146185338497161865f, 0.13958510756492614746f, 0.44643950462341308594f, -0.19411730766296386719f, 0.0097923185676336288452f, 0.050570864230394363403f, -0.32206624746322631836f, 0.037947390228509902954f, 0.0016531164292246103287f, -0.11331068724393844604f, -0.077177010476589202881f, -0.015601851977407932281f, 0.13693629205226898193f, -0.069716736674308776855f, 0.19737343490123748779f, 0.24734658002853393555f},
  {0.070477530360221862793f, 0.10934306681156158447f, -0.0013429933460429310799f, 0.10205917060375213623f, 0.060766290873289108276f, -0.14253626763820648193f, -0.13986289501190185547f, -0.068011127412319183350f, 0.061909783631563186646f, 0.058293402194976806641f, 0.17834468185901641846f, -0.048982910811901092529f, -0.0018255413742735981941f, 0.28180962800979614258f, -0.17705924808979034424f, -0.079943105578422546387f, -0.028332946822047233582f, -0.18356645107269287109f, -0.13551205396652221680f, -0.054065231233835220337f, 0.22963428497314453125f, -0.036756630986928939819f, 0.097750112414360046387f, 0.13532011210918426514f},
  {-0.13598932325839996338f, 0.050658985972404479980f, 0.20701642334461212158f, -0.68445372581481933594f, 0.12666857242584228516f, 0.067852146923542022705f, 0.10777271538972854614f, 0.087786123156547546387f, -0.028520194813609123230f, -0.041554693132638931274f, 0.12622246146202087402f, -0.25046738982200622559f, 0.0041802744381129741669f, 0.12762980163097381592f, 0.66910964250564575195f, 0.36125209927558898926f, -0.056156065315008163452f, -0.14191086590290069580f, 0.088920816779136657715f, 0.16705779731273651123f, 0.10360737890005111694f, 0.093922302126884460449f, 0.17757374048233032227f, -0.10678623616695404053f},
  {-0.0017380062490701675415f, -0.045044433325529098511f, 0.34926316142082214355f, -0.014526005834341049194f, -0.034793630242347717285f, 0.16436979174613952637f, -0.0022549564018845558167f, -0.096645392477512359619f, 0.089572533965110778809f, -0.12852731347084045410f, -0.37980452179908752441f, -0.014998703263700008392f, 0.040744222700595855713f, 0.18268871307373046875f, 0.051054105162620544434f, -0.37658202648162841797f, 0.0086393272504210472107f, 0.043586552143096923828f, 0.067701622843742370605f, -0.10130447149276733398f, -0.49395391345024108887f, -0.27071678638458251953f, -0.087090045213699340820f, 0.16941507160663604736f},
  {0.072156153619289398193f, -0.29965883493423461914f, -0.30762106180191040039f, -0.028906315565109252930f, -0.075842484831809997559f, -0.028976967558264732361f, -0.17948110401630401611f, 0.010436397045850753784f, -0.011065026745200157166f, -0.044206302613019943237f, -0.38249018788337707520f, -0.14434829354286193848f, -0.070378191769123077393f, -0.48423060774803161621f, -0.28253242373466491699f, -0.17898765206336975098f, 0.045596580952405929565f, 0.046387344598770141602f, -0.040922578424215316772f, -0.095193929970264434814f, -0.32960620522499084473f, 0.10582730919122695923f, -0.10470210760831832886f, -0.17585255205631256104f},
  {0.030432514846324920654f, 0.090482145547866821289f, -0.0058644115924835205078f, 0.41984972357749938965f, 0.017099145799875259399f, 0.085748888552188873291f, -0.16483019292354583740f, -0.051829013973474502563f, -0.15251785516738891602f, -0.13208743929862976074f, 0.049216523766517639160f, -0.081784538924694061279f, 0.073643647134304046631f, -0.45077732205390930176f, 0.34135255217552185059f, 0.10411456972360610962f, -0.027130184695124626160f, 0.013708530925214290619f, -0.10344845056533813477f, 0.50895565748214721680f, -0.32325777411460876465f, -0.70673257112503051758f, 0.053007435053586959839f, 0.034952085465192794800f},
  {-0.081501394510269165039f, 0.27466627955436706543f, 0.35706457495689392090f, 0.23184230923652648926f, 0.23834547400474548340f, 0.11384687572717666626f, 0.042956620454788208008f, 0.018636820837855339050f, -0.060676623135805130005f, 0.093695819377899169922f, 0.092528350651264190674f, 0.079319402575492858887f, -0.0035110756289213895798f, 0.44134044647216796875f, -0.017956085503101348877f, -0.10894686728715896606f, -0.0032215898390859365463f, 0.051095888018608093262f, 0.063733972609043121338f, -0.16406698524951934814f, 0.50612878799438476562f, 0.47837042808532714844f, -0.085656031966209411621f, 0.16978968679904937744f},
  {-0.10611087828874588013f, -0.016633909195661544800f, -0.059378534555435180664f, -0.44464495778083801270f, -0.18043179810047149658f, 0.12824253737926483154f, -0.29398813843727111816f, -0.091630987823009490967f, 0.032981466501951217651f, 0.098697274923324584961f, -0.45111271739006042480f, -0.16378793120384216309f, -0.085461251437664031982f, -0.44193604588508605957f, -0.18927213549613952637f, 0.52712196111679077148f, 0.012663166970014572144f, -0.0053912359289824962616f, 0.036212425678968429565f, 0.019721884280443191528f, -0.74853748083114624023f, -0.90705966949462890625f, 0.078446313738822937012f, -0.34063675999641418457f},
  {0.21526978909969329834f, -0.16233722865581512451f, -0.030505759641528129578f, -1.0776438713073730469f, -0.056069649755954742432f, -0.078357897698879241943f, 0.081191033124923706055f, -0.013203703798353672028f, 0.0078093935735523700714f, -0.14328323304653167725f, 0.036998111754655838013f, -0.28519460558891296387f, -0.0049808295443654060364f, 0.17005644738674163818f, -0.17991273105144500732f, 0.19611150026321411133f, -0.016492195427417755127f, -0.12809383869171142578f, -0.087163954973220825195f, 0.20618163049221038818f, -0.39002877473831176758f, -0.074063234031200408936f, -0.18633368611335754395f, 0.11213076114654541016f},
  {0.070485964417457580566f, 0.30065840482711791992f, 0.14013530313968658447f, -0.37060576677322387695f, 0.063957497477531433105f, 0.012954927980899810791f, 0.019695535302162170410f, -0.15115968883037567139f, 0.045075200498104095459f, -0.023322274908423423767f, 0.10533040016889572144f, 0.38276702165603637695f, 0.017450761049985885620f, 0.11989659816026687622f, 0.53203833103179931641f, 0.15115441381931304932f, -0.041539017111063003540f, 0.057290971279144287109f, -0.053635191172361373901f, 0.24587030708789825439f, 0.20973068475723266602f, -0.50870525836944580078f, -0.027912320569157600403f, 0.15493366122245788574f},
  {0.075233638286590576172f, 0.062468174844980239868f, 0.22046130895614624023f, -0.023272516205906867981f, -0.0069467462599277496338f, -0.13444603979587554932f, -0.039205569773912429810f, -0.046498663723468780518f, 0.12686254084110260010f, 0.016226869076490402222f, 0.34298089146614074707f, 0.059270881116390228271f, -0.059234682470560073853f, 0.0082581387832760810852f, -0.21127150952816009521f, -0.27736496925354003906f, -0.029416561126708984375f, 0.16347268223762512207f, 0.077211670577526092529f, -0.42967715859413146973f, 0.0063279177993535995483f, -0.072916664183139801025f, -0.018305381760001182556f, 0.14266912639141082764f},
  {-0.15838469564914703369f, 0.33390745520591735840f, 0.25666907429695129395f, -0.32154187560081481934f, 0.23223775625228881836f, 0.048188377171754837036f, -0.080386497080326080322f, -0.019576769322156906128f, -0.052272342145442962646f, 0.0043540908955037593842f, 0.64013844728469848633f, -0.19553823769092559814f, 0.029950311407446861267f, 0.065733529627323150635f, 0.0083463359624147415161f, 0.10420004278421401978f, -0.031842563301324844360f, 0.25226572155952453613f, 0.066400811076164245605f, -0.028668021783232688904f, 0.073492668569087982178f, -0.15750998258590698242f, 0.052220553159713745117f, 0.12114325165748596191f},
  {0.096994012594223022461f, -0.097521744668483734131f, 0.10611847788095474243f, 0.12226364016532897949f, -0.029357850551605224609f, -0.087406672537326812744f, -0.033258639276027679443f, -0.018746964633464813232f, -0.0031818484421819448471f, 0.028008580207824707031f, -0.19413650035858154297f, 0.078967981040477752686f, -0.050743114203214645386f, 0.12734027206897735596f, 0.018480096012353897095f, -0.36767661571502685547f, 0.030967012047767639160f, -0.012325042858719825745f, -0.068791709840297698975f, -0.30076137185096740723f, 0.11058442294597625732f, 0.62275820970535278320f, -0.066994696855545043945f, -0.030678041279315948486f},
  {0.15429092943668365479f, -0.13571445643901824951f, -0.076781690120697021484f, -0.23096922039985656738f, -0.14162214100360870361f, 0.013347138650715351105f, -0.13519853353500366211f, 0.017801249399781227112f, -0.035296920686960220337f, 0.049642372876405715942f, -0.17306095361709594727f, 0.16754542291164398193f, -0.030560415238142013550f, -0.057785484939813613892f, 0.12257689982652664185f, 0.0025214520283043384552f, -0.0078318063169717788696f, 0.10619161278009414673f, -0.025647513568401336670f, 0.30004045367240905762f, -0.088610023260116577148f, 0.013244590722024440765f, -0.29291337728500366211f, 0.071618683636188507080f},
  {-0.28354001045227050781f, 0.28391498327255249023f, 0.31859964132308959961f, 0.15687970817089080811f, 0.13702285289764404297f, 0.076963491737842559814f, 0.082773976027965545654f, -0.046515583992004394531f, -0.061061918735504150391f, 0.064221367239952087402f, 0.033482544124126434326f, -0.013770977035164833069f, -0.042945921421051025391f, -0.24904808402061462402f, 0.31088808178901672363f, 0.21917723119258880615f, -0.016554379835724830627f, -0.21086104214191436768f, 0.072194702923297882080f, -0.33178472518920898438f, 0.071544297039508819580f, -0.10985220968723297119f, 0.32400745153427124023f, -0.089592114090919494629f},
  {-0.14557780325412750244f, 0.31736066937446594238f, 0.41133213043212890625f, -0.30291184782981872559f, -0.23396395146846771240f, -0.022969333454966545105f, -0.018722517415881156921f, 0.030142366886138916016f, -0.041044022887945175171f, 0.19930884242057800293f, 0.17580936849117279053f, -0.23294951021671295166f, -0.039184112101793289185f, 0.27591827511787414551f, 0.17169621586799621582f, -0.073334515094757080078f, -0.025834221392869949341f, -0.18343281745910644531f, 0.040759999305009841919f, 0.25898355245590209961f, 0.099298901855945587158f, 0.45862805843353271484f, 0.017326958477497100830f, 0.0022541754879057407379f},
  {0.14789421856403350830f, -0.39189770817756652832f, -0.38282787799835205078f, 0.49529930949211120605f, -0.029280437156558036804f, -0.024619275704026222229f, 0.21142140030860900879f, -0.046296708285808563232f, 0.060990080237388610840f, -0.092175491154193878174f, -0.0059928759001195430756f, 0.052940726280212402344f, -0.033787112683057785034f, -0.26479798555374145508f, -0.45469656586647033691f, -0.11511783301830291748f, -0.0014254181878641247749f, 0.043791115283966064453f, -0.095185630023479461670f, -0.39278972148895263672f, -0.23687480390071868896f, -0.20067545771598815918f, 0.37234228849411010742f, 0.15186071395874023438f},
  {-0.037854455411434173584f, -0.044952735304832458496f, 0.13286182284355163574f, 0.30086869001388549805f, -0.095838233828544616699f, 0.045002687722444534302f, -0.16752324998378753662f, -0.033189218491315841675f, 0.018494857475161552429f, 0.078730508685111999512f, -0.12255690991878509521f, 0.14849439263343811035f, -0.019396467134356498718f, 0.19550150632858276367f, 0.086281053721904754639f, -0.14881309866905212402f, 0.060197364538908004761f, 0.014998878352344036102f, 0.039312932640314102173f, 0.16539427638053894043f, 0.0086733084172010421753f, 0.18448299169540405273f, -0.17913410067558288574f, -0.10671119391918182373f},
  {0.070042304694652557373f, 0.43281960487365722656f, 0.032832734286785125732f, -0.64098781347274780273f, 0.052326019853353500366f, 0.023055864498019218445f, -0.11121888458728790283f, 0.070756070315837860107f, 0.012557880952954292297f, -0.19663113355636596680f, 0.56821602582931518555f, 0.13199637830257415771f, 0.063323304057121276855f, 0.17479939758777618408f, 0.39190450310707092285f, 0.23010686039924621582f, 0.051780290901660919189f, -0.093903079628944396973f, 0.077146828174591064453f, 0.027581702917814254761f, -0.14307637512683868408f, 0.15033690631389617920f, 0.14997172355651855469f, 0.095343522727489471436f},
  {0.11315016448497772217f, -0.18323570489883422852f, -0.054621420800685882568f, 0.21778540313243865967f, 0.037542954087257385254f, 0.070735245943069458008f, 0.16480527818202972412f, 0.17062395811080932617f, -0.044379964470863342285f, -0.11444611102342605591f, -0.050759863108396530151f, -0.16056297719478607178f, 0.017483748495578765869f, -0.17217312753200531006f, -0.22826129198074340820f, 0.33007979393005371094f, -0.026961211115121841431f, -0.092437319457530975342f, 0.014343423768877983093f, -0.96137428283691406250f, 0.29806327819824218750f, 0.31845676898956298828f, 0.063247621059417724609f, 0.11063917726278305054f},
  {-0.026249131187796592712f, 0.086738370358943939209f, 0.0040351720526814460754f, 0.10269130766391754150f, 0.13118799030780792236f, 0.23700957000255584717f, -0.076217204332351684570f, 0.012426354922354221344f, -0.036699157208204269409f, -0.087627679109573364258f, 0.28832110762596130371f, 0.20692309737205505371f, -0.063718654215335845947f, -0.10123939812183380127f, 0.28583103418350219727f, 0.13922061026096343994f, 0.036133792251348495483f, 0.10022843629121780396f, -0.028781186789274215698f, -0.040061254054307937622f, -0.017322313040494918823f, 0.18152447044849395752f, -0.59521162509918212891f, -0.22282010316848754883f},
  {0.16199101507663726807f, -0.094394706189632415771f, -0.16515609622001647949f, -0.31001487374305725098f, -0.079141460359096527100f, -0.0032086856663227081299f, 0.065036855638027191162f, -0.017772896215319633484f, 0.036566369235515594482f, -0.060495149344205856323f, 0.14087763428688049316f, 0.10541140288114547729f, -0.029392234981060028076f, 0.043875783681869506836f, 0.057796742767095565796f, 0.21420663595199584961f, -0.027058782055974006653f, -0.032975208014249801636f, -0.10737714916467666626f, 0.52192276716232299805f, -0.17034035921096801758f, -0.050367005169391632080f, -0.29689994454383850098f, 0.16584454476833343506f},
  {0.11992853879928588867f, 0.00015488328062929213047f, 0.34677812457084655762f, 0.16415067017078399658f, -0.18725982308387756348f, 0.13873288035392761230f, 0.12219864875078201294f, -0.012328724376857280731f, -0.013180674985051155090f, 0.032727532088756561279f, -0.37677112221717834473f, 0.14785987138748168945f, -0.0019007672090083360672f, -0.34952211380004882812f, -0.13011075556278228760f, 0.057635240256786346436f, 0.030298421159386634827f, 0.16759318113327026367f, 0.13294260203838348389f, 0.13678166270256042480f, -0.22044917941093444824f, -0.57250738143920898438f, 0.097840234637260437012f, 0.035231672227382659912f},
  {0.077248513698577880859f, 0.031164454296231269836f, -0.55819094181060791016f, 0.17385900020599365234f, -0.056895662099123001099f, -0.028078798204660415649f, -0.00045442377449944615364f, 0.088347032666206359863f, -0.053877633064985275269f, 0.076689451932907104492f, 0.020611915737390518188f, -0.28688129782676696777f, -0.077171728014945983887f, -0.18102072179317474365f, -0.24713324010372161865f, -0.26338616013526916504f, -0.039266426116228103638f, 0.072873540222644805908f, 0.055013492703437805176f, 0.21392208337783813477f, 0.43106305599212646484f, -0.28097537159919738770f, 0.31239962577819824219f, 0.10000940412282943726f},
  {-0.33484661579132080078f, 0.19356705248355865479f, -0.017162671312689781189f, 0.67635405063629150391f, -0.027743127197027206421f, -0.071037538349628448486f, 0.19423833489418029785f, 0.042749967426061630249f, 0.0073285098187625408173f, -0.11532993614673614502f, 0.19747681915760040283f, -0.12051223963499069214f, -0.059939969331026077271f, 0.14470405876636505127f, -0.096714749932289123535f, -0.11387278884649276733f, -0.067236058413982391357f, 0.087719671428203582764f, 0.013491899706423282623f, 0.38732105493545532227f, 0.21269215643405914307f, -0.38743260502815246582f, 0.24779762327671051025f, 0.052921451628208160400f},
  {-0.22689792513847351074f, -0.30898267030715942383f, -0.11046356707811355591f, -0.85230791568756103516f, -0.15231971442699432373f, 0.17308807373046875000f, 0.052062097936868667603f, -0.10763578861951828003f, -0.022520484402775764465f, 0.085260517895221710205f, -0.50896775722503662109f, -0.31793493032455444336f, 0.060162097215652465820f, -0.53335845470428466797f, 0.28899902105331420898f, 0.16279046237468719482f, -0.033877652138471603394f, 0.080475918948650360107f, -0.065750248730182647705f, 0.52074974775314331055f, -0.34262096881866455078f, -0.67951244115829467773f, 0.010492580011487007141f, -0.16813513636589050293f},
  {0.046902630478143692017f, 0.26045584678649902344f, 0.23308736085891723633f, 0.16437220573425292969f, 0.075156189501285552979f, 0.10694368183612823486f, 0.071055136620998382568f, 0.054341685026884078979f, 0.064970612525939941406f, -0.0086248749867081642151f, 0.23005197942256927490f, -0.18538622558116912842f, 0.070993594825267791748f, 0.35927405953407287598f, -0.20554707944393157959f, 0.17513066530227661133f, 0.0041249259375035762787f, -0.020760480314493179321f, 0.079175934195518493652f, -0.27701565623283386230f, 0.42009222507476806641f, 0.31795957684516906738f, 0.028806703165173530579f, -0.00010308715718565508723f},
  {0.032029516994953155518f, 0.38679510354995727539f, 0.13229162991046905518f, -0.13815352320671081543f, 0.0072967563755810260773f, 0.061568289995193481445f, -0.13940173387527465820f, 0.055289704352617263794f, -0.030038025230169296265f, 0.035662248730659484863f, 0.28598710894584655762f, 0.075375132262706756592f, 0.034773457795381546021f, 0.29253795742988586426f, -0.014849891886115074158f, 0.10316542536020278931f, -0.012395784258842468262f, -0.084624119102954864502f, 0.12571337819099426270f, 0.31774118542671203613f, -0.018225777894258499146f, -0.31104964017868041992f, 0.080213315784931182861f, 0.043524056673049926758f},
  {0.017902348190546035767f, 0.36968249082565307617f, -0.055863749235868453979f, -0.53554755449295043945f, 0.018505152314901351929f, 0.079849451780319213867f, -0.012282806448638439178f, -0.051875669509172439575f, 0.13211247324943542480f, 0.070467837154865264893f, 0.68866771459579467773f, -0.12384644150733947754f, 0.023684177547693252563f, -0.0012310902820900082588f, 0.25427445769309997559f, 0.12704867124557495117f, 0.015361186116933822632f, 0.055273815989494323730f, -0.11330863088369369507f, 0.60027462244033813477f, -0.19368353486061096191f, -0.53811019659042358398f, 0.23085157573223114014f, 0.14228242635726928711f},
  {-0.059487298130989074707f, 0.12203515321016311646f, 0.21652993559837341309f, 0.60882937908172607422f, 0.034652367234230041504f, -0.23160348832607269287f, 0.068457573652267456055f, 0.022993551567196846008f, -0.011007530614733695984f, -0.0047123804688453674316f, -0.051236409693956375122f, 0.033121615648269653320f, -0.078238926827907562256f, 0.25626915693283081055f, 0.071578294038772583008f, -0.10044015198945999146f, -0.016445914283394813538f, 0.23618462681770324707f, -0.065948396921157836914f, -0.15974210202693939209f, 0.61528611183166503906f, 0.13467392325401306152f, 0.29429608583450317383f, -0.093099899590015411377f},
  {0.13603647053241729736f, 0.43360957503318786621f, 0.34557914733886718750f, 0.83693754673004150391f, -0.0036892781499773263931f, 0.21595378220081329346f, 0.098413288593292236328f, -0.059710357338190078735f, -0.071138530969619750977f, 0.010663567110896110535f, 0.62147605419158935547f, 0.061991080641746520996f, 0.073726408183574676514f, 0.73961222171783447266f, -0.31767803430557250977f, -0.25605064630508422852f, 0.022410554811358451843f, 0.076613083481788635254f, 0.086103737354278564453f, 0.26842021942138671875f, 0.63861769437789916992f, 0.29592177271842956543f, 0.36967951059341430664f, 0.048090688884258270264f},
  {0.036683730781078338623f, 0.068458855152130126953f, 0.36574918031692504883f, 0.47654438018798828125f, -0.051918152719736099243f, -0.056749828159809112549f, 0.17886874079704284668f, 0.030627558007836341858f, 0.10524471104145050049f, 0.11543826013803482056f, 0.14699137210845947266f, -0.23766839504241943359f, -0.073040746152400970459f, -0.37422448396682739258f, -0.0094746043905615806580f, -0.24160481989383697510f, -0.018157526850700378418f, 0.075773276388645172119f, 0.11951917409896850586f, -0.50508338212966918945f, -0.10913729667663574219f, -0.034434113651514053345f, -0.22832240164279937744f, -0.25004738569259643555f},
  {-0.064328014850616455078f, -0.35074305534362792969f, -0.34120419621467590332f, -0.28189423680305480957f, -0.080617256462574005127f, 0.026328470557928085327f, -0.076564982533454895020f, 0.025247327983379364014f, 0.069758720695972442627f, 0.14723156392574310303f, -0.43297314643859863281f, -0.29674756526947021484f, -0.011620451696217060089f, -0.44413879513740539551f, 0.10841665416955947876f, 0.28230366110801696777f, 0.037658873945474624634f, 0.037021003663539886475f, -0.037122767418622970581f, -0.28512534499168395996f, -0.85433405637741088867f, -0.62557959556579589844f, 0.015173866413533687592f, 0.25845319032669067383f},
  {-0.012905222363770008087f, 0.16788634657859802246f, 0.11720933765172958374f, 0.31051048636436462402f, 0.040325839072465896606f, -0.20589533448219299316f, -0.0026178276166319847107f, -0.041050795465707778931f, -0.052377078682184219360f, 0.027609078213572502136f, 0.26318719983100891113f, 0.0071303038857877254486f, -0.038217376917600631714f, 0.14773842692375183105f, -0.33000481128692626953f, -0.32969319820404052734f, -0.047030899673700332642f, -0.052133101969957351685f, 0.060287140309810638428f, -0.080373063683509826660f, 0.40333658456802368164f, 0.13517680764198303223f, 0.071153104305267333984f, 0.020783046260476112366f},
  {0.0017005047993734478951f, -0.20347170531749725342f, -0.24228133261203765869f, -0.44365072250366210938f, 0.017846990376710891724f, -0.21704350411891937256f, 0.0067619131878018379211f, 0.033413309603929519653f, 0.019798828288912773132f, -0.043975654989480972290f, 0.045959617942571640015f, -0.21374723315238952637f, -0.015187972225248813629f, -0.045285549014806747437f, -0.30101850628852844238f, 0.11808291077613830566f, 0.023782676085829734802f, -0.077534303069114685059f, 0.053270015865564346313f, 0.054815147072076797485f, -0.023646203801035881042f, 0.54161626100540161133f, 0.10267254710197448730f, 0.012946733273565769196f},
  {-0.014284865930676460266f, 0.14192837476730346680f, 0.085781909525394439697f, 0.50989323854446411133f, -0.16657492518424987793f, 0.37820184230804443359f, 0.35698181390762329102f, 0.035459563136100769043f, 0.016922336071729660034f, -0.043639112263917922974f, -0.20786677300930023193f, -0.073299139738082885742f, 0.052483651787042617798f, 0.016074476763606071472f, 0.29769435524940490723f, -0.23658205568790435791f, -0.025704218074679374695f, 0.083521589636802673340f, 0.10060554742813110352f, 0.040302641689777374268f, 0.037390291690826416016f, -0.60690724849700927734f, 0.22546379268169403076f, 0.077958345413208007812f},
  {-0.28627192974090576172f, -0.16399535536766052246f, -0.045238360762596130371f, -0.41285601258277893066f, 0.043663453310728073120f, 0.20458564162254333496f, 0.050273079425096511841f, 0.040495339781045913696f, -0.093915700912475585938f, -0.14187057316303253174f, -0.15230648219585418701f, -0.13043072819709777832f, -0.043730285018682479858f, -0.54676723480224609375f, -0.20011755824089050293f, 0.27738767862319946289f, 0.012208563275635242462f, -0.023030538111925125122f, -0.16541998088359832764f, -0.30833116173744201660f, -0.43950879573822021484f, -0.22348250448703765869f, -0.062119070440530776978f, 0.095766358077526092529f},
  {0.15761651098728179932f, -0.28097590804100036621f, 0.097393848001956939697f, 0.23463052511215209961f, -0.081585198640823364258f, 0.15529580414295196533f, -0.068678252398967742920f, 0.074906192719936370850f, 0.099884234368801116943f, 0.073873333632946014404f, 0.12413542717695236206f, -0.16911037266254425049f, 0.0052895839326083660126f, 0.0090183028951287269592f, -0.24061663448810577393f, 0.0027902789879590272903f, 0.039476796984672546387f, 0.20397388935089111328f, 0.22684256732463836670f, -0.0086254980415105819702f, 0.23191802203655242920f, -0.0036015519872307777405f, 0.30637884140014648438f, -0.12884442508220672607f},
  {0.15654380619525909424f, -0.091891527175903320312f, 0.16401772201061248779f, -0.12230757623910903931f, -0.037506256252527236938f, -0.069316491484642028809f, 0.0080999583005905151367f, 0.074405573308467864990f, 0.090221159160137176514f, -0.18717932701110839844f, -0.12576282024383544922f, -0.071915701031684875488f, -0.0038772728294134140015f, -0.24791477620601654053f, -0.25014477968215942383f, 0.040228694677352905273f, 0.040191177278757095337f, -0.17193080484867095947f, -0.14404658973217010498f, 0.074802845716476440430f, -0.30579763650894165039f, -0.32965373992919921875f, 0.31621712446212768555f, 0.090566813945770263672f},
  {0.11387543380260467529f, 0.19111090898513793945f, 0.21573418378829956055f, 0.21679733693599700928f, 0.10280194133520126343f, -0.31735613942146301270f, 0.17739135026931762695f, 0.072572775185108184814f, 0.027070175856351852417f, -0.11567098647356033325f, 0.22400245070457458496f, -0.16420017182826995850f, -0.0020847101695835590363f, 0.25621068477630615234f, -0.14120043814182281494f, 0.15008255839347839355f, 0.0060006743296980857849f, -0.067979238927364349365f, 0.16171534359455108643f, -0.14039896428585052490f, 0.25281274318695068359f, 0.58760005235671997070f, -0.29634502530097961426f, -0.016255054622888565063f},
  {-0.053867667913436889648f, -0.0041983034461736679077f, -0.28331252932548522949f, -0.43598061800003051758f, 0.082847088575363159180f, 0.053657315671443939209f, -0.029332429170608520508f, -0.12687729299068450928f, 0.087434612214565277100f, -0.0099283596500754356384f, -0.36422598361968994141f, -0.049195095896720886230f, -0.013762497343122959137f, -0.54434627294540405273f, 0.39356425404548645020f, -0.0063725984655320644379f, 0.038859006017446517944f, -0.11316720396280288696f, -0.048548821359872817993f, 0.090701714158058166504f, -0.65934109687805175781f, -0.36540043354034423828f, -0.068594612181186676025f, -0.30225491523742675781f},
  {0.020131181925535202026f, 0.27211812138557434082f, 0.044419646263122558594f, -0.53195136785507202148f, 0.19921335577964782715f, 0.074643157422542572021f, 0.12046361714601516724f, -0.0074014589190483093262f, -0.0023180772550404071808f, -0.072619646787643432617f, 0.33792579174041748047f, -0.031000280752778053284f, -0.047385700047016143799f, 0.18004652857780456543f, -0.065907873213291168213f, 0.080808512866497039795f, 0.013108266517519950867f, -0.028468338772654533386f, 0.031420018523931503296f, -0.22405326366424560547f, 0.083094507455825805664f, 0.37983793020248413086f, 0.054226238280534744263f, -0.24160788953304290771f},
  {0.051605179905891418457f, 0.27310940623283386230f, -0.042499333620071411133f, 0.33620795607566833496f, -0.099103003740310668945f, 0.054991208016872406006f, -0.095494411885738372803f, 0.078115016222000122070f, -0.082517348229885101318f, 0.020329536870121955872f, 0.55002593994140625000f, -0.057062726467847824097f, -0.042988996952772140503f, -0.081302575767040252686f, -0.22736953198909759521f, -0.55442529916763305664f, 0.0088213905692100524902f, -0.21936024725437164307f, 0.064512804150581359863f, 0.20036330819129943848f, -0.12672980129718780518f, 0.28818750381469726562f, -0.37230032682418823242f, -0.22038812935352325439f},
  {-0.080834321677684783936f, 0.13391461968421936035f, 0.14749929308891296387f, -0.33712136745452880859f, -0.091385014355182647705f, 0.054215170443058013916f, -0.0039400039240717887878f, -0.025121634826064109802f, 0.012985197827219963074f, -0.028642876073718070984f, 0.37560692429542541504f, -0.13985794782638549805f, -0.011958109214901924133f, 0.14599198102951049805f, -0.14936697483062744141f, -0.068383060395717620850f, -0.0063803270459175109863f, -0.12239324301481246948f, 0.026500416919589042664f, -0.078509159386157989502f, 0.027145577594637870789f, 0.28604456782341003418f, -0.043332550674676895142f, 0.21694274246692657471f},
  {0.24224345386028289795f, 0.19768638908863067627f, 0.16480764746665954590f, -0.31064119935035705566f, 0.012508247047662734985f, 0.16842837631702423096f, 0.080670259892940521240f, -0.15341231226921081543f, -0.031139733269810676575f, -0.0061900238506495952606f, -0.17266473174095153809f, -0.14525569975376129150f, 0.059476621448993682861f, 0.17999111115932464600f, 0.36025467514991760254f, 0.31518697738647460938f, 0.047223493456840515137f, -0.17581668496131896973f, -0.069661393761634826660f, 0.52964758872985839844f, -0.065157435834407806396f, -0.44654050469398498535f, 0.16618727147579193115f, 0.037088353186845779419f},
  {-0.14606176316738128662f, 0.067925661802291870117f, 0.21472261846065521240f, 0.089206986129283905029f, -0.012877112254500389099f, 0.050212569534778594971f, -0.045731235295534133911f, -0.18681907653808593750f, -0.061235509812831878662f, -0.16403906047344207764f, -0.0046920678578317165375f, 0.082139067351818084717f, -0.0069236573763191699982f, -0.087555117905139923096f, 0.10197506844997406006f, 0.038203109055757522583f, -0.012444528751075267792f, -0.039730858057737350464f, -0.071126192808151245117f, -0.13557654619216918945f, 0.0032228683121502399445f, 0.16112971305847167969f, 0.43150332570075988770f, 0.16545054316520690918f},
  {-0.22028781473636627197f, 0.25876089930534362793f, -0.040707144886255264282f, -0.16799998283386230469f, 0.0082002570852637290955f, -0.080769926309585571289f, 0.028679914772510528564f, -0.065819010138511657715f, -0.068977229297161102295f, -0.093631960451602935791f, 0.16954353451728820801f, 0.047490790486335754395f, -0.0020567295141518115997f, 0.015116879716515541077f, -0.26847410202026367188f, 0.56609225273132324219f, 0.017342705279588699341f, 0.11924668401479721069f, 0.022760106250643730164f, 0.28298309445381164551f, -0.15675231814384460449f, 0.94015294313430786133f, -0.32078027725219726562f, -0.10118408501148223877f},
  {0.045463755726814270020f, 0.26554286479949951172f, -0.11139784008264541626f, 0.098332948982715606689f, -0.049137849360704421997f, 0.27673429250717163086f, -0.12485950440168380737f, 0.054225280880928039551f, 0.058582823723554611206f, -0.070569939911365509033f, 0.30208703875541687012f, -0.12882080674171447754f, -0.039523087441921234131f, 0.21154476702213287354f, -0.095802940428256988525f, -0.22214889526367187500f, -0.019967833533883094788f, 0.15867801010608673096f, 0.11177577078342437744f, -0.062875293195247650146f, 0.093587040901184082031f, 0.23984129726886749268f, -0.14044965803623199463f, 0.24559617042541503906f},
  {-0.022458292543888092041f, 0.069830119609832763672f, -0.051674894988536834717f, -0.015098338946700096130f, -0.10857117176055908203f, 0.0067350785247981548309f, 0.014137255959212779999f, -0.023921292275190353394f, -0.10099840164184570312f, -0.024054050445556640625f, 0.38401591777801513672f, -0.087308347225189208984f, -0.013889480382204055786f, 0.25677490234375000000f, -0.045250441879034042358f, -0.11661767959594726562f, -0.022296112030744552612f, -0.33849665522575378418f, -0.025845192372798919678f, 0.073589555919170379639f, 0.41553115844726562500f, 0.12526203691959381104f, -0.14540460705757141113f, -0.12653920054435729980f},
  {0.040657605975866317749f, 0.084110200405120849609f, 0.13853731751441955566f, 0.099445797502994537354f, -0.19289700686931610107f, 0.074834413826465606689f, 0.18030670285224914551f, 0.015178691595792770386f, -0.075042843818664550781f, 0.076272211968898773193f, -0.11695123463869094849f, 0.16205923259258270264f, 0.014474447816610336304f, -0.16776148974895477295f, -0.013599868863821029663f, 0.10809129476547241211f, -0.026490500196814537048f, -0.085342146456241607666f, 0.078766532242298126221f, 0.17276670038700103760f, -0.22322787344455718994f, 0.054785415530204772949f, -0.046439088881015777588f, -0.26964670419692993164f},
  {0.16640330851078033447f, 0.20697106420993804932f, -0.19916188716888427734f, 0.95630615949630737305f, 0.19735041260719299316f, -0.0040931156836450099945f, -0.23361602425575256348f, -0.013112169690430164337f, -0.11687567085027694702f, 0.28071224689483642578f, -0.065869815647602081299f, -0.21942993998527526855f, 0.019721558317542076111f, 0.33299395442008972168f, -0.32047182321548461914f, 0.014564093202352523804f, -0.015501413494348526001f, -0.028199106454849243164f, 0.049027103930711746216f, 0.14001877605915069580f, 0.40822646021842956543f, 0.77126818895339965820f, -0.10083245486021041870f, -0.17141866683959960938f},
  {-0.32428282499313354492f, 0.50114673376083374023f, 0.10195159912109375000f, -0.29623261094093322754f, -0.15303991734981536865f, -0.24848048388957977295f, 0.093429990112781524658f, -0.046664610505104064941f, -0.084316216409206390381f, 0.023599890992045402527f, 0.11929143965244293213f, -0.24227693676948547363f, -0.025867590680718421936f, 0.071164131164550781250f, 0.23118361830711364746f, 0.65257573127746582031f, 0.0051945983432233333588f, -0.14811800420284271240f, -0.073805429041385650635f, 0.42621746659278869629f, 0.057771399617195129395f, 0.24286709725856781006f, -0.014579353854060173035f, 0.046875238418579101562f},
  {-0.041384514421224594116f, -0.10591534525156021118f, -0.064711488783359527588f, -0.070253305137157440186f, -0.20944559574127197266f, -0.053438033908605575562f, 0.13217730820178985596f, 0.13021530210971832275f, 0.061486475169658660889f, -0.091225333511829376221f, 0.087043143808841705322f, -0.043768167495727539062f, -0.00036570162046700716019f, -0.089252829551696777344f, -0.23557154834270477295f, -0.42096939682960510254f, 0.011581082828342914581f, -0.17433571815490722656f, 0.041199833154678344727f, -0.16947236657142639160f, 0.021299095824360847473f, 0.015605580061674118042f, 0.17819285392761230469f, 0.053879614919424057007f},
  {0.067927703261375427246f, 0.15432344377040863037f, 0.33543071150779724121f, 0.010389472357928752899f, -0.14131160080432891846f, 0.011098737828433513641f, -0.13447913527488708496f, -0.059643115848302841187f, -0.0011710617691278457642f, 0.070378020405769348145f, -0.12985886633396148682f, 0.023863418027758598328f, -0.051872499287128448486f, -0.12230643630027770996f, -0.060699895024299621582f, 0.13535772264003753662f, -0.027940701693296432495f, -0.34952729940414428711f, 0.020178779959678649902f, 0.19198365509510040283f, -0.027076598256826400757f, 0.11893428862094879150f, 0.20462596416473388672f, 0.36186337471008300781f},
  {0.075706347823143005371f, 0.13584175705909729004f, -0.18767914175987243652f, -0.088037043809890747070f, 0.012275221757590770721f, 0.024726271629333496094f, 0.18324294686317443848f, -0.039633322507143020630f, 0.14833524823188781738f, -0.13928864896297454834f, 0.44869697093963623047f, 0.18015082180500030518f, -0.045639149844646453857f, 0.33798116445541381836f, -0.095530353486537933350f, 0.23262810707092285156f, -0.015041027218103408813f, -0.16475148499011993408f, -0.096761777997016906738f, 0.30473151803016662598f, 0.33674195408821105957f, 0.65242230892181396484f, -0.37255233526229858398f, -0.22024896740913391113f},
  {0.10958822071552276611f, -0.099290706217288970947f, 0.10239169001579284668f, 0.0027909902855753898621f, -0.038464177399873733521f, 0.11170549690723419189f, -0.11885218322277069092f, -0.073463067412376403809f, 0.016832845285534858704f, -0.094701863825321197510f, 0.19030663371086120605f, 0.032998062670230865479f, 0.041669797152280807495f, 0.013982335105538368225f, 0.095183826982975006104f, -0.019173970445990562439f, 0.0014704947825521230698f, 0.051410581916570663452f, 0.0080623319372534751892f, -0.20917648077011108398f, 0.13970953226089477539f, 0.13708831369876861572f, -0.019367692992091178894f, -0.061543829739093780518f},
  {-0.11350854486227035522f, 0.28248301148414611816f, 0.21553461253643035889f, -0.71609491109848022461f, 0.10936950147151947021f, -0.20761276781558990479f, -0.040476132184267044067f, -0.047857731580734252930f, -0.015504857525229454041f, 0.13647781312465667725f, 0.30435290932655334473f, -0.19402144849300384521f, -0.021501149982213973999f, 0.12386418879032135010f, 0.42369732260704040527f, -0.022582637146115303040f, 0.015854217112064361572f, 0.041168041527271270752f, -0.043697740882635116577f, 0.25980147719383239746f, 0.38881567120552062988f, 0.75900787115097045898f, -0.31918439269065856934f, -0.48559269309043884277f},
  {-0.013794033788144588470f, -0.16618239879608154297f, -0.32008007168769836426f, -0.13732710480690002441f, -0.13366381824016571045f, 0.23551130294799804688f, -0.086780808866024017334f, 0.047819245606660842896f, 0.044261932373046875000f, -0.058003280311822891235f, -0.43625345826148986816f, -0.045385144650936126709f, -0.13512915372848510742f, -0.62016028165817260742f, -0.40421250462532043457f, -0.26492252945899963379f, -0.040892135351896286011f, 0.16934682428836822510f, -0.012371109798550605774f, -0.52984958887100219727f, -0.41903570294380187988f, -0.044071711599826812744f, -0.46185857057571411133f, -0.21366700530052185059f},
  {-0.082233741879463195801f, 0.0017091458430513739586f, 0.067730478942394256592f, 0.39213523268699645996f, 0.019357323646545410156f, -0.24976947903633117676f, 0.31236121058464050293f, 0.0057252412661910057068f, -0.10876803100109100342f, 0.10319285094738006592f, 0.48076716065406799316f, 0.091003343462944030762f, -0.028840435668826103210f, -0.53155493736267089844f, -0.53530877828598022461f, 0.27989068627357482910f, -0.0061107892543077468872f, 0.17861115932464599609f, 0.010205268859863281250f, -0.38337022066116333008f, 0.30651438236236572266f, 0.37228640913963317871f, 0.080785326659679412842f, 0.23560705780982971191f},
  {0.039127610623836517334f, 0.16821545362472534180f, -0.038066402077674865723f, 0.023802420124411582947f, -0.019687619060277938843f, -0.16362437605857849121f, -0.033370189368724822998f, -0.043928850442171096802f, 0.089397519826889038086f, 0.069530151784420013428f, 0.37547224760055541992f, 0.11071469634771347046f, -0.019200818613171577454f, 0.0013329691719263792038f, -0.19531017541885375977f, -0.32803517580032348633f, 0.013570161536335945129f, -0.15209785103797912598f, -0.16769482195377349854f, -0.050218231976032257080f, 0.52061015367507934570f, 0.41254535317420959473f, 0.23236267268657684326f, -0.022201722487807273865f},
  {-0.25645473599433898926f, 0.10131540894508361816f, 0.32867720723152160645f, -0.57969552278518676758f, 0.055238809436559677124f, 0.11752936989068984985f, -0.044171836227178573608f, 0.019307706505060195923f, 0.045485571026802062988f, -0.022108558565378189087f, -0.069434627890586853027f, 0.099141091108322143555f, -0.0029016591142863035202f, -0.091790728271007537842f, 0.075213037431240081787f, -0.17373934388160705566f, -0.0062430202960968017578f, 0.054011397063732147217f, -0.043432906270027160645f, 0.13545307517051696777f, -0.54297310113906860352f, -0.25653925538063049316f, 0.26916524767875671387f, 0.18372796475887298584f},
  {0.10166741907596588135f, 0.27951169013977050781f, 0.11984424293041229248f, 0.15864180028438568115f, 0.10513667017221450806f, -0.18494734168052673340f, -0.0049191261641681194305f, 0.012103666551411151886f, -0.038821320980787277222f, 0.047747056931257247925f, 0.41117238998413085938f, 0.067949585616588592529f, -0.044536262750625610352f, 0.51158964633941650391f, 0.066139683127403259277f, -0.17887930572032928467f, -0.061829861253499984741f, -0.022818639874458312988f, -0.064621239900588989258f, 0.00039102611481212079525f, 0.39894381165504455566f, 0.21398371458053588867f, 0.18913787603378295898f, -0.16645623743534088135f},
  {0.30727842450141906738f, -0.12860395014286041260f, -0.065145738422870635986f, -0.36077353358268737793f, -0.073450490832328796387f, 0.33550998568534851074f, 0.068864382803440093994f, 0.023344224318861961365f, 0.032236766070127487183f, 0.013441062532365322113f, -0.10920395702123641968f, 0.071257978677749633789f, 0.0096998931840062141418f, -0.019604414701461791992f, -0.45019164681434631348f, -0.72356736660003662109f, 0.073671475052833557129f, 0.30951720476150512695f, -0.017975738272070884705f, 0.035287361592054367065f, -0.025893980637192726135f, -0.14882160723209381104f, -0.14262193441390991211f, -0.23730592429637908936f},
  {-0.017067350447177886963f, -0.24872916936874389648f, -0.33444729447364807129f, -0.12288796901702880859f, 0.10811160504817962646f, -0.23493541777133941650f, -0.11532804369926452637f, 0.015580830164253711700f, 0.0056053358130156993866f, -0.31150847673416137695f, 0.22369070351123809814f, 0.023021837696433067322f, -0.044455677270889282227f, 0.10461001098155975342f, -0.035722922533750534058f, -0.018477462232112884521f, 0.033489923924207687378f, -0.11078276485204696655f, 0.017639776691794395447f, -0.45833522081375122070f, 0.10086403787136077881f, -0.29909917712211608887f, -0.13963794708251953125f, -0.059768408536911010742f},
  {0.022198650985956192017f, -0.11409930884838104248f, -0.13423986732959747314f, 0.10540243238210678101f, 0.022442564368247985840f, 0.072204396128654479980f, -0.15487113595008850098f, -0.083301156759262084961f, 0.028690660372376441956f, -0.00066435808548703789711f, -0.27798542380332946777f, -0.084171921014785766602f, 0.045681141316890716553f, -0.0027037153486162424088f, 0.063249245285987854004f, -0.083453677594661712646f, 0.035209957510232925415f, 0.16263023018836975098f, 0.022181084379553794861f, -0.18518090248107910156f, 0.090423993766307830811f, -0.18697683513164520264f, -0.13698518276214599609f, 0.052351079881191253662f},
  {-0.014058118686079978943f, -0.12021248787641525269f, -0.31213602423667907715f, -0.19798251986503601074f, -0.078891538083553314209f, -0.095849573612213134766f, 0.0027556975837796926498f, 0.021558009088039398193f, 0.070317007601261138916f, -0.093066304922103881836f, -0.044484153389930725098f, -0.031630486249923706055f, 0.020869649946689605713f, -0.30590873956680297852f, -0.50965666770935058594f, -0.17662833631038665771f, 0.0055432454682886600494f, -0.27022865414619445801f, 0.063237115740776062012f, -0.057893037796020507812f, -0.00092905829660594463348f, -0.040574267506599426270f, -0.40352869033813476562f, 0.32189813256263732910f},
  {-0.094440586864948272705f, 0.040285605937242507935f, -0.0053278515115380287170f, -0.60130035877227783203f, -0.096541576087474822998f, 0.012907536700367927551f, -0.096630051732063293457f, -0.056433040648698806763f, 0.090632520616054534912f, 0.025741970166563987732f, -0.44642114639282226562f, -0.046450931578874588013f, 0.077273614704608917236f, 0.031318504363298416138f, 0.12867242097854614258f, 0.0014283769996836781502f, -0.0031101349741220474243f, -0.017183283343911170959f, -0.078566737473011016846f, 0.33030432462692260742f, -0.35089212656021118164f, 0.12892463803291320801f, 0.19437016546726226807f, -0.095246851444244384766f},
  {-0.30044278502464294434f, -0.12435129284858703613f, -0.042969401925802230835f, 0.42482143640518188477f, 0.065331116318702697754f, 0.14886607229709625244f, -0.067672967910766601562f, 0.13726161420345306396f, 0.023262610659003257751f, 0.048071973025798797607f, -0.32253426313400268555f, -0.093148268759250640869f, -0.030496222898364067078f, 0.11253314465284347534f, -0.64350712299346923828f, 0.20279911160469055176f, 0.028075942769646644592f, 0.022639919072389602661f, -0.11608531326055526733f, 0.062626071274280548096f, -0.10489793866872787476f, -0.23059673607349395752f, 0.10302852839231491089f, 0.16755920648574829102f},
  {-0.14393417537212371826f, 0.043801717460155487061f, -0.22615779936313629150f, 0.0047661666758358478546f, -0.20030206441879272461f, -0.10844473540782928467f, -0.13080343604087829590f, -0.011369179002940654755f, 0.020906129851937294006f, 0.12055607140064239502f, 0.16525451838970184326f, 0.097158350050449371338f, 0.0051524145528674125671f, 0.078782849013805389404f, -0.34408742189407348633f, -0.076571673154830932617f, 0.0048604300245642662048f, -0.13679742813110351562f, 0.084199070930480957031f, -0.30508998036384582520f, -0.096666209399700164795f, -0.10806646943092346191f, -0.36448532342910766602f, -0.12388093024492263794f},
  {-0.098915182054042816162f, -0.089743435382843017578f, 0.0041580060496926307678f, -0.13940066099166870117f, 0.084693200886249542236f, 0.20264331996440887451f, 0.067300416529178619385f, -0.017679387703537940979f, -0.0060185221955180168152f, 0.10201115906238555908f, 0.26280975341796875000f, 0.11715762317180633545f, -0.0098367622122168540955f, 0.18863764405250549316f, 0.12679755687713623047f, 0.39585289359092712402f, -0.034521769732236862183f, -0.10740078985691070557f, 0.0019022814230993390083f, -0.29577150940895080566f, 0.56649816036224365234f, 0.17734353244304656982f, 0.28721210360527038574f, -0.29450616240501403809f},
  {-0.027807580307126045227f, 0.25597891211509704590f, 0.18016549944877624512f, -0.093830876052379608154f, -0.045067921280860900879f, 0.087440997362136840820f, 0.098769173026084899902f, -0.063340827822685241699f, -0.061032257974147796631f, 0.058609236031770706177f, 0.22024288773536682129f, 0.050678018480539321899f, -0.0041120317764580249786f, 0.25505498051643371582f, 0.085472784936428070068f, 0.096301205456256866455f, -0.0037016056012362241745f, -0.035495039075613021851f, -0.086121082305908203125f, 0.33277484774589538574f, 0.028011310845613479614f, 0.077032603323459625244f, -0.16819204390048980713f, 0.31736785173416137695f},
  {0.010880175977945327759f, -0.17447718977928161621f, -0.0017117729876190423965f, -0.035487189888954162598f, 0.012299262918531894684f, 0.064953692257404327393f, 0.032205190509557723999f, -0.0046207276172935962677f, -0.020472554489970207214f, -0.099707365036010742188f, -0.36727145314216613770f, 0.26382982730865478516f, 0.044798504561185836792f, -0.14124748110771179199f, 0.10238777101039886475f, 0.11443068087100982666f, 0.016920493915677070618f, 0.13259240984916687012f, 0.0070440983399748802185f, 0.19311161339282989502f, -0.20639769732952117920f, -0.25247424840927124023f, -0.14317893981933593750f, -0.061837818473577499390f}
};
static const float tensor_features_5_conv_5_fc_2_bias[72] = 
{0.55143272876739501953f, 0.57530713081359863281f, 0.56266659498214721680f, 0.24033012986183166504f, -1.0931737422943115234f, 0.089672669768333435059f, 0.55931472778320312500f, -0.25872233510017395020f, -0.15936273336410522461f, -0.70706880092620849609f, -0.094444185495376586914f, 0.57939052581787109375f, -0.60156440734863281250f, -0.15153032541275024414f, 0.73022150993347167969f, 0.41205373406410217285f, -0.014580110087990760803f, -0.56775432825088500977f, 0.56350582838058471680f, 0.48035392165184020996f, -0.80646157264709472656f, -0.54704773426055908203f, -0.011377035640180110931f, -0.37373438477516174316f, 0.10692176222801208496f, -0.20232522487640380859f, 0.82707935571670532227f, 0.74069499969482421875f, 0.74024987220764160156f, -0.33780243992805480957f, 0.41363427042961120605f, 0.15587089955806732178f, 0.14503072202205657959f, 0.53264307975769042969f, 0.12856735289096832275f, 0.32041805982589721680f, -0.064074330031871795654f, 0.56313800811767578125f, -0.94915765523910522461f, 0.54149919748306274414f, -0.66773504018783569336f, 0.65790736675262451172f, -0.45709809660911560059f, 0.53201240301132202148f, 0.14388029277324676514f, -0.035501372069120407104f, -0.53164178133010864258f, 0.013288932852447032928f, -0.40924423933029174805f, -0.099743396043777465820f, -0.27741959691047668457f, -0.73184883594512939453f, 0.026640573516488075256f, -0.059855703264474868774f, -0.11859108507633209229f, -0.93712902069091796875f, 0.49340695142745971680f, -0.79351246356964111328f, -0.27368980646133422852f, 0.32682606577873229980f, 0.60159742832183837891f, 0.76665580272674560547f, -0.94638592004776000977f, 0.66448259353637695312f, -1.1836663484573364258f, 0.036493159830570220947f, -0.37759199738502502441f, 0.041906669735908508301f, -0.026677476242184638977f, 0.80931586027145385742f, 0.32948312163352966309f, -0.48951226472854614258f};
static const float tensor_features_6_conv_5_fc_0_weight[32][120] = 
{
