// This file is computer-generated by onnx2c 
// (TODO: add creating command line here)
// (TODO: print creation date here )

// ONNX model:
// produced by pytorch, version 2.2.1
// ONNX IR version: 10
// Model documentation: 
/*

*/

#include <float.h>
#include <math.h>
#include <stdbool.h>
#include <stdint.h>
#include <string.h>
#define MAX(X,Y) ( X > Y ? X : Y)
#define MIN(X,Y) ( X < Y ? X : Y)
#define CLIP(X,L) ( MAX(MIN(X,L), -L) )

static const float tensor_features_2_conv_3_fc_0_weight[8][8] = 
{
  {-0.018266925588250160217f, -0.019554419443011283875f, -0.024529669433832168579f, -0.011507521383464336395f, -0.028653837740421295166f, -0.030435798689723014832f, -0.025296898558735847473f, -0.038605984300374984741f},
  {-0.019384516403079032898f, -0.017825044691562652588f, -0.011610924266278743744f, -0.022869836539030075073f, -0.027249986305832862854f, -0.0057959989644587039948f, 0.0096505545079708099365f, -0.025553815066814422607f},
  {-0.014600865542888641357f, -0.0063094100914895534515f, -0.0084041040390729904175f, -0.0010043751681223511696f, -0.033200066536664962769f, -0.011139788664877414703f, -0.0085425395518541336060f, -0.024162877351045608521f},
  {0.013585960492491722107f, -0.012033252976834774017f, -0.030362252146005630493f, -0.011700135655701160431f, 0.0031313009094446897507f, -0.0075535816140472888947f, -0.0036997818388044834137f, -0.020773170515894889832f},
  {-0.012666274793446063995f, -0.0065780682489275932312f, 0.00041185339796356856823f, -0.028223827481269836426f, 0.0054762093350291252136f, -0.034081663936376571655f, -0.012472065165638923645f, -0.0066562308929860591888f},
  {-0.028237797319889068604f, -0.020213410258293151855f, -0.026182139292359352112f, -0.018196981400251388550f, -0.0074420534074306488037f, -0.0094662159681320190430f, -0.020842192694544792175f, -0.0085487598553299903870f},
  {-0.0050496738404035568237f, -0.0066104955039918422699f, -0.0055809272453188896179f, 0.0052749994210898876190f, 0.0065419422462582588196f, -0.021762384101748466492f, -0.013240605592727661133f, -0.031386181712150573730f},
  {0.0075611118227243423462f, -0.025872776284813880920f, -0.00077299983240664005280f, -0.0033491563517600297928f, -0.026740925386548042297f, 1.8086204363498836756e-05f, -0.022166324779391288757f, -5.1863667067664209753e-06f}
};
static const float tensor_features_2_conv_3_fc_0_bias[8] = 
{-0.018370715901255607605f, -0.015390945598483085632f, -0.0077260644175112247467f, -0.0056251855567097663879f, 0.00065438495948910713196f, -0.024988651275634765625f, -0.0032855833414942026138f, -0.0053467038087546825409f};
static const float tensor_features_2_conv_3_fc_2_weight[8][8] = 
{
  {0.026207882910966873169f, -0.028306767344474792480f, -0.012117108330130577087f, -0.0057380334474146366119f, -0.010140705853700637817f, -0.0027882696595042943954f, 0.0086871851235628128052f, 0.0054787299595773220062f},
  {-0.011731068603694438934f, 0.0076994504779577255249f, -0.0049091167747974395752f, -0.0097803724929690361023f, -0.025088662281632423401f, -0.0041287080384790897369f, -0.0021197719033807516098f, 0.0054168417118489742279f},
  {0.037563111633062362671f, 0.0037638356443494558334f, -0.0017308321548625826836f, -0.00093033537268638610840f, -0.00016743202286306768656f, 0.014440445229411125183f, -0.0017000968800857663155f, 0.0056339721195399761200f},
  {0.0054753529839217662811f, -0.018163800239562988281f, 0.0041627660393714904785f, 0.0094213653355836868286f, 0.0010756930569186806679f, -0.017024477943778038025f, -0.025809489190578460693f, 0.027691368013620376587f},
  {-0.0094292415305972099304f, 0.00028970721177756786346f, 0.0072662197053432464600f, 0.0026718908920884132385f, -0.00016604557458776980639f, 0.011008995585143566132f, -0.0059938868507742881775f, -0.012467251159250736237f},
  {0.00032387205283157527447f, 0.011074800975620746613f, 0.018407478928565979004f, 0.0060386448167264461517f, -0.0042307004332542419434f, 0.027916494756937026978f, 0.0033378349617123603821f, -0.0020196875557303428650f},
  {-0.0045593171380460262299f, 0.0025908132083714008331f, 0.0071407807990908622742f, 0.0027955712284892797470f, 0.023174861446022987366f, 0.0044593806378543376923f, 0.0090150050818920135498f, -0.0097477724775671958923f},
  {0.022881012409925460815f, -0.012738244608044624329f, 0.0046681156381964683533f, -0.0028660770040005445480f, 0.00088113546371459960938f, 0.014961962588131427765f, -0.0013053556904196739197f, 0.0090843308717012405396f}
};
static const float tensor_features_2_conv_3_fc_2_bias[8] = 
{-0.13937713205814361572f, -0.24416697025299072266f, -0.20889419317245483398f, -0.24905705451965332031f, -0.21261839568614959717f, -0.25195318460464477539f, 0.18753319978713989258f, -0.25417414307594299316f};
static const float tensor_features_5_conv_5_fc_0_weight[24][72] = 
{
  {-0.14456875622272491455f, 0.088686205446720123291f, -0.16617982089519500732f, 0.19014155864715576172f, -0.23086474835872650146f, -0.012438965961337089539f, 0.062135942280292510986f, 0.18728935718536376953f, 0.11850012093782424927f, -0.070485569536685943604f, -0.15131266415119171143f, 0.082456998527050018311f, 0.11584880948066711426f, 0.056849993765354156494f, -0.53828096389770507812f, -0.21871444582939147949f, -0.25143909454345703125f, 0.45833760499954223633f, 0.13500292599201202393f, -0.11140247434377670288f, 0.0034593471791595220566f, 0.13745883107185363770f, 0.12114650011062622070f, 0.088226810097694396973f, 0.33113068342208862305f, 0.058076798915863037109f, -0.053004082292318344116f, -0.18936029076576232910f, 0.28044971823692321777f, -0.12969057261943817139f, 0.14765705168247222900f, 0.030499553307890892029f, 0.18072132766246795654f, 0.0068018576130270957947f, -0.14878205955028533936f, -0.27341553568840026855f, 0.089064083993434906006f, -0.0073415171355009078979f, -0.26023808121681213379f, -0.39407491683959960938f, -0.070150256156921386719f, -0.51521563529968261719f, -0.068115346133708953857f, 0.12585435807704925537f, 0.012287696823477745056f, 0.22642891108989715576f, 0.37798231840133666992f, 0.019633645191788673401f, -0.23719856142997741699f, -0.22413307428359985352f, 0.22101320326328277588f, 0.15481440722942352295f, -0.12267639487981796265f, 0.020591622218489646912f, -0.045734178274869918823f, -0.034327290952205657959f, -0.043237112462520599365f, -0.024523150175809860229f, 0.076197199523448944092f, -0.44703143835067749023f, 0.098702579736709594727f, 0.082207873463630676270f, 0.20152880251407623291f, 0.17786154150962829590f, -0.19719186425209045410f, -0.11551213264465332031f, 0.032656740397214889526f, 0.079587757587432861328f, -0.21217291057109832764f, 0.27593979239463806152f, -0.13675190508365631104f, -0.028755623847246170044f},
  {0.37978062033653259277f, -0.17001117765903472900f, 0.053264420479536056519f, -0.21300032734870910645f, -0.29989653825759887695f, -0.048678595572710037231f, 0.024732299149036407471f, -0.18143357336521148682f, -0.24490860104560852051f, 0.21469420194625854492f, -0.34664127230644226074f, -0.12873718142509460449f, -0.058344535529613494873f, -0.19914247095584869385f, -0.36103081703186035156f, -0.46963414549827575684f, 0.27142831683158874512f, 0.26019757986068725586f, 0.19607466459274291992f, 0.16311728954315185547f, -0.029789844527840614319f, -0.079768247902393341064f, -0.18918903172016143799f, 0.023819543421268463135f, 0.11609338223934173584f, 0.048334967344999313354f, -0.047549046576023101807f, -0.0028491988778114318848f, -0.15459011495113372803f, 0.15961839258670806885f, 0.070015780627727508545f, -0.13123860955238342285f, -0.12486925721168518066f, 0.14311997592449188232f, -0.39876025915145874023f, -0.38666525483131408691f, 0.23111455142498016357f, 0.0073198168538510799408f, -0.13695320487022399902f, -0.20633952319622039795f, 0.094587646424770355225f, -0.17371378839015960693f, 0.11350359767675399780f, -0.21357744932174682617f, 0.44019615650177001953f, -0.32507893443107604980f, 0.41357618570327758789f, -0.059595704078674316406f, 0.10487750917673110962f, 0.025916302576661109924f, -0.34105378389358520508f, 0.24768377840518951416f, 0.0088333571329712867737f, -0.23389413952827453613f, 0.20110049843788146973f, 0.12905195355415344238f, 0.012056306935846805573f, -0.071708418428897857666f, 0.037940155714750289917f, 0.28991293907165527344f, -0.19724358618259429932f, -0.16080647706985473633f, -0.38514381647109985352f, 0.30251416563987731934f, 0.14762517809867858887f, 0.13197377324104309082f, 0.14418770372867584229f, -0.15348087251186370850f, -0.16519863903522491455f, -0.048332758247852325439f, -0.093708276748657226562f, 0.33985590934753417969f},
  {-0.034645803272724151611f, -0.23962019383907318115f, 0.038152877241373062134f, 0.074895001947879791260f, -0.087635420262813568115f, 0.12475144118070602417f, 0.00040316034574061632156f, -0.10475978255271911621f, -0.13492183387279510498f, 0.24202241003513336182f, -0.28950604796409606934f, 0.24552920460700988770f, -0.0078952508047223091125f, -0.036063276231288909912f, -0.23147617280483245850f, -0.44851726293563842773f, -0.16262120008468627930f, 0.40829268097877502441f, 0.24531789124011993408f, -0.10091276466846466064f, 0.18078565597534179688f, -0.014756511896848678589f, 0.093197323381900787354f, -0.22815111279487609863f, 0.23058587312698364258f, 0.059009704738855361938f, -0.083471849560737609863f, 0.28946033120155334473f, -0.018768345937132835388f, 0.018090149387717247009f, -0.12242165952920913696f, -0.13710913062095642090f, -0.40740218758583068848f, 0.10495633631944656372f, -0.55035907030105590820f, -0.33788618445396423340f, -0.12366856634616851807f, 0.012359296903014183044f, 0.11520692706108093262f, -0.15789169073104858398f, -0.14808192849159240723f, -0.35439223051071166992f, -0.22802960872650146484f, 0.13923878967761993408f, 0.37724879384040832520f, 0.15866325795650482178f, 0.43363568186759948730f, 0.050562478601932525635f, -0.096100360155105590820f, 0.26998922228813171387f, 0.030360227450728416443f, 0.11631874740123748779f, -0.083507023751735687256f, -0.071448132395744323730f, 0.21862231194972991943f, -0.11239238828420639038f, -0.057173572480678558350f, -0.0054451599717140197754f, -0.12436457723379135132f, 0.034613393247127532959f, 0.36284959316253662109f, -0.031570762395858764648f, -0.24473653733730316162f, 0.19829703867435455322f, 0.070855855941772460938f, 0.12935255467891693115f, 0.035689029842615127563f, -0.11612414568662643433f, 0.21988207101821899414f, 0.20110639929771423340f, 0.11851498484611511230f, -0.10191439837217330933f},
  {0.040496990084648132324f, -0.13855506479740142822f, -0.0013458026805892586708f, -0.081533849239349365234f, -0.020845724269747734070f, 0.0066940793767571449280f, 0.10498834401369094849f, -0.10710936784744262695f, -0.057207364588975906372f, 0.12148357927799224854f, -0.014139485545456409454f, 0.085612431168556213379f, -0.085438117384910583496f, -0.11464565247297286987f, -0.10815376043319702148f, -0.073960252106189727783f, -0.17495636641979217529f, 0.033229891210794448853f, 0.037479721009731292725f, 0.056151293218135833740f, -0.0073549626395106315613f, -0.030551871284842491150f, -0.027620146051049232483f, -0.090437665581703186035f, -0.047296218574047088623f, 0.14247755706310272217f, -0.035556420683860778809f, 0.14580151438713073730f, -0.072453282773494720459f, 0.079520516097545623779f, -0.14876925945281982422f, 0.069906286895275115967f, -0.013117405585944652557f, 0.16730393469333648682f, -0.062007449567317962646f, -0.072523340582847595215f, 0.11124019324779510498f, 0.062114238739013671875f, 0.11486797034740447998f, -0.063756316900253295898f, -0.050444371998310089111f, 0.021356126293540000916f, 0.031045801937580108643f, -0.098391503095626831055f, -0.033826004713773727417f, -0.087353274226188659668f, 0.077122576534748077393f, -0.14184980094432830811f, 0.019056616351008415222f, 0.059734344482421875000f, -0.061716634780168533325f, 0.042082402855157852173f, -0.046824194490909576416f, 0.081657603383064270020f, 0.037354793399572372437f, -0.0077253365889191627502f, -0.11593124270439147949f, 0.0043996055610477924347f, -0.082387879490852355957f, 0.13068914413452148438f, -0.13015411794185638428f, -0.078978143632411956787f, -0.16459073126316070557f, 0.017348026856780052185f, 0.051102966070175170898f, 0.12155673652887344360f, 0.0075706252828240394592f, 0.035062313079833984375f, 0.18109145760536193848f, -0.040662702172994613647f, 0.048531241714954376221f, 0.021947445347905158997f},
  {0.19001804292201995850f, -0.21946357190608978271f, 0.14266064763069152832f, -0.053219862282276153564f, -0.016092812642455101013f, 0.045642387121915817261f, -0.038367658853530883789f, -0.18385462462902069092f, 0.054373916238546371460f, 0.10786496102809906006f, -0.025755604729056358337f, 0.12291637808084487915f, -0.043616130948066711426f, -0.12537802755832672119f, -0.049310397356748580933f, -0.067843973636627197266f, -0.028422797098755836487f, 0.026301978155970573425f, -0.00088055821834132075310f, 0.13692638278007507324f, 0.020620966330170631409f, 0.049681868404150009155f, -0.10614696890115737915f, -0.0048171570524573326111f, 0.0034343346487730741501f, 0.21743740141391754150f, -0.039741281419992446899f, 0.045490637421607971191f, 0.057803314179182052612f, 0.15846203267574310303f, -0.047815930098295211792f, 0.16739264130592346191f, -0.073455058038234710693f, 0.13289269804954528809f, -0.044489759951829910278f, -0.016032915562391281128f, 0.098244182765483856201f, 0.11125789582729339600f, 0.019392622634768486023f, 0.014168055728077888489f, 0.090953692793846130371f, 0.018889149650931358337f, 0.010721249505877494812f, 0.088426686823368072510f, 0.078218236565589904785f, -0.10766717791557312012f, 0.10555187612771987915f, -0.034774154424667358398f, 0.064116410911083221436f, -0.16189382970333099365f, -0.027014555409550666809f, 0.036462720483541488647f, 0.13193359971046447754f, 0.041628565639257431030f, -0.020431393757462501526f, -0.032393854111433029175f, 0.016285752877593040466f, 0.045621216297149658203f, 0.036622442305088043213f, 0.10858457535505294800f, -0.012760866433382034302f, -0.047983329743146896362f, -0.14703476428985595703f, -0.022737607359886169434f, 0.092345103621482849121f, 0.19339714944362640381f, 0.074935995042324066162f, 0.16347014904022216797f, 0.058726694434881210327f, -0.027050457894802093506f, -0.030374348163604736328f, 0.023897778242826461792f},
  {0.15289254486560821533f, -0.029314571991562843323f, -0.021336257457733154297f, 0.24767635762691497803f, -0.12895311415195465088f, -0.082931533455848693848f, -0.018370263278484344482f, 0.19787777960300445557f, 0.049415457993745803833f, -0.012527097016572952271f, -0.14462241530418395996f, 0.019629146903753280640f, -0.0078477235510945320129f, -0.056744933128356933594f, -0.40162143111228942871f, -0.16052868962287902832f, -0.20179770886898040771f, 0.17008706927299499512f, 0.050172969698905944824f, -0.098842844367027282715f, -0.24134525656700134277f, 0.084176540374755859375f, -0.11592338234186172485f, -0.027315860614180564880f, 0.17225515842437744141f, -0.045630555599927902222f, -0.018844174221158027649f, -0.019766557961702346802f, 0.036979779601097106934f, 0.024749280884861946106f, 0.35867843031883239746f, -0.056171298027038574219f, 0.26442423462867736816f, -0.14402918517589569092f, 0.0045298729091882705688f, -0.11911355704069137573f, -0.16173866391181945801f, -0.10341475903987884521f, -0.12187716364860534668f, -0.28379786014556884766f, -0.044290062040090560913f, -0.24240303039550781250f, -0.017030583694577217102f, 0.15147690474987030029f, 0.010010572150349617004f, -0.067806318402290344238f, 0.25388491153717041016f, -0.039227131754159927368f, -0.24675932526588439941f, -0.13038076460361480713f, 0.13390292227268218994f, 0.25438815355300903320f, 0.013724120333790779114f, 0.081057935953140258789f, 0.15560996532440185547f, 0.10048320889472961426f, -0.040257763117551803589f, -0.00013272296928334981203f, 0.12837757170200347900f, -0.34061184525489807129f, -0.38522532582283020020f, 0.10203597694635391235f, 0.092740416526794433594f, 0.048774201422929763794f, -0.16427837312221527100f, -0.20610627532005310059f, 0.024444594979286193848f, 0.0049571427516639232635f, 0.15801937878131866455f, 0.057724695652723312378f, -0.21496756374835968018f, 0.27982509136199951172f},
  {-0.050108049064874649048f, 0.19543994963169097900f, -0.085472948849201202393f, -0.21553748846054077148f, -0.18255144357681274414f, -0.0011024600826203823090f, -0.10456909239292144775f, -0.068744942545890808105f, -0.10843928903341293335f, -0.090772189199924468994f, -0.082793354988098144531f, 0.047512944787740707397f, -0.24445490539073944092f, -0.051162410527467727661f, -0.081563338637351989746f, 0.0033596896100789308548f, 0.0040582278743386268616f, 0.081883952021598815918f, -0.094571270048618316650f, 0.13093309104442596436f, 0.10197057574987411499f, 0.058249805122613906860f, 0.012032200582325458527f, -0.20208400487899780273f, -0.18029280006885528564f, 0.26173850893974304199f, -0.070717416703701019287f, 0.17296417057514190674f, -0.23428775370121002197f, 0.033825408667325973511f, -0.32544326782226562500f, 0.037711896002292633057f, -0.23996986448764801025f, 0.27547904849052429199f, 0.027988918125629425049f, -0.089733667671680450439f, 0.18727429211139678955f, -0.17289869487285614014f, 0.20983593165874481201f, 0.016093105077743530273f, -0.083848692476749420166f, 0.017534790560603141785f, -0.27207517623901367188f, -0.24233563244342803955f, 0.0049777701497077941895f, -0.047168966382741928101f, -0.062383990734815597534f, -0.31589370965957641602f, 0.077958099544048309326f, 0.37504512071609497070f, -0.21793860197067260742f, -0.081293143332004547119f, -0.12587665021419525146f, -0.086420498788356781006f, 0.058618534356355667114f, -0.071955129504203796387f, -0.21675589680671691895f, -0.18983733654022216797f, -0.098689392209053039551f, 0.38696292042732238770f, 0.15330642461776733398f, -0.11053373664617538452f, -0.27894014120101928711f, 0.012031801976263523102f, 0.28227972984313964844f, 0.081964693963527679443f, 0.16053326427936553955f, 0.051843233406543731689f, 0.047225996851921081543f, -0.030303977429866790771f, 0.071966826915740966797f, 0.015817092731595039368f},
  {0.0076908115297555923462f, -0.091642692685127258301f, -0.0084856627508997917175f, -0.060220994055271148682f, 0.045036714524030685425f, 0.074891358613967895508f, -0.051800969988107681274f, -0.019049754366278648376f, -0.044579185545444488525f, 0.036920230835676193237f, 0.056020494550466537476f, 0.018881285563111305237f, -0.016366580501198768616f, -0.018314369022846221924f, 0.040160421282052993774f, 0.031917423009872436523f, 0.011356364935636520386f, 0.080563880503177642822f, 0.10123854130506515503f, 0.027886027470231056213f, 0.041647348552942276001f, 0.060693584382534027100f, 0.066502809524536132812f, -0.025445094332098960876f, -0.015384521335363388062f, 0.068440027534961700439f, -0.031514730304479598999f, 0.060944519937038421631f, 0.011706377379596233368f, 0.0085795745253562927246f, -0.028824461624026298523f, 0.028230566531419754028f, -0.082028687000274658203f, 0.010552804917097091675f, -0.097545087337493896484f, -0.0016870584804564714432f, 0.065805010497570037842f, 0.011117442511022090912f, 0.00036343402462080121040f, 0.0053018340840935707092f, -0.068873055279254913330f, 0.026036459952592849731f, -0.13588297367095947266f, -0.013597039505839347839f, 0.088064998388290405273f, 0.018561186268925666809f, 0.0084619987756013870239f, -0.041197691112756729126f, -0.0068160407245159149170f, 0.091428764164447784424f, -0.049822587519884109497f, 0.057516444474458694458f, -0.028991878032684326172f, 0.015898462384939193726f, 0.0024500857107341289520f, -0.043768607079982757568f, -0.0099147753790020942688f, -0.0084414733573794364929f, -0.053788136690855026245f, 0.093104846775531768799f, 0.030894802883267402649f, -0.0019792381208389997482f, -0.023069433867931365967f, -0.029380045831203460693f, 0.10320317745208740234f, 0.059409506618976593018f, 0.021682193502783775330f, 0.016640491783618927002f, 0.033848054707050323486f, 0.040971953421831130981f, -5.4171407100511714816e-05f, 0.032450605183839797974f},
  {-0.040544424206018447876f, -0.10978005826473236084f, -0.16664002835750579834f, -0.15926295518875122070f, 0.046543288975954055786f, 0.0034940305631607770920f, 0.037767264991998672485f, -0.10193539410829544067f, -0.18196640908718109131f, 0.11166518926620483398f, 0.0083300294354557991028f, 0.062362655997276306152f, -0.19603155553340911865f, -0.18653379380702972412f, 0.14445592463016510010f, -0.010231167078018188477f, -0.093018218874931335449f, 0.011981983669102191925f, -0.028986711055040359497f, 0.22090789675712585449f, 0.047494523227214813232f, -0.089900188148021697998f, -0.049582518637180328369f, -0.18962199985980987549f, -0.072932086884975433350f, 0.26506701111793518066f, -0.21195296943187713623f, 0.043209116905927658081f, -0.0045277238823473453522f, 0.060393534600734710693f, 0.016399607062339782715f, 0.080496653914451599121f, -0.082089588046073913574f, -0.0074249859899282455444f, -0.0074955495074391365051f, 0.025148600339889526367f, 0.067394837737083435059f, 0.061102785170078277588f, 0.12934762239456176758f, -0.013643156737089157104f, -0.035450305789709091187f, 0.10912037640810012817f, 0.086203493177890777588f, -0.048614650964736938477f, 0.010840020142495632172f, -0.087228953838348388672f, 0.016487738117575645447f, -0.12887099385261535645f, -0.023875303566455841064f, 0.11150524020195007324f, -0.055287070572376251221f, 0.095751367509365081787f, -0.085061050951480865479f, 0.098158612847328186035f, 0.16178750991821289062f, -0.14662772417068481445f, -0.12289146333932876587f, -0.16455845534801483154f, 0.039778426289558410645f, 0.21549962460994720459f, 0.0065606003627181053162f, -0.016871519386768341064f, -0.036652978509664535522f, -0.039696581661701202393f, -0.011974821798503398895f, 0.095852456986904144287f, 0.16226211190223693848f, -0.042196922004222869873f, 0.15214519202709197998f, -0.0060317614115774631500f, 0.060143839567899703979f, -0.074386529624462127686f},
  {-0.20251463353633880615f, -0.29348820447921752930f, -0.19993185997009277344f, 0.020823564380407333374f, -0.26479628682136535645f, 0.032046299427747726440f, -0.10923165082931518555f, -0.065390840172767639160f, -0.17082674801349639893f, 0.42140921950340270996f, -0.38569819927215576172f, 0.12676501274108886719f, -0.11900992691516876221f, -0.10295382142066955566f, -0.14297448098659515381f, -0.58861434459686279297f, -0.065733470022678375244f, 0.14761050045490264893f, 0.20150628685951232910f, -0.019669370725750923157f, 0.14538298547267913818f, -0.11866025626659393311f, 0.029202217236161231995f, -0.074959091842174530029f, 0.11581849306821823120f, -0.012719811871647834778f, -0.023046802729368209839f, -0.077312611043453216553f, 0.099173195660114288330f, -0.17214705049991607666f, -0.16684645414352416992f, -0.20063701272010803223f, -0.35410317778587341309f, 0.12166865915060043335f, -0.41532233357429504395f, -0.47992676496505737305f, -0.22037838399410247803f, -0.095612861216068267822f, 0.080914758145809173584f, -0.17174308001995086670f, -0.038554210215806961060f, -0.095588825643062591553f, -0.0030336752533912658691f, 0.021350935101509094238f, 0.51393526792526245117f, 0.17729949951171875000f, 0.54597258567810058594f, -0.068553879857063293457f, -0.27889764308929443359f, 0.20693159103393554688f, 0.11265468597412109375f, 0.072886556386947631836f, 0.12675978243350982666f, -0.018443740904331207275f, 0.089095741510391235352f, 0.058539796620607376099f, 0.031505238264799118042f, -0.053355965763330459595f, -0.21128110587596893311f, -0.094875209033489227295f, 0.40192028880119323730f, 0.012544181197881698608f, -0.27467367053031921387f, 0.23727074265480041504f, -0.070135883986949920654f, 0.27863547205924987793f, -0.055515915155410766602f, 0.057150185108184814453f, 0.30133721232414245605f, -0.11476718634366989136f, 0.071058638393878936768f, -0.32352903485298156738f},
  {0.088599614799022674561f, -0.086405023932456970215f, 0.016287514939904212952f, -0.022272123023867607117f, -0.020997583866119384766f, -0.076086632907390594482f, 0.12703998386859893799f, -0.14335338771343231201f, -0.26487025618553161621f, 0.28346350789070129395f, -0.047489061951637268066f, 0.16605575382709503174f, -0.14828445017337799072f, -0.25458395481109619141f, -0.24126261472702026367f, -0.041627671569585800171f, -0.088526673614978790283f, -0.0086129773408174514771f, 0.21509392559528350830f, 0.15764918923377990723f, -0.11047778278589248657f, 0.079937539994716644287f, -0.12664474546909332275f, -0.10747589170932769775f, -0.065913654863834381104f, 0.26372668147087097168f, -0.12107376754283905029f, 0.32196700572967529297f, -0.050773974508047103882f, 0.0060817808844149112701f, -0.22724938392639160156f, 0.27822232246398925781f, -0.14333768188953399658f, 0.37567609548568725586f, -0.14303977787494659424f, -0.13260450959205627441f, 0.11222042143344879150f, -0.054820720106363296509f, 0.21579565107822418213f, -0.0049351626075804233551f, 0.13234253227710723877f, -0.11956364661455154419f, -0.087223693728446960449f, -0.16225592792034149170f, 0.21217516064643859863f, -0.15554830431938171387f, 0.10349377244710922241f, -0.058742884546518325806f, 0.045924928039312362671f, 0.044473931193351745605f, -0.061170566827058792114f, -0.17652708292007446289f, -0.068608477711677551270f, 0.084950305521488189697f, 0.0063460613600909709930f, 0.025635015219449996948f, -0.092410020530223846436f, -0.14851061999797821045f, -0.029320087283849716187f, 0.34258985519409179688f, 0.15810270607471466064f, -0.079444162547588348389f, -0.21332930028438568115f, 0.038505475968122482300f, 0.051598805934190750122f, 0.14121353626251220703f, 0.13063414394855499268f, -0.0081424517557024955750f, 0.14688400924205780029f, -0.00019020246691070497036f, 0.019959799945354461670f, 0.019060421735048294067f},
  {0.15969975292682647705f, -0.044987570494413375854f, 0.036763720214366912842f, -0.16368050873279571533f, 0.039284769445657730103f, -0.091659039258956909180f, 0.051961444318294525146f, -0.091786384582519531250f, -0.23272988200187683105f, 0.058541271835565567017f, 0.050486017018556594849f, 0.10496184974908828735f, 0.019834686070680618286f, -0.19295468926429748535f, 0.13066941499710083008f, 0.0028165446128696203232f, -0.024319989606738090515f, 0.038704775273799896240f, 0.032482068985700607300f, 0.087431386113166809082f, 0.066152043640613555908f, 0.057706803083419799805f, -0.14959439635276794434f, -0.11057311296463012695f, -0.011121099814772605896f, 0.11584002524614334106f, -0.028223896399140357971f, 0.24083468317985534668f, -0.053128041326999664307f, -0.023260036483407020569f, -0.026122001931071281433f, 0.052977040410041809082f, -0.27814266085624694824f, 0.16666567325592041016f, -0.024391075596213340759f, 0.047710075974464416504f, 0.021401505917310714722f, -0.037199225276708602905f, 0.091652274131774902344f, 0.030235638841986656189f, 0.080702409148216247559f, -0.062330465763807296753f, -0.0016165362903848290443f, -0.070323072373867034912f, 0.023337163031101226807f, 0.025116579607129096985f, 0.023961525410413742065f, -0.074524492025375366211f, -0.037553157657384872437f, 0.13048267364501953125f, -0.11915858834981918335f, 0.029569858685135841370f, -0.19502088427543640137f, 0.031033366918563842773f, 0.061483740806579589844f, 0.10427326709032058716f, -0.19720101356506347656f, -0.17264057695865631104f, -0.020184887573122978210f, 0.16762407124042510986f, 0.040561582893133163452f, -0.087006911635398864746f, -0.052504077553749084473f, -0.046701569110155105591f, 0.13911043107509613037f, 0.14994396269321441650f, -0.017202530056238174438f, 0.011070669628679752350f, -0.025900714099407196045f, 0.034084167331457138062f, -0.075672656297683715820f, -0.025327455252408981323f},
  {0.13838219642639160156f, 0.064431257545948028564f, -0.15341207385063171387f, 0.0011569035705178976059f, -0.084065020084381103516f, 0.31513351202011108398f, -0.00085746240802109241486f, -0.081544779241085052490f, -0.19399654865264892578f, -0.080143436789512634277f, -0.078361861407756805420f, 0.056395005434751510620f, 0.012766541913151741028f, -0.10298813134431838989f, 0.14804315567016601562f, -0.053241990506649017334f, -0.060115735977888107300f, -0.068833947181701660156f, 0.0047217020764946937561f, 0.31628209352493286133f, 0.086048737168312072754f, 0.00089405791368335485458f, 0.14003320038318634033f, -0.30632457137107849121f, -0.17460201680660247803f, 0.28869187831878662109f, -0.34812003374099731445f, 0.13598936796188354492f, -0.032227475196123123169f, -0.059480763971805572510f, -0.15898917615413665771f, 0.054327514022588729858f, -0.084704838693141937256f, 0.35023003816604614258f, -0.017028288915753364563f, -0.0080468580126762390137f, 0.058526445180177688599f, -0.081084825098514556885f, 0.37577569484710693359f, 0.042284797877073287964f, -0.21787749230861663818f, 0.058790050446987152100f, -0.041352007538080215454f, 0.049288094043731689453f, 0.092624768614768981934f, 0.10361474007368087769f, 0.039280761033296585083f, -0.023232480511069297791f, 0.052484586834907531738f, 0.10899075120687484741f, -0.057772498577833175659f, -0.075820095837116241455f, -0.13768026232719421387f, -0.17275977134704589844f, -0.031810469925403594971f, -0.17431223392486572266f, 0.029532877728343009949f, -0.37911793589591979980f, -0.075245909392833709717f, 0.25906613469123840332f, 0.19019153714179992676f, 0.026045275852084159851f, -0.38838538527488708496f, -0.014987410046160221100f, 0.15231354534626007080f, 0.13721694052219390869f, 0.11310626566410064697f, -0.15935313701629638672f, -0.035202886909246444702f, -0.023532474413514137268f, 0.027823373675346374512f, -0.026710998266935348511f},
  {0.051657605916261672974f, -0.093724638223648071289f, 0.023606294766068458557f, -0.14885391294956207275f, 0.067526437342166900635f, 0.037038158625364303589f, -0.014976945705711841583f, -0.084732174873352050781f, -0.059431560337543487549f, 0.083540141582489013672f, 0.041118878871202468872f, 0.15092669427394866943f, -0.098793119192123413086f, -0.038030959665775299072f, -0.13912156224250793457f, -0.013278786092996597290f, 0.050887856632471084595f, 0.015354173257946968079f, 0.064652703702449798584f, 0.091338261961936950684f, 0.013285274617373943329f, 0.040870610624551773071f, -0.0065448428504168987274f, 0.021314546465873718262f, 0.019762871786952018738f, 0.12312932312488555908f, 0.0044540525414049625397f, 0.097742438316345214844f, 0.069799542427062988281f, 0.018296236172318458557f, 0.013939158059656620026f, 0.021986126899719238281f, 0.051087349653244018555f, 0.075624532997608184814f, -0.0052990550175309181213f, 0.035098608583211898804f, 0.072364985942840576172f, 0.11368153244256973267f, 0.0053571504540741443634f, 0.013647986575961112976f, 0.096245199441909790039f, 0.044502999633550643921f, -0.020551675930619239807f, 0.0099042775109410285950f, 0.018808176741003990173f, -0.14612898230552673340f, 0.023714618757367134094f, -0.023391235619783401489f, 0.029431836679577827454f, 0.078292623162269592285f, 0.020742693915963172913f, 0.024122612550854682922f, 0.030041126534342765808f, 0.12505546212196350098f, -0.012269811704754829407f, 0.024303743615746498108f, -0.10393375158309936523f, -0.025797883048653602600f, -0.044168904423713684082f, 0.12173703312873840332f, 0.016443926841020584106f, 0.0026773700956255197525f, 0.027607968077063560486f, -0.046603415161371231079f, -0.015526579692959785461f, 0.13209436833858489990f, 0.048818856477737426758f, 0.12030709534883499146f, 0.11209762841463088989f, 0.096044309437274932861f, -0.025146545842289924622f, -0.051909983158111572266f},
  {0.022068623453378677368f, -0.046331956982612609863f, -0.10766588151454925537f, 0.0045974282547831535339f, -0.028659071773290634155f, -0.090746134519577026367f, -0.054251067340373992920f, -0.089031167328357696533f, -0.029063824564218521118f, 0.11243281513452529907f, -0.034958604723215103149f, 0.13943329453468322754f, -0.078948326408863067627f, -0.012928157113492488861f, -0.026522746309638023376f, -0.037846270948648452759f, -0.064532004296779632568f, 0.051553636789321899414f, 0.029340965673327445984f, 0.011414988897740840912f, -0.032434016466140747070f, 0.046267166733741760254f, 0.031347870826721191406f, -0.076469972729682922363f, -0.026598598808050155640f, 0.11232717335224151611f, -0.10673876851797103882f, 0.069514609873294830322f, 0.059675950556993484497f, 0.045692022889852523804f, -0.10363248735666275024f, 0.034345973283052444458f, -0.019919415935873985291f, 0.075486004352569580078f, -0.049142897129058837891f, 0.017540408298373222351f, 0.11817708611488342285f, 0.045656587928533554077f, -0.0034780804999172687531f, 0.058367189019918441772f, -0.016077872365713119507f, -0.039718531072139739990f, 0.014056515879929065704f, 0.040370389819145202637f, 0.027212740853428840637f, -0.10108169168233871460f, 0.072396449744701385498f, -0.026626391336321830750f, 0.089490450918674468994f, -0.0063011711463332176208f, -0.053024780005216598511f, 0.0067336563952267169952f, -0.034962646663188934326f, 0.064349040389060974121f, 0.016232715919613838196f, -0.088858015835285186768f, -0.15655985474586486816f, -0.070975661277770996094f, 0.020698890089988708496f, 0.18121165037155151367f, -0.0038202800787985324860f, 0.035430096089839935303f, -0.065199621021747589111f, -0.045390762388706207275f, 0.0031738181132823228836f, 0.041858609765768051147f, 0.049771998077630996704f, 0.045896578580141067505f, 0.083986930549144744873f, 0.019889846444129943848f, 0.080531679093837738037f, -0.038886614143848419189f},
  {0.091073758900165557861f, -0.30608034133911132812f, -0.071479730308055877686f, -0.18249265849590301514f, 0.093796789646148681641f, -0.17141933739185333252f, 0.070019423961639404297f, -0.24289995431900024414f, -0.14413963258266448975f, 0.11266516894102096558f, 0.017064934596419334412f, 0.24556809663772583008f, -0.23338039219379425049f, -0.12590697407722473145f, -0.12661680579185485840f, -0.014019482769072055817f, -0.081006355583667755127f, 0.27175444364547729492f, 0.030614161863923072815f, 0.16504573822021484375f, 0.16242976486682891846f, -0.12680529057979583740f, -0.12545989453792572021f, -0.040606316179037094116f, -0.041958346962928771973f, 0.30876374244689941406f, -0.13872246444225311279f, 0.10939262062311172485f, -0.071824334561824798584f, 0.080966264009475708008f, -0.11310938000679016113f, 0.17402662336826324463f, -0.30439415574073791504f, 0.17667360603809356689f, -0.077040486037731170654f, 0.0078936666250228881836f, 0.069153696298599243164f, -0.0065609277226030826569f, 0.16398648917675018311f, 0.080901175737380981445f, 0.094541959464550018311f, -0.087200611829757690430f, 0.0066014197655022144318f, 0.071293473243713378906f, 0.052109755575656890869f, -0.20467175543308258057f, 0.095018930733203887939f, -0.22828330099582672119f, 0.18216830492019653320f, 0.14679476618766784668f, -0.13768979907035827637f, -0.025964120402932167053f, -0.14327703416347503662f, 0.15172603726387023926f, 0.012443503364920616150f, 0.0041628424078226089478f, -0.19376155734062194824f, -0.16655398905277252197f, 0.0021608762908726930618f, 0.27916935086250305176f, 0.21958699822425842285f, -0.010867685079574584961f, -0.24836912751197814941f, -0.095895186066627502441f, 0.030450323596596717834f, 0.26506370306015014648f, 0.049525029957294464111f, 0.21877039968967437744f, 0.19953143596649169922f, 0.10056743025779724121f, 0.092230901122093200684f, -0.042444989085197448730f},
  {-0.25768908858299255371f, -0.032426241785287857056f, -0.051867932081222534180f, 0.14556652307510375977f, -0.35163959860801696777f, -0.080454342067241668701f, -0.037923004478216171265f, 0.029099889099597930908f, 0.011042103171348571777f, 0.29945507645606994629f, -0.45995047688484191895f, 0.010934920050203800201f, -0.025939166545867919922f, 0.040312658995389938354f, -0.096839591860771179199f, -0.62519150972366333008f, -0.32672238349914550781f, 0.088141672313213348389f, 0.040099199861288070679f, -0.0061577856540679931641f, 0.051586624234914779663f, -0.085544668138027191162f, 0.056265700608491897583f, -0.094405449926853179932f, 0.10380288213491439819f, -0.037912037223577499390f, 0.079623281955718994141f, -0.12745466828346252441f, 0.21523061394691467285f, -0.24513059854507446289f, -0.097668401896953582764f, -0.19000019133090972900f, -0.34706732630729675293f, -0.067322961986064910889f, -0.26226282119750976562f, -0.44213399291038513184f, -0.094224579632282257080f, -0.046603444963693618774f, -6.0671722167171537876e-05f, -0.28049618005752563477f, -0.028816344216465950012f, -0.0057668304070830345154f, 0.011005978100001811981f, 0.070445522665977478027f, 0.37925937771797180176f, 0.20740233361721038818f, 0.49764028191566467285f, 0.072210527956485748291f, -0.15144409239292144775f, 0.034316625446081161499f, 0.25790858268737792969f, 0.17510326206684112549f, 0.0029943964909762144089f, 0.10540551692247390747f, 0.0091431364417076110840f, 0.010836937464773654938f, 0.011652140878140926361f, 0.073950618505477905273f, -0.019785700365900993347f, -0.17837777733802795410f, 0.39410653710365295410f, 0.21483825147151947021f, -0.093095913529396057129f, 0.24829052388668060303f, -0.18964870274066925049f, 0.11998056620359420776f, -0.11165473610162734985f, 0.028481587767601013184f, -0.028819762170314788818f, -0.12143382430076599121f, -0.13483114540576934814f, -0.29247474670410156250f},
  {0.10629676282405853271f, -0.11160761117935180664f, -0.041653335094451904297f, -0.046556953340768814087f, -0.00095891847740858793259f, -0.0032008262351155281067f, 0.075310871005058288574f, -0.0094783818349242210388f, -0.063705965876579284668f, 0.034060437232255935669f, 0.0020457140635699033737f, 0.063448220491409301758f, -0.017875261604785919189f, -0.019980957731604576111f, -0.048687051981687545776f, -0.017912987619638442993f, 0.032721802592277526855f, 0.028061274439096450806f, 0.054299581795930862427f, 0.028766240924596786499f, -0.0020783243235200643539f, 0.078196249902248382568f, -0.078468628227710723877f, -0.061658799648284912109f, 0.0025260529946535825729f, 0.12463136017322540283f, 0.017374796792864799500f, 0.048371750861406326294f, -0.052041243761777877808f, -0.024204552173614501953f, -0.0085804080590605735779f, -0.0010989097645506262779f, -0.075499877333641052246f, 0.14613278210163116455f, -0.016370655968785285950f, -0.0031346869654953479767f, 0.042069934308528900146f, -0.034068323671817779541f, 0.050962701439857482910f, -0.032439485192298889160f, -0.022666892036795616150f, -0.022951791062951087952f, 0.030640067532658576965f, -0.019709551706910133362f, 0.0068245581351220607758f, -0.041654769331216812134f, -0.0011600244324654340744f, -0.082455001771450042725f, -0.030540933832526206970f, 0.067340582609176635742f, -0.076296739280223846436f, -0.020499082282185554504f, 0.042145423591136932373f, 0.029998900368809700012f, 0.028655355796217918396f, -0.11679183691740036011f, -0.050740793347358703613f, -0.081255055963993072510f, 0.053108334541320800781f, 0.21701799333095550537f, 0.015595666132867336273f, 0.0015465982723981142044f, 0.0028288420289754867554f, -0.015745611861348152161f, 0.035794939845800399780f, 0.016412086784839630127f, 0.039489496499300003052f, 0.015656936913728713989f, 0.20193950831890106201f, 0.016959300264716148376f, 0.053222045302391052246f, 0.0089825075119733810425f},
  {0.14420264959335327148f, -0.047544088214635848999f, 0.16536052525043487549f, -0.34634006023406982422f, 0.018253430724143981934f, 0.045645777136087417603f, -0.021413143724203109741f, -0.29108205437660217285f, -0.12950035929679870605f, 0.17087048292160034180f, -0.026378279551863670349f, 0.17949689924716949463f, -0.12602666020393371582f, -0.10475296527147293091f, -0.26836740970611572266f, -0.049114171415567398071f, -0.045991834253072738647f, 0.072957552969455718994f, 0.036482203751802444458f, 0.18829837441444396973f, 0.015932902693748474121f, 0.27894395589828491211f, -0.18684877455234527588f, -0.11062451452016830444f, -0.067727796733379364014f, 0.30623328685760498047f, -0.049787968397140502930f, 0.037497002631425857544f, 0.078039184212684631348f, 0.14705908298492431641f, -0.020238300785422325134f, 0.10598162561655044556f, -0.14253500103950500488f, 0.15042228996753692627f, -0.034800734370946884155f, 0.014876668341457843781f, -0.068824164569377899170f, -0.0034236630890518426895f, 0.21432390809059143066f, 0.083062417805194854736f, -0.069203175604343414307f, -0.046133808791637420654f, 0.011064960621297359467f, -0.079123660922050476074f, 0.018713494762778282166f, -0.15613214671611785889f, 0.039890523999929428101f, -0.12690970301628112793f, 0.13844452798366546631f, 0.052041601389646530151f, -0.14938461780548095703f, 0.12440760433673858643f, -0.010933537036180496216f, 0.075089894235134124756f, 0.00061945710331201553345f, -0.053321368992328643799f, -0.16727116703987121582f, -0.035835064947605133057f, -0.21216814219951629639f, 0.44291639328002929688f, 0.15793736279010772705f, -0.20375534892082214355f, -0.30481740832328796387f, -0.11136924475431442261f, 0.040555573999881744385f, 0.43849959969520568848f, 0.11768301576375961304f, -0.055005263537168502808f, 0.094658255577087402344f, 0.068934947252273559570f, -0.014002149924635887146f, -0.10248024761676788330f},
  {0.11316781491041183472f, -0.15520986914634704590f, -0.012986307032406330109f, -0.17083992063999176025f, 0.032256644219160079956f, -0.090946488082408905029f, 0.021106574684381484985f, -0.12978699803352355957f, -0.15580531954765319824f, 0.026104789227247238159f, 0.037005718797445297241f, 0.10831589996814727783f, -0.095222994685173034668f, -0.080597624182701110840f, -0.17059905827045440674f, -0.049963865429162979126f, -0.10505622625350952148f, 0.063381806015968322754f, -0.021159771829843521118f, 0.12969011068344116211f, 0.024183871224522590637f, 0.0052633918821811676025f, -0.040893979370594024658f, -0.062754496932029724121f, -0.084748566150665283203f, 0.29587897658348083496f, 0.034353829920291900635f, 0.093662865459918975830f, -0.074525311589241027832f, 0.022688101977109909058f, -0.17603562772274017334f, 0.13704016804695129395f, -0.33053681254386901855f, 0.22177867591381072998f, -0.022118611261248588562f, -0.031316567212343215942f, 0.15883369743824005127f, -0.0057664131745696067810f, 0.14822630584239959717f, 0.057097397744655609131f, -0.093908071517944335938f, -0.020270923152565956116f, 0.015301275998353958130f, -0.075304597616195678711f, -0.030140276998281478882f, -0.092874281108379364014f, 0.074268862605094909668f, 0.047831885516643524170f, 0.13934478163719177246f, -0.083672739565372467041f, -0.11182881891727447510f, -0.043366424739360809326f, -0.049943864345550537109f, 0.084541484713554382324f, 0.13532613217830657959f, -0.085641197860240936279f, -0.076827421784400939941f, -0.20197921991348266602f, -0.053426280617713928223f, 0.22007994353771209717f, 0.035665813833475112915f, -0.12079624831676483154f, -0.16360604763031005859f, -0.074288681149482727051f, 0.11909685283899307251f, 0.11450659483671188354f, 0.083803802728652954102f, 0.045836057513952255249f, 0.17733760178089141846f, 0.12574999034404754639f, 0.0074181156232953071594f, 0.077038228511810302734f},
  {0.017016710713505744934f, -0.13799922168254852295f, -0.039375323802232742310f, -0.099000118672847747803f, -0.022187117487192153931f, -0.038970660418272018433f, 0.14266991615295410156f, -0.16512989997863769531f, -0.10381066799163818359f, -0.024517387151718139648f, -0.00044614064972847700119f, 0.12690229713916778564f, 0.11033089458942413330f, -0.071742825210094451904f, 0.025569984689354896545f, -0.013901336118578910828f, 0.020745556801557540894f, 0.063492782413959503174f, -0.067233964800834655762f, 0.096261456608772277832f, 0.085475645959377288818f, 0.0040606237016618251801f, -0.011372812092304229736f, -0.087922394275665283203f, -0.034934166818857192993f, 0.19808922708034515381f, -0.093890734016895294189f, 0.13637030124664306641f, 0.024722848087549209595f, -0.070507623255252838135f, -0.039558541029691696167f, -0.014140225015580654144f, -0.073461718857288360596f, 0.075991779565811157227f, 0.0079406797885894775391f, 0.024134226143360137939f, 0.090093612670898437500f, -0.046480819582939147949f, 0.018083561211824417114f, 0.011506886221468448639f, 0.018255505710840225220f, -0.069584690034389495850f, 0.034833505749702453613f, -0.0022746773902326822281f, 0.060310013592243194580f, -0.062573745846748352051f, 0.043721750378608703613f, -0.051824960857629776001f, 0.052267752587795257568f, 0.12237323075532913208f, -0.071682885289192199707f, 0.073101371526718139648f, -0.023187309503555297852f, 0.057145297527313232422f, 0.11527233570814132690f, 0.10452199727296829224f, -0.14988496899604797363f, -0.14061102271080017090f, 0.021986253559589385986f, 0.13421851396560668945f, 0.0046816603280603885651f, -0.047504238784313201904f, -0.053122639656066894531f, -0.035587664693593978882f, 0.0058591803535819053650f, 0.094859480857849121094f, 0.046525999903678894043f, 0.022140061482787132263f, 0.092852532863616943359f, 0.054339766502380371094f, 0.092218399047851562500f, 0.0083887027576565742493f},
  {-0.039347175508737564087f, -0.077472008764743804932f, -0.073888398706912994385f, 0.011381832882761955261f, -0.48928466439247131348f, -0.012672854587435722351f, 0.039819952100515365601f, -0.0014013993786647915840f, 0.12345149368047714233f, 0.27921459078788757324f, -0.59550023078918457031f, -0.26684868335723876953f, 0.048519387841224670410f, 0.10830717533826828003f, 0.14492666721343994141f, -0.62643164396286010742f, -0.0081354463472962379456f, -0.24086052179336547852f, -0.090351492166519165039f, -0.14975656569004058838f, 0.19976674020290374756f, -0.18817558884620666504f, -0.056223858147859573364f, 0.0076768747530877590179f, -0.081382982432842254639f, -0.092100389301776885986f, 0.19823114573955535889f, -0.28088846802711486816f, -0.018419511616230010986f, -0.14004270732402801514f, -0.030719799920916557312f, 0.31186509132385253906f, -0.20545576512813568115f, -0.20813152194023132324f, -0.074520446360111236572f, -0.35543900728225708008f, 0.11166860163211822510f, 0.11699998378753662109f, 0.12537474930286407471f, -0.21013911068439483643f, 0.14650265872478485107f, 0.29108256101608276367f, 0.040038648992776870728f, -0.089490182697772979736f, 0.39497247338294982910f, 0.095642067492008209229f, 0.33402070403099060059f, 0.048950631171464920044f, 0.15858653187751770020f, 0.060608237981796264648f, 0.077186599373817443848f, -0.15229938924312591553f, 0.0028924106154590845108f, 0.073528923094272613525f, -0.047265328466892242432f, 0.082922667264938354492f, -0.00060599012067541480064f, 0.11041688174009323120f, 0.056225333362817764282f, 0.037650179117918014526f, 0.45462697744369506836f, -0.029582934454083442688f, 0.25560945272445678711f, 0.38071736693382263184f, -0.085827037692070007324f, -0.071005746722221374512f, -0.13358770310878753662f, 0.13626462221145629883f, -0.28056588768959045410f, 0.013950963504612445831f, 0.17200368642807006836f, 0.092863567173480987549f},
  {0.39492586255073547363f, -0.015355874784290790558f, 0.064920693635940551758f, 0.071278005838394165039f, -0.14612466096878051758f, 0.034652754664421081543f, -0.045552436262369155884f, -0.063098542392253875732f, 0.13343399763107299805f, -0.12814292311668395996f, -0.0027387014124542474747f, 0.19085390865802764893f, -0.071473695337772369385f, -0.014644459821283817291f, -0.68816900253295898438f, -0.10815329849720001221f, 0.29457926750183105469f, 0.52560520172119140625f, 0.056132145226001739502f, -0.064349293708801269531f, -0.10485792160034179688f, 0.12389205396175384521f, -0.10178772360086441040f, -0.15872348845005035400f, 0.37983980774879455566f, 0.021141245961189270020f, 0.0080543607473373413086f, 0.18513597548007965088f, -0.22480930387973785400f, 0.18729446828365325928f, 0.19857071340084075928f, -0.22190834581851959229f, 0.062942743301391601562f, -0.050679970532655715942f, -0.068264208734035491943f, -0.18369561433792114258f, -0.045042943209409713745f, 0.030097929760813713074f, -0.18792189657688140869f, -0.31920582056045532227f, 0.017849827185273170471f, -0.42084658145904541016f, -0.0095082530751824378967f, 0.20193408429622650146f, -0.058674540370702743530f, -0.15006165206432342529f, 0.20447789132595062256f, 0.040905185043811798096f, -0.11626780778169631958f, -0.013833168894052505493f, -0.18490098416805267334f, 0.26230463385581970215f, 0.055635284632444381714f, -0.055368069559335708618f, 0.30755323171615600586f, 0.019495882093906402588f, 0.0032498803921043872833f, 0.036603923887014389038f, 0.11479733884334564209f, 0.089495182037353515625f, -0.29673522710800170898f, 0.022954938933253288269f, -0.092487208545207977295f, 0.049914095550775527954f, 0.17254495620727539062f, -0.24930322170257568359f, 0.038185406476259231567f, 0.058910280466079711914f, 0.18814562261104583740f, 0.18661776185035705566f, -0.063235402107238769531f, 0.31882137060165405273f},
  {0.10997908562421798706f, -0.13987763226032257080f, -0.0036858380772173404694f, -0.10218418389558792114f, 0.047450061887502670288f, -0.033346228301525115967f, -0.020020591095089912415f, -0.053306195884943008423f, -0.13635535538196563721f, 0.059315603226423263550f, 0.052178617566823959351f, 0.038009043782949447632f, -0.12122306227684020996f, -0.068596065044403076172f, -0.077341452240943908691f, -0.019050111994147300720f, 0.00012745372077915817499f, 0.014934300445020198822f, -0.0035029924474656581879f, 0.036423433572053909302f, 0.12937471270561218262f, -0.15088178217411041260f, -0.036540240049362182617f, -0.089899450540542602539f, -0.038333293050527572632f, 0.18166707456111907959f, 0.089299529790878295898f, 0.026171769946813583374f, -0.043486814945936203003f, 0.040637608617544174194f, -0.13109119236469268799f, 0.028386907652020454407f, -0.062038697302341461182f, 0.081798538565635681152f, -0.040092386305332183838f, 0.040495615452527999878f, 0.11515787988901138306f, 0.10820434242486953735f, 0.19978779554367065430f, 0.046982795000076293945f, -0.11431811749935150146f, 0.025276767089962959290f, -0.010574399493634700775f, -0.16487222909927368164f, 0.013729706406593322754f, -0.037099942564964294434f, 0.057931970804929733276f, -0.18579880893230438232f, 0.035112109035253524780f, 0.16657063364982604980f, 0.048946518450975418091f, 0.052146572619676589966f, 0.014599698595702648163f, 0.097959324717521667480f, -0.017197746783494949341f, -0.11829927563667297363f, -0.12487174570560455322f, -0.12962715327739715576f, 0.041044130921363830566f, 0.11510538309812545776f, -0.044549368321895599365f, -0.16217830777168273926f, -0.054272364825010299683f, -0.030711002647876739502f, -0.035006012767553329468f, 0.16701078414916992188f, -0.13524149358272552490f, 0.078777104616165161133f, 0.29975128173828125000f, -0.047024514526128768921f, 0.11438313871622085571f, -6.8246314185671508312e-05f}
};
static const float tensor_features_5_conv_5_fc_0_bias[24] = 
{0.094581313431262969971f, -0.091810464859008789062f, -0.20195911824703216553f, -0.28771984577178955078f, -0.27434456348419189453f, 0.57806229591369628906f, -0.27150657773017883301f, -0.14861464500427246094f, -0.24357616901397705078f, -0.18586468696594238281f, -0.31237781047821044922f, -0.29909265041351318359f, -0.29956790804862976074f, -0.23065496981143951416f, -0.23828829824924468994f, -0.29348349571228027344f, 0.011094702407717704773f, -0.29783943295478820801f, -0.31330296397209167480f, -0.34454515576362609863f, -0.29797005653381347656f, 0.097491219639778137207f, -0.077613823115825653076f, -0.37164136767387390137f};
static const float tensor_features_5_conv_5_fc_2_weight[72][24] = 
{
  {0.25192585587501525879f, 0.032143563032150268555f, 0.16295430064201354980f, 0.14043335616588592529f, -0.19271580874919891357f, 0.17457059025764465332f, 0.11667629331350326538f, 0.018965791910886764526f, -0.014430176466703414917f, 0.061369646340608596802f, -0.13966430723667144775f, 0.020330185070633888245f, -0.28178086876869201660f, -0.099171712994575500488f, -0.13317126035690307617f, 0.099654391407966613770f, 0.17324572801589965820f, -0.068881243467330932617f, 0.0063882200047373771667f, -0.21917316317558288574f, -0.099617995321750640869f, 0.37678280472755432129f, -0.15548633038997650146f, -0.14370389282703399658f},
  {0.10759042203426361084f, 0.19048641622066497803f, 0.15564039349555969238f, -0.0057855914346873760223f, 0.030618496239185333252f, 0.34999191761016845703f, 0.26125377416610717773f, -0.062845878303050994873f, -0.10260231047868728638f, -0.011766986921429634094f, -0.061775155365467071533f, 0.098733991384506225586f, 0.093848116695880889893f, -0.040325924754142761230f, 0.0078502018004655838013f, -0.020051790401339530945f, -0.038919854909181594849f, 0.070739164948463439941f, 0.10051494836807250977f, -0.066731840372085571289f, 0.040322717279195785522f, 0.14673162996768951416f, -0.078443050384521484375f, -0.041360326111316680908f},
  {-0.14586631953716278076f, 0.13323976099491119385f, 0.089756220579147338867f, -0.012855270877480506897f, 0.021715730428695678711f, -0.073194846510887145996f, -0.065152585506439208984f, 0.072189241647720336914f, 0.043260481208562850952f, 0.051775667816400527954f, -0.11338815838098526001f, -0.049898847937583923340f, -0.11482315510511398315f, -0.057789340615272521973f, 0.10804101824760437012f, 0.0027777235954999923706f, -0.063346423208713531494f, 0.12785650789737701416f, -0.0027489520143717527390f, -0.044262561947107315063f, -0.081955708563327789307f, -0.19753338396549224854f, 0.047365922480821609497f, -0.090943738818168640137f},
  {0.14314942061901092529f, 0.044151592999696731567f, -0.28260508179664611816f, 0.096943147480487823486f, -0.021916892379522323608f, 0.0069452826865017414093f, 0.0075033227913081645966f, 0.048419971019029617310f, 0.021098976954817771912f, -0.15976876020431518555f, 0.19281812012195587158f, -0.078851692378520965576f, 0.079942211508750915527f, 0.10674911737442016602f, -0.041853021830320358276f, -0.033394493162631988525f, -0.11805654317140579224f, 0.056992750614881515503f, 0.037507902830839157104f, -0.022835839539766311646f, -0.021655129268765449524f, 0.16537046432495117188f, 0.10990875959396362305f, 0.20333495736122131348f},
  {0.068216614425182342529f, -0.066284574568271636963f, -0.036834858357906341553f, -0.054024849086999893188f, 0.15978495776653289795f, 0.17343953251838684082f, -0.018446013331413269043f, -0.0088571310043334960938f, 0.020134128630161285400f, 0.17805817723274230957f, 0.089497335255146026611f, -0.051613565534353256226f, -0.090235553681850433350f, 0.028478024527430534363f, 0.029575435444712638855f, 0.065324410796165466309f, 0.082538999617099761963f, 0.075859136879444122314f, 0.10928250849246978760f, 0.033796608448028564453f, 0.061793331056833267212f, 0.18382760882377624512f, 0.13372738659381866455f, -0.0089778052642941474915f},
  {0.41177350282669067383f, 0.23323029279708862305f, 0.13695985078811645508f, 0.038362920284271240234f, -0.12409471720457077026f, 0.057677231729030609131f, 0.36644119024276733398f, 0.032324958592653274536f, 0.087163269519805908203f, 0.11701319366693496704f, -0.075267300009727478027f, 0.13444371521472930908f, -0.10308682918548583984f, -0.048506997525691986084f, -0.073016941547393798828f, 0.034471154212951660156f, 0.18738602101802825928f, -0.017749154940247535706f, -0.20365403592586517334f, -0.0050179446116089820862f, -0.0067522246390581130981f, -0.11546713113784790039f, 0.44061216711997985840f, -0.017118094488978385925f},
  {0.037609290331602096558f, -0.047342259436845779419f, -0.034515760838985443115f, -0.057042658329010009766f, -0.026995263993740081787f, -0.00029991866904310882092f, -0.097350426018238067627f, -0.031325694173574447632f, 0.13867396116256713867f, -0.075714051723480224609f, -0.15524941682815551758f, -0.034710116684436798096f, 0.012675118632614612579f, -0.040540762245655059814f, -0.052429590374231338501f, 0.047249041497707366943f, -0.076383173465728759766f, 0.039190590381622314453f, -0.10315693914890289307f, -0.041016291826963424683f, 0.030983788892626762390f, 0.11626929044723510742f, -0.099222525954246520996f, -0.010773949325084686279f},
  {0.012757384218275547028f, 0.047231953591108322144f, -0.20921781659126281738f, -0.020955858752131462097f, 0.14838662743568420410f, -0.077059932053089141846f, 0.032376676797866821289f, 0.046490889042615890503f, -0.081106774508953094482f, -0.090082414448261260986f, 0.036690264940261840820f, 0.088698633015155792236f, 0.24330955743789672852f, -0.0056013562716543674469f, -0.034917965531349182129f, -0.10187660157680511475f, -0.11138981580734252930f, 0.089852698147296905518f, 0.0020538703538477420807f, 0.16642966866493225098f, -0.059445187449455261230f, 0.15181586146354675293f, 0.017355417832732200623f, 0.016955096274614334106f},
  {-0.11055143177509307861f, 0.079143680632114410400f, 0.045093275606632232666f, 0.18346358835697174072f, -0.030574386939406394958f, 0.029988333582878112793f, -0.039404209703207015991f, -0.010519976727664470673f, -0.13911357522010803223f, 0.043855719268321990967f, 0.094329901039600372314f, 0.084933422505855560303f, -0.099183902144432067871f, 0.0026837915647774934769f, 0.10699973255395889282f, -0.044802688062191009521f, 0.15119947493076324463f, -0.025363067165017127991f, 0.0026930184103548526764f, 0.13712991774082183838f, 0.030374597758054733276f, -0.13645498454570770264f, -0.018072402104735374451f, -0.25261262059211730957f},
  {0.11701489239931106567f, 0.29988679289817810059f, -0.12145503610372543335f, 0.059730138629674911499f, 0.030151782557368278503f, 0.21322590112686157227f, 0.0069000069051980972290f, 0.022411419078707695007f, -0.10523334890604019165f, 0.061303254216909408569f, -0.23740144073963165283f, -0.062152557075023651123f, -0.14355075359344482422f, 0.012595959939062595367f, -0.0013999236980453133583f, -0.0076590492390096187592f, 0.064262896776199340820f, -0.021528724581003189087f, 0.10265249013900756836f, -0.10423994809389114380f, -0.039449788630008697510f, -0.044212680310010910034f, 0.0013811879325658082962f, 0.012686597183346748352f},
  {-0.46349561214447021484f, -0.44054552912712097168f, -0.35586011409759521484f, 0.10123196989297866821f, -0.11650850623846054077f, -0.31743490695953369141f, -0.10282977670431137085f, -0.040662333369255065918f, -0.086951412260532379150f, -0.35389521718025207520f, 0.016372188925743103027f, 0.049202810972929000854f, -0.079205259680747985840f, 0.022264163941144943237f, -0.039986282587051391602f, 0.077130660414695739746f, -0.33066284656524658203f, 0.0084366584196686744690f, -0.10691387206315994263f, -0.055040087550878524780f, -0.091540917754173278809f, -0.13585560023784637451f, -0.52669763565063476562f, -0.057984840124845504761f},
  {-0.25333592295646667480f, 0.076137319207191467285f, 0.11239166557788848877f, 0.099929094314575195312f, 0.14592316746711730957f, -0.061283681541681289673f, -0.14890784025192260742f, -0.0042024087160825729370f, -0.015415146946907043457f, 0.10408550500869750977f, 0.095779001712799072266f, 0.16115398705005645752f, -0.10695800930261611938f, 0.00032275545527227222919f, 0.055638000369071960449f, -0.16651849448680877686f, 0.074893116950988769531f, 0.051297746598720550537f, 0.085942357778549194336f, 0.048436410725116729736f, 0.045800212770700454712f, -0.22418740391731262207f, -0.18725302815437316895f, 0.011279286816716194153f},
  {0.23222260177135467529f, 0.43561092019081115723f, 0.011281676590442657471f, 0.10863191634416580200f, 0.036692582070827484131f, 0.090543121099472045898f, -0.099247626960277557373f, 0.0028267246671020984650f, 0.11039827018976211548f, -0.11847662925720214844f, -0.13017299771308898926f, -0.069032974541187286377f, -0.054548040032386779785f, -0.029164284467697143555f, -0.061507932841777801514f, -0.062567651271820068359f, -0.11887258291244506836f, -0.053158663213253021240f, -0.24897785484790802002f, -0.037679478526115417480f, -0.10039434581995010376f, -0.53675532341003417969f, 0.38820958137512207031f, -0.018432991579174995422f},
  {-0.043583177030086517334f, 0.049148619174957275391f, 0.017502788454294204712f, -0.047148890793323516846f, -0.090369142591953277588f, -0.17599916458129882812f, -0.24398897588253021240f, -0.026571271941065788269f, -0.10388959944248199463f, 0.11381401866674423218f, -0.27134382724761962891f, -0.13063798844814300537f, -0.063112162053585052490f, 0.040475994348526000977f, -0.046351358294486999512f, -0.011183056049048900604f, 0.14192134141921997070f, 0.039205316454172134399f, -0.21826711297035217285f, -0.16944925487041473389f, 0.040415052324533462524f, 0.24892041087150573730f, -0.060548435896635055542f, -0.14152081310749053955f},
  {0.13009724020957946777f, -0.29839411377906799316f, 0.082905493676662445068f, 0.079232156276702880859f, 0.10097735375165939331f, 0.30941155552864074707f, -0.12595602869987487793f, -0.019800912588834762573f, -0.049885883927345275879f, 0.23264105618000030518f, -0.014974665828049182892f, -0.015034885145723819733f, -0.042874306440353393555f, -0.091918729245662689209f, 0.046326816082000732422f, 0.00013001965999137610197f, 0.26478597521781921387f, -0.039484027773141860962f, -0.070390120148658752441f, -0.041034430265426635742f, -0.12994192540645599365f, 0.10562805086374282837f, -0.26544302701950073242f, -0.019390629604458808899f},
  {-0.13475939631462097168f, -0.40445411205291748047f, -0.047906715422868728638f, 0.073656767606735229492f, 0.087772540748119354248f, -0.024721523746848106384f, 0.13534586131572723389f, 0.015930632129311561584f, -0.016940588131546974182f, -0.11308835446834564209f, 0.087898708879947662354f, 0.033199228346347808838f, 0.13294044137001037598f, -0.021385403349995613098f, -0.014917446300387382507f, -0.12616941332817077637f, -0.12462069094181060791f, -0.051895249634981155396f, 0.12662723660469055176f, 0.046993397176265716553f, -0.14272513985633850098f, -0.023945542052388191223f, -0.14687485992908477783f, -0.036322355270385742188f},
  {0.36376741528511047363f, 0.050741974264383316040f, 0.30963993072509765625f, 0.0015985154313966631889f, 0.018310202285647392273f, 0.29968082904815673828f, 0.12333696335554122925f, 0.0094637433066964149475f, 0.13814316689968109131f, 0.38707247376441955566f, 0.16695308685302734375f, -0.10041886568069458008f, 0.14221726357936859131f, -0.062218725681304931641f, 0.095572002232074737549f, -0.12610985338687896729f, 0.40903010964393615723f, -0.062994234263896942139f, 0.037143759429454803467f, 0.025605469942092895508f, -0.064297318458557128906f, 0.52095091342926025391f, -0.075081668794155120850f, -0.080080568790435791016f},
  {0.14834874868392944336f, -0.019405649974942207336f, 0.17476229369640350342f, -0.11228953301906585693f, 0.010974637232720851898f, -0.050017725676298141479f, -0.070856600999832153320f, 0.0012649020645767450333f, -0.016870837658643722534f, 0.076295651495456695557f, -0.048858162015676498413f, 0.13639213144779205322f, -0.0038196884561330080032f, 0.10524118691682815552f, -0.041638907045125961304f, 0.010366827249526977539f, 0.043346695601940155029f, 0.029705440625548362732f, 0.10631506145000457764f, 0.082096047699451446533f, 0.12575423717498779297f, -0.035440865904092788696f, -0.046336330473423004150f, -0.12258089333772659302f},
  {-0.065340250730514526367f, 0.028624534606933593750f, 0.047284986823797225952f, 0.069949232041835784912f, 0.16355590522289276123f, 0.090314060449600219727f, 0.038957539945840835571f, 0.057165525853633880615f, 0.13356694579124450684f, 0.10303271561861038208f, 0.19601966440677642822f, -0.071082144975662231445f, -0.17946337163448333740f, -0.015005792491137981415f, 0.065634198486804962158f, 0.012080871500074863434f, 0.22500358521938323975f, -0.080678872764110565186f, 0.23421648144721984863f, 0.10316102951765060425f, -0.12961335480213165283f, 0.11946041136980056763f, 0.088427416980266571045f, 0.042283531278371810913f},
  {-0.11749490350484848022f, -0.076539359986782073975f, 0.037000980228185653687f, -0.055885992944240570068f, -0.045729152858257293701f, -0.48281443119049072266f, -0.062354389578104019165f, -0.047962822020053863525f, -0.14410772919654846191f, 0.029924552887678146362f, 0.099150151014328002930f, -0.015002557076513767242f, -0.027882091701030731201f, -0.0084901778027415275574f, 0.016046602278947830200f, -0.061589203774929046631f, -0.18124489486217498779f, 0.079748392105102539062f, -0.12523627281188964844f, -0.069404289126396179199f, -0.0014227346982806921005f, 0.17762288451194763184f, 0.040696751326322555542f, -0.047576222568750381470f},
  {0.13214106857776641846f, -0.14174142479896545410f, 0.12306147068738937378f, 0.043007183820009231567f, 0.20822791755199432373f, -0.019292404875159263611f, -0.23147949576377868652f, -0.052581530064344406128f, -0.085661023855209350586f, 0.24324521422386169434f, -0.21054376661777496338f, -0.066712871193885803223f, 0.041232202202081680298f, 0.044598251581192016602f, -0.029913708567619323730f, -0.14684642851352691650f, 0.23965024948120117188f, 0.052053004503250122070f, 0.051182869821786880493f, -0.019269207492470741272f, -0.076763927936553955078f, -0.029898608103394508362f, 0.079344496130943298340f, 0.073468387126922607422f},
  {0.17334342002868652344f, -0.19158445298671722412f, 0.042222917079925537109f, -0.037648510187864303589f, -0.14147873222827911377f, 0.12434674054384231567f, -0.25382080674171447754f, 0.064241193234920501709f, -0.028840521350502967834f, -0.033776219934225082397f, 0.21423935890197753906f, -0.17527827620506286621f, -0.057278566062450408936f, -0.054658155888319015503f, 0.097804844379425048828f, 0.20296216011047363281f, 0.0098332744091749191284f, -0.0046298741362988948822f, -0.053576920181512832642f, 0.080660574138164520264f, -0.010050125420093536377f, 0.40522179007530212402f, -0.36106744408607482910f, -0.060130551457405090332f},
  {-0.17708800733089447021f, 0.23522280156612396240f, 0.014823758043348789215f, -0.076857969164848327637f, -0.025790775194764137268f, -0.28697708249092102051f, -0.14565362036228179932f, -0.039395797997713088989f, -0.0042522004805505275726f, -0.011737663298845291138f, -0.16129070520401000977f, 0.019453151151537895203f, -0.085003778338432312012f, 0.015782555565237998962f, -0.074752435088157653809f, -0.20225597918033599854f, -0.056561700999736785889f, -0.051980845630168914795f, -0.021431023254990577698f, -0.11699774861335754395f, 0.00071318272966891527176f, 0.054787967354059219360f, 0.25656715035438537598f, 0.038633488118648529053f},
  {0.19807001948356628418f, 0.34171560406684875488f, -0.045628663152456283569f, 0.11651452630758285522f, 0.071997731924057006836f, -0.22790417075157165527f, -0.13765339553356170654f, -0.021692899987101554871f, 0.020494878292083740234f, -0.20864336192607879639f, -0.042261749505996704102f, 0.017296930775046348572f, 0.12621094286441802979f, 0.0027153796982020139694f, 0.067282736301422119141f, -0.12718145549297332764f, -0.16489428281784057617f, 0.049640338867902755737f, -0.058650460094213485718f, -0.063900701701641082764f, -0.031346313655376434326f, -0.31087070703506469727f, 0.51474791765213012695f, 0.090196780860424041748f},
  {0.049078453332185745239f, -0.14767774939537048340f, -0.070447631180286407471f, 0.10841561853885650635f, 0.16073177754878997803f, 0.084290146827697753906f, -0.14416898787021636963f, -0.024852527305483818054f, -0.077062562108039855957f, 0.084816113114356994629f, 0.16967888176441192627f, -0.047217965126037597656f, 0.32462897896766662598f, -0.034402675926685333252f, 0.0030007089953869581223f, -0.082590267062187194824f, 0.080089293420314788818f, 0.065926343202590942383f, -0.025398649275302886963f, 0.081304177641868591309f, 0.035286001861095428467f, 0.46170195937156677246f, -0.28974440693855285645f, -0.0012940403539687395096f},
  {0.059075016528367996216f, -0.17021301388740539551f, -0.095430292189121246338f, -0.069813251495361328125f, -0.022747004404664039612f, 0.073039978742599487305f, 0.077476985752582550049f, 0.016236271709203720093f, 0.17716005444526672363f, -0.096059367060661315918f, 0.15228560566902160645f, -0.036075714975595474243f, -0.13348926603794097900f, -0.029395526275038719177f, -0.078584194183349609375f, -0.14780151844024658203f, -0.041932731866836547852f, 0.068250104784965515137f, -0.053574576973915100098f, -0.13367766141891479492f, 0.073511883616447448730f, 0.044435683637857437134f, -0.17452837526798248291f, -0.037559852004051208496f},
  {0.0042958473786711692810f, -0.019673202186822891235f, -0.050702933222055435181f, 0.033149957656860351562f, 0.033334001898765563965f, -0.22750639915466308594f, -0.12121462076902389526f, 0.016916688531637191772f, 0.15905056893825531006f, 0.0012139382306486368179f, -0.12341491878032684326f, -0.017151959240436553955f, -0.21710009872913360596f, 0.037571884691715240479f, 0.12146170437335968018f, 0.10214518010616302490f, 0.094600729644298553467f, 0.0026766518130898475647f, -0.087253712117671966553f, -0.042452972382307052612f, -0.099760361015796661377f, -0.12604287266731262207f, -0.041437897831201553345f, -0.014075229875743389130f},
  {0.12047471106052398682f, -0.17815974354743957520f, 0.093675509095191955566f, -0.045174952596426010132f, 0.095542818307876586914f, 0.24229922890663146973f, 0.026935216039419174194f, -0.025646191090345382690f, -0.14404651522636413574f, 0.18464578688144683838f, -0.29031217098236083984f, 0.074885271489620208740f, -0.026552876457571983337f, -0.082003287971019744873f, -0.13278427720069885254f, -0.084887579083442687988f, 0.066125750541687011719f, -0.077845528721809387207f, -0.21655948460102081299f, -0.10457499325275421143f, 0.064034953713417053223f, -0.21508155763149261475f, 0.079685635864734649658f, 0.0066659715957939624786f},
  {-0.26381170749664306641f, -0.034297060221433639526f, -0.14037059247493743896f, 0.080052278935909271240f, 0.10342295467853546143f, -0.024003412574529647827f, 0.070651009678840637207f, -0.056939873844385147095f, 0.10379061102867126465f, -0.34345754981040954590f, 0.14716340601444244385f, 0.055967118591070175171f, 0.11586999148130416870f, 0.097718261182308197021f, 0.10181110352277755737f, 0.20761300623416900635f, -0.23164303600788116455f, -0.079547628760337829590f, 0.21236602962017059326f, 0.12426596879959106445f, 0.053042147308588027954f, 0.048188816756010055542f, -0.18106000125408172607f, -0.048298701643943786621f},
  {-0.0086296275258064270020f, -0.13435156643390655518f, -0.24261508882045745850f, 0.056941669434309005737f, -0.063401341438293457031f, 0.20378822088241577148f, 0.063521288335323333740f, -0.019018957391381263733f, -0.060838855803012847900f, -0.29056939482688903809f, 0.048534821718931198120f, 0.11747366189956665039f, -0.024701885879039764404f, 0.0037204967811703681946f, -0.089314356446266174316f, 0.13719169795513153076f, -0.22125460207462310791f, 0.012770642526447772980f, -0.085038170218467712402f, 0.085963979363441467285f, 0.014322403818368911743f, 0.15938474237918853760f, -0.15741913020610809326f, -0.11853915452957153320f},
  {0.014021439477801322937f, 0.020882714539766311646f, -0.017729636281728744507f, 0.020254779607057571411f, 0.12324512004852294922f, 0.39643472433090209961f, -0.14224056899547576904f, -0.019398571923375129700f, 0.066364206373691558838f, 0.033555578440427780151f, 0.075561091303825378418f, 0.054083116352558135986f, -0.12578380107879638672f, 0.087436154484748840332f, 0.0042144679464399814606f, -0.090082846581935882568f, -0.024701094254851341248f, -0.061141777783632278442f, -0.17027470469474792480f, 0.090167395770549774170f, -0.12806862592697143555f, 0.21552394330501556396f, 0.21287442743778228760f, 0.044043570756912231445f},
  {0.12950691580772399902f, 0.12125509977340698242f, 0.013466832228004932404f, 0.044217370450496673584f, 0.085844971239566802979f, -0.35402086377143859863f, -0.045985572040081024170f, 0.020458865910768508911f, 0.010684322565793991089f, 0.025622816756367683411f, -0.055763501673936843872f, 0.036282017827033996582f, 0.20369826257228851318f, 0.069663435220718383789f, -0.11845759302377700806f, 0.0019079464254900813103f, 0.066071785986423492432f, 0.0063450839370489120483f, -0.10001579672098159790f, 0.13629357516765594482f, 0.099526502192020416260f, 0.057482384145259857178f, -0.016478061676025390625f, -0.061836313456296920776f},
  {-0.046090535819530487061f, 0.13870638608932495117f, 0.27036145329475402832f, 0.14144974946975708008f, -0.11745309084653854370f, -0.10563484579324722290f, 0.095688425004482269287f, -0.0036468312609940767288f, 0.011715452186763286591f, 0.19111405313014984131f, -0.16369807720184326172f, -0.028912197798490524292f, -0.10423512011766433716f, 0.033807620406150817871f, 0.055796734988689422607f, 0.25419652462005615234f, 0.29945641756057739258f, -0.022463234141469001770f, 0.31567764282226562500f, 0.096376433968544006348f, 0.073900520801544189453f, 0.29434680938720703125f, -0.068789727985858917236f, 0.070138737559318542480f},
  {-0.12741233408451080322f, 0.051126912236213684082f, -0.034844741225242614746f, -0.090705350041389465332f, -0.036393292248249053955f, 0.24938134849071502686f, -0.016461461782455444336f, -0.044685814529657363892f, 0.10467895120382308960f, -0.13529920578002929688f, -0.12298386543989181519f, -0.070561408996582031250f, 0.055638026446104049683f, -0.062017299234867095947f, -0.13058133423328399658f, 0.062882930040359497070f, -0.0064922128804028034210f, 0.022719509899616241455f, -0.10904183983802795410f, 0.043973807245492935181f, 0.12645305693149566650f, -0.089374333620071411133f, -0.17691904306411743164f, 0.013180602341890335083f},
  {-0.050487682223320007324f, -0.43882504105567932129f, -0.23511308431625366211f, -0.016380764544010162354f, -0.11110353469848632812f, -0.047412004321813583374f, -0.099931083619594573975f, -0.067596621811389923096f, -0.18629993498325347900f, -0.21388985216617584229f, -0.0073615228757262229919f, 0.0077457814477384090424f, 0.13914878666400909424f, 0.094200566411018371582f, -0.021617170423269271851f, 0.034412585198879241943f, -0.28214263916015625000f, 0.071401476860046386719f, -0.15515753626823425293f, -0.15789638459682464600f, 0.070863999426364898682f, -0.27236688137054443359f, -0.091040022671222686768f, -0.030892319977283477783f},
  {0.025275757536292076111f, -0.0028967054095119237900f, 0.072718471288681030273f, 0.0080596432089805603027f, 0.014197938144207000732f, 0.052286349236965179443f, -0.071333490312099456787f, -0.020306427031755447388f, 0.098917052149772644043f, 0.18026876449584960938f, -0.20978723466396331787f, -0.087926670908927917480f, -0.048437234014272689819f, -0.074265711009502410889f, -0.026684051379561424255f, -0.030691673979163169861f, 0.093517176806926727295f, 0.0034694098867475986481f, 0.12865202128887176514f, -0.054784338921308517456f, 0.047288496047258377075f, 0.32493585348129272461f, -0.022791704162955284119f, -0.042789343744516372681f},
  {0.11504451930522918701f, -0.26511400938034057617f, 0.46647861599922180176f, 0.097969084978103637695f, -0.052898280322551727295f, 0.027063397690653800964f, 0.056943774223327636719f, 0.0024274725001305341721f, 0.013478449545800685883f, 0.55650746822357177734f, 0.065705224871635437012f, -0.064575046300888061523f, -0.23332370817661285400f, 0.033700529485940933228f, 0.035826321691274642944f, -0.042463876307010650635f, 0.41334304213523864746f, -0.014186848886311054230f, -0.0083397077396512031555f, -0.045264519751071929932f, 0.025584863498806953430f, 0.19531609117984771729f, -0.26709458231925964355f, -0.096855677664279937744f},
  {-0.22294764220714569092f, 0.00032988016027957201004f, 0.016023304313421249390f, 0.00087571976473554968834f, -0.13977478444576263428f, 0.096083261072635650635f, 0.021393073722720146179f, -0.0019941460341215133667f, -0.010944220237433910370f, -0.061689078807830810547f, -0.13613431155681610107f, 0.00054688140517100691795f, -0.097045719623565673828f, -0.0010527820559218525887f, -0.0038799080066382884979f, -0.17008508741855621338f, -0.026232030242681503296f, -0.061056740581989288330f, -0.0089647127315402030945f, -0.013854295015335083008f, 0.030716694891452789307f, 0.27707725763320922852f, -0.26157855987548828125f, -0.031140830367803573608f},
  {0.19525590538978576660f, -0.055619630962610244751f, 0.022440535947680473328f, -0.0018649662379175424576f, -0.13951930403709411621f, 0.29677084088325500488f, -0.053790140897035598755f, -0.020635163411498069763f, -0.077300794422626495361f, 0.15798704326152801514f, -0.16647095978260040283f, 0.086268916726112365723f, -0.094820201396942138672f, -0.044424049556255340576f, 0.039413254708051681519f, -0.28352132439613342285f, 0.076110601425170898438f, -0.013678167015314102173f, -0.25972214341163635254f, -0.037665016949176788330f, -0.064351193606853485107f, 0.27418658137321472168f, 0.14053653180599212646f, 0.12275159358978271484f},
  {-0.040478769689798355103f, 0.011549713090062141418f, 0.38503342866897583008f, 0.11314397305250167847f, 0.0098811183124780654907f, -0.11110802739858627319f, 0.053868729621171951294f, 0.052853688597679138184f, 0.093816451728343963623f, 0.34139645099639892578f, 0.050056699663400650024f, 0.010215398855507373810f, 0.012260515242815017700f, 0.056503079831600189209f, 0.0023416145704686641693f, 0.054143179208040237427f, 0.30330505967140197754f, 0.084548987448215484619f, 0.073882713913917541504f, -0.096921414136886596680f, 0.0053225061856210231781f, 0.17355929315090179443f, -0.11898209154605865479f, 0.091388791799545288086f},
  {0.16993427276611328125f, 0.021645750850439071655f, -0.014482942409813404083f, 0.072395429015159606934f, 0.011893361806869506836f, 0.11961919069290161133f, 0.22864313423633575439f, -0.057341869920492172241f, 0.044186372309923171997f, -0.061300173401832580566f, -0.089021623134613037109f, -0.018386784940958023071f, 0.091304220259189605713f, 0.095696218311786651611f, 0.071684904396533966064f, 0.13001690804958343506f, -0.052117384970188140869f, 0.019383098930120468140f, 0.0039616869762539863586f, 0.024247063323855400085f, 0.040338568389415740967f, -0.12997026741504669189f, 0.053207803517580032349f, 0.13817217946052551270f},
  {-0.13499383628368377686f, 0.17385192215442657471f, -0.025545941665768623352f, 0.12265026569366455078f, -0.093013696372509002686f, -0.036268468946218490601f, -0.10163728892803192139f, 0.024119481444358825684f, -0.049399271607398986816f, 0.078829973936080932617f, -0.0059555708430707454681f, 0.11759803444147109985f, 0.011617877520620822906f, 0.00088186992798000574112f, -0.041886530816555023193f, -0.00020791105634998530149f, 0.19941839575767517090f, -0.035807520151138305664f, 0.0041680890135467052460f, 0.028961943462491035461f, -0.053642492741346359253f, 0.055439803749322891235f, -0.057487670332193374634f, -0.079281523823738098145f},
  {0.12720005214214324951f, -0.22659093141555786133f, 0.13109540939331054688f, -0.031920839101076126099f, 0.11488190293312072754f, -0.014366365037858486176f, -0.10781989246606826782f, 0.025608105584979057312f, 0.025194996967911720276f, 0.18374820053577423096f, 0.095366626977920532227f, -0.080601766705513000488f, -0.27496123313903808594f, 0.025354152545332908630f, 0.068259954452514648438f, 0.10242520272731781006f, 0.097864627838134765625f, -0.013534410856664180756f, 0.16400896012783050537f, 0.019552541896700859070f, -0.0073956991545855998993f, -0.20161509513854980469f, -0.20359423756599426270f, 0.074225760996341705322f},
  {-0.18744570016860961914f, -0.076785303652286529541f, -0.40328311920166015625f, 0.025423482060432434082f, -0.060485649853944778442f, -0.0038533960469067096710f, 0.065154843032360076904f, 0.017995297908782958984f, -0.13015398383140563965f, -0.43046048283576965332f, 0.024767840281128883362f, -0.0054422952234745025635f, -0.039784040302038192749f, -0.013546377420425415039f, -0.037372328341007232666f, -0.059863474220037460327f, -0.48066931962966918945f, 0.053571190685033798218f, -0.040969654917716979980f, -0.10365062952041625977f, -0.016649585217237472534f, -0.23716570436954498291f, 0.29186850786209106445f, -0.059830859303474426270f},
  {0.039281994104385375977f, -0.0067593799903988838196f, -0.14836564660072326660f, 0.050420824438333511353f, -0.010274352505803108215f, -0.0061989268288016319275f, -0.060683093965053558350f, 0.036633480340242385864f, 0.044201396405696868896f, -0.055905345827341079712f, -0.025653384625911712646f, -0.075246535241603851318f, -0.30059379339218139648f, -0.064768493175506591797f, -0.080520018935203552246f, -0.027961470186710357666f, -0.061991415917873382568f, 0.060940306633710861206f, -0.066927306354045867920f, -0.018002126365900039673f, -0.12214938551187515259f, 0.026960723102092742920f, 0.016677021980285644531f, -0.025869362056255340576f},
  {0.29843318462371826172f, 0.19311474263668060303f, -0.22441302239894866943f, -0.038145672529935836792f, -0.031934820115566253662f, 0.16234317421913146973f, 0.040231253951787948608f, 0.043212860822677612305f, -0.035574384033679962158f, -0.15609940886497497559f, 0.0017561146523803472519f, 0.0094556827098131179810f, -0.076816514134407043457f, -0.0015394825022667646408f, -0.11735934764146804810f, 0.12412684410810470581f, -0.076519750058650970459f, 0.095154054462909698486f, -0.044249773025512695312f, 0.11116080731153488159f, 0.087152987718582153320f, -0.062946297228336334229f, 0.23382993042469024658f, -0.21509271860122680664f},
  {0.16659310460090637207f, 0.45706677436828613281f, 0.033870164304971694946f, 0.0042096693068742752075f, 0.073643893003463745117f, 0.19504934549331665039f, -0.054159548133611679077f, 0.034594599157571792603f, 0.20535930991172790527f, 0.091205157339572906494f, 0.024191487580537796021f, 0.021051852032542228699f, 0.019866025075316429138f, 0.040006868541240692139f, 0.015413423068821430206f, 0.12408032268285751343f, 0.14085610210895538330f, 0.034123878926038742065f, 0.088023498654365539551f, 0.13640476763248443604f, -0.047914467751979827881f, 0.19330218434333801270f, 0.25479853153228759766f, 0.15535186231136322021f},
  {0.014737782068550586700f, -0.0021265910472720861435f, 0.020523352548480033875f, 0.089656628668308258057f, -0.048611737787723541260f, -0.013012774288654327393f, 0.029300745576620101929f, -0.0032863710075616836548f, -0.17213334143161773682f, 0.16137686371803283691f, -0.15576152503490447998f, -0.057010337710380554199f, -0.18562497198581695557f, -0.069757997989654541016f, -0.058120675384998321533f, -0.041262459009885787964f, 0.040392406284809112549f, -0.058838415890932083130f, -0.097996421158313751221f, 0.097235023975372314453f, -0.025897741317749023438f, -0.10216702520847320557f, -0.022958619520068168640f, -0.23630923032760620117f},
  {0.17747478187084197998f, 0.18454274535179138184f, 0.17859901487827301025f, 0.066834524273872375488f, 0.021852482110261917114f, 0.49859300255775451660f, 0.040423091500997543335f, 0.086952403187751770020f, -0.0040946565568447113037f, 0.11013932526111602783f, -0.017573770135641098022f, -0.010497110895812511444f, 0.14465819299221038818f, 0.015418697148561477661f, 0.079134330153465270996f, 0.17604254186153411865f, 0.091497011482715606689f, 0.074311994016170501709f, 0.0027978036087006330490f, 0.042930670082569122314f, 0.063893392682075500488f, 0.17204792797565460205f, 0.10905163735151290894f, 0.0077056977897882461548f},
  {-0.20345690846443176270f, -0.20202858746051788330f, 0.079239621758460998535f, -0.0049147997051477432251f, -0.090848058462142944336f, 0.068938046693801879883f, -0.25208011269569396973f, -0.019024219363927841187f, -0.035393327474594116211f, 0.10628493130207061768f, 0.027025066316127777100f, -0.030949376523494720459f, -0.36143034696578979492f, -0.10803505033254623413f, 0.018198223784565925598f, 0.15462450683116912842f, 0.074339821934700012207f, -0.036290317773818969727f, 0.076229229569435119629f, -0.15082213282585144043f, -0.11526925861835479736f, -0.22614006698131561279f, -0.13457632064819335938f, -0.12490715086460113525f},
  {-0.43099626898765563965f, -0.070797532796859741211f, -0.17525397241115570068f, -0.069844700396060943604f, 0.081025384366512298584f, -0.083766490221023559570f, -0.060976393520832061768f, -0.053503729403018951416f, -0.022893685847520828247f, -0.54685485363006591797f, 0.14805994927883148193f, 0.056164603680372238159f, 0.15702980756759643555f, 0.040412187576293945312f, 0.030453411862254142761f, 0.090416319668292999268f, -0.49324822425842285156f, -0.032119538635015487671f, -0.10430827736854553223f, 0.12088159471750259399f, -0.021609148010611534119f, -0.29072761535644531250f, -0.066415034234523773193f, 0.0094230985268950462341f},
  {0.086617901921272277832f, -0.060649476945400238037f, -0.27107477188110351562f, -0.13564698398113250732f, -0.054363444447517395020f, -0.36797106266021728516f, -0.11476774513721466064f, -0.018818598240613937378f, -0.044667404145002365112f, -0.19329868257045745850f, -0.085204072296619415283f, -0.073862381279468536377f, 0.049276970326900482178f, 0.024637669324874877930f, 0.018889153376221656799f, 0.19205045700073242188f, -0.15031948685646057129f, -0.0036722093354910612106f, 0.036876168102025985718f, -0.042525731027126312256f, 0.0074516208842396736145f, 0.13894110918045043945f, 0.052680484950542449951f, -0.058524448424577713013f},
  {-0.075958669185638427734f, -0.051248453557491302490f, 0.15309843420982360840f, -0.023556424304842948914f, 0.0064891315996646881104f, 0.10918769240379333496f, -0.20695105195045471191f, -0.0096761872991919517517f, -0.023059433326125144958f, 0.11344516277313232422f, 0.050445139408111572266f, 0.0018182391067966818810f, -0.14829780161380767822f, -0.022429285570979118347f, 0.047922596335411071777f, -0.069997169077396392822f, 0.17179760336875915527f, -0.086740665137767791748f, 0.14040559530258178711f, -0.097285024821758270264f, 0.035285476595163345337f, -0.12808041274547576904f, 0.10243875533342361450f, 0.019175592809915542603f},
  {-0.22054639458656311035f, 0.12331800907850265503f, -0.12702637910842895508f, -0.0035744134802371263504f, -0.024236544966697692871f, -0.24029035866260528564f, -0.26186019182205200195f, -0.046761047095060348511f, -0.051192060112953186035f, -0.16975696384906768799f, -0.14992544054985046387f, -0.036539666354656219482f, -0.14113683998584747314f, -0.11662799865007400513f, -0.0052627618424594402313f, -0.072588950395584106445f, -0.22398343682289123535f, -0.021303741261363029480f, -0.29866474866867065430f, -0.091374523937702178955f, 0.032329510897397994995f, -0.29432874917984008789f, 0.15729768574237823486f, -0.10185599327087402344f},
  {0.11529911309480667114f, 0.048926409333944320679f, 0.18483987450599670410f, 0.061498802155256271362f, 0.053967699408531188965f, -0.34027090668678283691f, -0.0019113662419840693474f, -0.020565215498208999634f, 0.013065424747765064240f, 0.15839350223541259766f, 0.15331749618053436279f, 0.18240277469158172607f, 0.089841187000274658203f, 0.033229321241378784180f, -0.046677958220243453979f, 0.041339680552482604980f, 0.23638044297695159912f, 0.073776170611381530762f, -0.026884088292717933655f, -0.12673984467983245850f, 0.10533139109611511230f, 0.29885214567184448242f, -0.18724335730075836182f, -0.12324201315641403198f},
  {-0.035628564655780792236f, 0.00067170360125601291656f, 0.017782991752028465271f, 0.013435842469334602356f, -0.029537118971347808838f, -0.061108142137527465820f, -0.029197474941611289978f, -0.035576522350311279297f, 0.072895333170890808105f, -0.13445074856281280518f, -0.16458754241466522217f, -0.010420384816825389862f, 0.16578467190265655518f, 0.064807623624801635742f, -0.0064304466359317302704f, 0.072500780224800109863f, -0.17484100162982940674f, -0.085315026342868804932f, 0.073641516268253326416f, 0.0074736927635967731476f, -0.0051375534385442733765f, -0.035983119159936904907f, -0.038882672786712646484f, 0.0036407266743481159210f},
  {-0.011476562358438968658f, 0.093271017074584960938f, -0.11967953294515609741f, -0.034234084188938140869f, 0.043830290436744689941f, -0.0044369907118380069733f, 0.38614189624786376953f, -0.0097636962309479713440f, 0.075691021978855133057f, -0.094280049204826354980f, -0.0085953939706087112427f, -0.023060413077473640442f, 0.048934593796730041504f, -0.047532036900520324707f, -0.098599664866924285889f, 0.011006997898221015930f, -0.0020754437427967786789f, 0.090915188193321228027f, 0.15212775766849517822f, 0.19297310709953308105f, 0.099891595542430877686f, 0.0015363089041784405708f, 0.14677116274833679199f, -0.085140548646450042725f},
  {0.13655281066894531250f, 0.028097096830606460571f, -0.081628412008285522461f, 0.041882902383804321289f, -0.027068426832556724548f, 0.031073201447725296021f, -0.070134349167346954346f, -0.020519921556115150452f, 0.16335171461105346680f, -0.022082159295678138733f, 0.10093796998262405396f, -0.10151100158691406250f, -0.013364160433411598206f, 0.010816517286002635956f, -0.030682817101478576660f, 0.10545059293508529663f, 0.025619326159358024597f, 0.033022243529558181763f, -0.041571080684661865234f, 0.038090839982032775879f, 0.14014938473701477051f, -0.11507441848516464233f, -0.23314818739891052246f, -0.048340111970901489258f},
  {0.20141024887561798096f, -0.028642537072300910950f, 0.10337918996810913086f, 0.034416705369949340820f, 0.12403569370508193970f, 0.30661559104919433594f, -0.015579235740005970001f, 0.016531946137547492981f, 0.016421115025877952576f, 0.34844693541526794434f, -0.024978941306471824646f, 0.048462200909852981567f, -0.17127750813961029053f, 0.076092772185802459717f, -0.0035540948156267404556f, -0.068277642130851745605f, 0.38581553101539611816f, -0.064713999629020690918f, 0.063415408134460449219f, 0.10639824718236923218f, 0.056150689721107482910f, 0.22058235108852386475f, -0.010615526698529720306f, -0.061706349253654479980f},
  {0.42448329925537109375f, 0.17622280120849609375f, 0.39747098088264465332f, -0.053980927914381027222f, -0.070353485643863677979f, 0.14134958386421203613f, 0.087277837097644805908f, 0.041081227362155914307f, -0.064203724265098571777f, 0.63239830732345581055f, -0.14320634305477142334f, 0.016153540462255477905f, -0.15244884788990020752f, 0.018354889005422592163f, 0.027946962043642997742f, -0.063387684524059295654f, 0.58247458934783935547f, 0.017527183517813682556f, -0.070845693349838256836f, -0.11046172678470611572f, 0.021435158327221870422f, 0.28060132265090942383f, 0.17171031236648559570f, -0.037624321877956390381f},
  {0.13574005663394927979f, 0.14887256920337677002f, 0.027985284104943275452f, -0.10003915429115295410f, -0.083322532474994659424f, 0.52392125129699707031f, 0.055328838527202606201f, 0.0050977729260921478271f, 0.057422626763582229614f, -0.076529361307621002197f, 0.0050593856722116470337f, -0.0075181871652603149414f, -0.047316208481788635254f, -0.0048757842741906642914f, 0.017383644357323646545f, -0.036031607538461685181f, -0.13866902887821197510f, 0.017442137002944946289f, 0.052535660564899444580f, -0.077510081231594085693f, 0.016773112118244171143f, -0.22190123796463012695f, 0.17051210999488830566f, -0.078331053256988525391f},
  {-0.025389552116394042969f, -0.013206146657466888428f, -0.42515847086906433105f, -0.011409852653741836548f, -0.057908359915018081665f, -0.050761148333549499512f, 0.032760195434093475342f, -0.050734069198369979858f, -0.15236245095729827881f, -0.37861555814743041992f, -0.11515196412801742554f, 0.12195374071598052979f, 0.10390244424343109131f, -0.0073777646757662296295f, -0.047398228198289871216f, -0.13650529086589813232f, -0.34784162044525146484f, 0.052002374082803726196f, -0.28013494610786437988f, -0.012839296832680702209f, 0.079632893204689025879f, 0.10290201753377914429f, -0.094918064773082733154f, 0.049202233552932739258f},
  {-0.28817167878150939941f, -0.0050399121828377246857f, -0.40523740649223327637f, 0.064215622842311859131f, 0.012479812838137149811f, -0.47431004047393798828f, -0.21298018097877502441f, -0.036749985069036483765f, -0.10614102333784103394f, -0.26905149221420288086f, -0.076566860079765319824f, -0.11857730895280838013f, 0.037662278860807418823f, -0.0092783039435744285583f, 0.065749734640121459961f, -0.094832152128219604492f, -0.28557664155960083008f, -0.00061936792917549610138f, -0.33131796121597290039f, -0.084761977195739746094f, 0.035205271095037460327f, -0.20841626822948455811f, -0.056380961090326309204f, 0.027973763644695281982f},
  {0.18348306417465209961f, 0.42205488681793212891f, 0.24978260695934295654f, -0.026312962174415588379f, 0.090350285172462463379f, 0.047927886247634887695f, -0.036426719278097152710f, 0.081269755959510803223f, 0.051710523664951324463f, 0.19365398585796356201f, -0.024303531274199485779f, 0.038252443075180053711f, 0.11756354570388793945f, -0.0045905299484729766846f, -0.017478201538324356079f, -0.12305361032485961914f, 0.16964900493621826172f, 0.014073570258915424347f, 0.0032558150123804807663f, 0.070407405495643615723f, 0.0024341843090951442719f, 0.12122054398059844971f, 0.33701890707015991211f, 0.082169771194458007812f},
  {0.22475013136863708496f, 0.018344415351748466492f, 0.18659962713718414307f, 0.049723844975233078003f, -0.12409185618162155151f, 0.17104031145572662354f, 0.074205189943313598633f, 0.028442906215786933899f, -0.098133973777294158936f, 0.38329055905342102051f, -0.19079568982124328613f, -0.0090376092121005058289f, 0.0094036525115370750427f, -0.017408195883035659790f, -0.061373155564069747925f, -0.032975781708955764771f, 0.22395551204681396484f, 0.060762360692024230957f, -0.0057259830646216869354f, -0.026220448315143585205f, -0.046482566744089126587f, 0.054606743156909942627f, 0.21780461072921752930f, -0.035709444433450698853f},
  {-0.25182306766510009766f, 0.0087967580184340476990f, 0.14123882353305816650f, -0.00069800682831555604935f, -0.0040808571502566337585f, -0.12552179396152496338f, -0.11222593486309051514f, -0.074816912412643432617f, -0.15265689790248870850f, 0.12967713177204132080f, 0.020932458341121673584f, -0.0080096945166587829590f, 0.065556384623050689697f, -0.032530136406421661377f, 0.013936911709606647491f, 0.028052723035216331482f, 0.10309337079524993896f, 0.071926057338714599609f, -0.034481000155210494995f, 0.062767215073108673096f, 0.038203999400138854980f, 0.059101540595293045044f, -0.28809309005737304688f, 0.041309040039777755737f},
  {0.054624825716018676758f, -0.27142810821533203125f, 0.28062945604324340820f, -0.075994230806827545166f, -0.063322901725769042969f, 0.25532868504524230957f, -0.013658152893185615540f, -0.066194407641887664795f, 0.14157481491565704346f, 0.34141346812248229980f, 0.25931322574615478516f, -0.0067249992862343788147f, 0.042051479220390319824f, 0.013009198009967803955f, -0.0066489800810813903809f, 0.074456140398979187012f, 0.36824893951416015625f, 0.049369327723979949951f, 0.0022147602867335081100f, -0.069937482476234436035f, 0.017892232164740562439f, -0.015549915842711925507f, -0.29037764668464660645f, 0.053428065031766891479f},
  {0.097098559141159057617f, -0.057859968394041061401f, 0.21945582330226898193f, 0.018004857003688812256f, 0.096825905144214630127f, 0.0051271920092403888702f, 0.20679664611816406250f, -0.053593970835208892822f, -0.066384144127368927002f, 0.033904906362295150757f, 0.0083892950788140296936f, -0.040231417864561080933f, -0.15533064305782318115f, -0.066888093948364257812f, -0.065538831055164337158f, 0.063732959330081939697f, 0.092009954154491424561f, -0.034309383481740951538f, 0.19632442295551300049f, -0.098618708550930023193f, -0.033626001328229904175f, 0.074648886919021606445f, -0.046070441603660583496f, 0.021721895784139633179f},
  {-0.022882493212819099426f, 0.086873136460781097412f, 0.079642377793788909912f, 0.035167902708053588867f, -0.018510401248931884766f, 0.075648672878742218018f, 0.21714368462562561035f, 0.0057742707431316375732f, -0.18154259026050567627f, -0.0050258156843483448029f, -0.016270769760012626648f, 0.028609996661543846130f, -0.021714579313993453979f, 0.052150379866361618042f, 0.042740147560834884644f, 0.072446376085281372070f, -0.13282167911529541016f, -0.042358085513114929199f, -0.0043657338246703147888f, -0.032476600259542465210f, -0.091704882681369781494f, -0.33613708615303039551f, 0.00014232427929528057575f, -0.14290320873260498047f},
  {0.076793223619461059570f, 0.024815266951918601990f, -0.046305019408464431763f, -0.079121239483356475830f, -0.056955613195896148682f, -0.17814579606056213379f, -0.054034084081649780273f, 0.017557075247168540955f, -0.0096969725564122200012f, -0.00034842218155972659588f, -0.046746611595153808594f, 0.023304102942347526550f, -0.042328853160142898560f, 0.083015426993370056152f, -0.097756311297416687012f, 0.0090601379051804542542f, -0.057528492063283920288f, 0.057937279343605041504f, -0.062997013330459594727f, -0.064831353724002838135f, 0.010926430113613605499f, -0.16229555010795593262f, 0.034101776778697967529f, -0.18270528316497802734f},
  {-0.16751301288604736328f, -0.061483658850193023682f, -0.31627607345581054688f, -0.12528428435325622559f, -0.18021900951862335205f, -0.081324443221092224121f, 0.012508669868111610413f, -0.028548717498779296875f, -0.15269309282302856445f, -0.19418466091156005859f, 0.18890674412250518799f, -0.035281065851449966431f, -0.12925554811954498291f, -0.14337030053138732910f, 0.0046698502264916896820f, -0.25213038921356201172f, -0.18423239886760711670f, 0.10251874476671218872f, 0.037860848009586334229f, -0.014591119252145290375f, -0.0049589825794100761414f, -0.10822428762912750244f, 0.058994971215724945068f, -0.18411022424697875977f},
  {-0.11226730793714523315f, 0.14130742847919464111f, -0.015876028686761856079f, 0.0058716442435979843140f, -0.021141314879059791565f, -0.19153659045696258545f, -0.050218325108289718628f, 0.033183138817548751831f, -0.042054269462823867798f, 0.026908999308943748474f, -0.10835601389408111572f, -0.058980457484722137451f, -0.011556888930499553680f, 0.057847466319799423218f, -0.0014757709577679634094f, -0.065464526414871215820f, 0.039867609739303588867f, -0.059540547430515289307f, -0.12942965328693389893f, 0.16971580684185028076f, 0.045934896916151046753f, -0.023677948862314224243f, 0.048968866467475891113f, 0.10677386075258255005f}
};
static const float tensor_features_5_conv_5_fc_2_bias[72] = 
{0.54036587476730346680f, 0.31501823663711547852f, -0.30359980463981628418f, 0.10752038657665252686f, 0.43879473209381103516f, 0.064686983823776245117f, 0.096564084291458129883f, 0.062908709049224853516f, -0.037883289158344268799f, 0.32215666770935058594f, -0.25615000724792480469f, 0.17635048925876617432f, 0.18969054520130157471f, -0.39000511169433593750f, 0.52554643154144287109f, -0.45340460538864135742f, 0.56863939762115478516f, 0.033572051674127578735f, -0.055507436394691467285f, -0.49576640129089355469f, 0.081592679023742675781f, 0.40785375237464904785f, -0.15045660734176635742f, -0.048105083405971527100f, 0.33278825879096984863f, -0.012358852662146091461f, -0.079243719577789306641f, 0.24563397467136383057f, -0.045673560351133346558f, 0.45975953340530395508f, 0.36391574144363403320f, -0.41506445407867431641f, -0.14246594905853271484f, 0.35491070151329040527f, 0.099184550344944000244f, 0.34741407632827758789f, 0.036926362663507461548f, -0.044542692601680755615f, 0.41069650650024414062f, 0.18584445118904113770f, 0.11889562010765075684f, 0.074615426361560821533f, 0.11537786573171615601f, 0.12108959257602691650f, 0.084923312067985534668f, 0.31245398521423339844f, 0.33167973160743713379f, -0.034216731786727905273f, 0.52970123291015625000f, -0.28462591767311096191f, -0.0041266158223152160645f, -0.30090102553367614746f, -0.010092064738273620605f, -0.32783618569374084473f, -0.24339655041694641113f, -0.17186099290847778320f, 0.054489910602569580078f, 0.17092086374759674072f, 0.36589318513870239258f, 0.21412669122219085693f, 0.63399994373321533203f, 0.30980867147445678711f, -0.17391254007816314697f, -0.28380304574966430664f, 0.098816797137260437012f, -0.30152061581611633301f, 0.19860564172267913818f, -0.0050482847727835178375f, -0.19062624871730804443f, 0.16192835569381713867f, -0.25250327587127685547f, -0.82778185606002807617f};
static const float tensor_features_6_conv_5_fc_0_weight[32][120] = 
{
