// This file is computer-generated by onnx2c 
// (TODO: add creating command line here)
// (TODO: print creation date here )

// ONNX model:
// produced by pytorch, version 2.2.1
// ONNX IR version: 10
// Model documentation: 
/*

*/

#include <float.h>
#include <math.h>
#include <stdbool.h>
#include <stdint.h>
#include <string.h>
#define MAX(X,Y) ( X > Y ? X : Y)
#define MIN(X,Y) ( X < Y ? X : Y)
#define CLIP(X,L) ( MAX(MIN(X,L), -L) )

static const float tensor_features_2_conv_3_fc_0_weight[8][8] = 
{
  {-0.049989480525255203247f, -0.064360231161117553711f, -0.019670967012643814087f, -0.0044422773644328117371f, -0.085964836180210113525f, -0.045646402984857559204f, -0.038054358214139938354f, -0.081417553126811981201f},
  {-0.0089491801336407661438f, -0.012249484658241271973f, -0.0036589868832379579544f, -0.0046325437724590301514f, 0.0017343709478154778481f, -0.0085660619661211967468f, -0.0069265700876712799072f, -0.010826633311808109283f},
  {-0.011306010186672210693f, 0.0078518744558095932007f, -0.00028041872428730130196f, 0.0049335518851876258850f, -0.019343765452504158020f, -0.018020026385784149170f, -0.016841741278767585754f, -0.0078464616090059280396f},
  {-0.035491231828927993774f, -0.015160048380494117737f, -0.019010314717888832092f, -0.030198214575648307800f, -0.019745986908674240112f, 0.00064624840160831809044f, -0.0019276129314675927162f, -0.020778851583600044250f},
  {-0.011603230610489845276f, -0.019763583317399024963f, -0.0032372158020734786987f, 0.015863740816712379456f, -0.014409438706934452057f, -0.010024722665548324585f, -0.011175182648003101349f, -0.012760727666318416595f},
  {-0.030811116099357604980f, -0.025676313787698745728f, -0.028367493301630020142f, -0.024353500455617904663f, -0.039079047739505767822f, -0.040113613009452819824f, -0.027980860322713851929f, -0.015805024653673171997f},
  {-0.0091091180220246315002f, -0.0074916994199156761169f, 0.0031757694669067859650f, -0.0071429172530770301819f, -0.0062796864658594131470f, -0.0047124037519097328186f, -0.016885923221707344055f, -0.013656322844326496124f},
  {-0.0070204078219830989838f, -0.016043925657868385315f, -0.0087442658841609954834f, 0.0037313613574951887131f, -0.014995818957686424255f, -0.0058475742116570472717f, -0.0063337231986224651337f, -0.017546400427818298340f}
};
static const float tensor_features_2_conv_3_fc_0_bias[8] = 
{-0.012518418021500110626f, -0.0052286256104707717896f, -0.0073123234324157238007f, -0.031171754002571105957f, -0.025959884747862815857f, -0.038797002285718917847f, -0.0082002580165863037109f, -0.0060054380446672439575f};
static const float tensor_features_2_conv_3_fc_2_weight[8][8] = 
{
  {-0.021175045520067214966f, -0.0057769143022596836090f, -0.0090063484385609626770f, 0.0033328498248010873795f, 0.0087570864707231521606f, 0.041255392134189605713f, 0.010716962628066539764f, -0.0073915454559028148651f},
  {-0.031140355393290519714f, 0.020049173384904861450f, -0.016408594325184822083f, 0.011919362470507621765f, 7.6672331488225609064e-05f, -0.027924207970499992371f, -0.0021043207962065935135f, -0.017992600798606872559f},
  {0.087789386510848999023f, -0.0046084644272923469543f, -0.0066105150617659091949f, 0.0081761395558714866638f, 0.0081656342372298240662f, -0.044481191784143447876f, 0.012114146724343299866f, 0.010293206200003623962f},
  {-0.031396459788084030151f, -0.0012917602434754371643f, 0.0080509111285209655762f, -0.0074222185648977756500f, 0.0011432386236265301704f, -0.027178833261132240295f, 0.0055627361871302127838f, -0.0039780926890671253204f},
  {-0.052404209971427917480f, -0.011490504257380962372f, 0.0047989068552851676941f, -0.0076943133026361465454f, 0.011101904325187206268f, 0.028979934751987457275f, -0.0013234089128673076630f, -0.0015005404129624366760f},
  {0.017969505861401557922f, 0.014704401604831218719f, -0.00081685982877388596535f, 0.0083274869248270988464f, 0.019575076177716255188f, -0.0082663893699645996094f, -0.013770226389169692993f, -0.0067863850854337215424f},
  {0.0018548151711001992226f, 0.011290607973933219910f, -0.0045757354237139225006f, 0.0050054485909640789032f, -0.0049575055018067359924f, -0.019549475982785224915f, -0.014933608472347259521f, -0.0072749159298837184906f},
  {-0.040153596550226211548f, -0.00061281357193365693092f, -0.0088488264009356498718f, -0.0064478777348995208740f, -0.0087326467037200927734f, -0.016456766054034233093f, 0.0049224556423723697662f, -0.0048770918510854244232f}
};
static const float tensor_features_2_conv_3_fc_2_bias[8] = 
{-0.40007886290550231934f, -0.41101649403572082520f, 0.37100973725318908691f, 0.32824724912643432617f, -0.35860729217529296875f, 0.41073480248451232910f, -0.38895967602729797363f, 0.27396115660667419434f};
static const float tensor_features_5_conv_5_fc_0_weight[24][72] = 
{
  {0.025167515501379966736f, -0.22869566082954406738f, -0.40886521339416503906f, 0.064515709877014160156f, 0.16671210527420043945f, -0.026977036148309707642f, -0.10563818365335464478f, -0.42078489065170288086f, 0.035574622452259063721f, 0.021377474069595336914f, 0.056085027754306793213f, -0.026277711614966392517f, -0.21280433237552642822f, 0.47074702382087707520f, 0.13891977071762084961f, 0.51977807283401489258f, 0.76003485918045043945f, -0.0036493972875177860260f, -0.12479654699563980103f, -0.045487422496080398560f, -0.24189084768295288086f, 0.0032575547229498624802f, 0.010484264232218265533f, 0.034175962209701538086f, -0.21191990375518798828f, -0.00085092277731746435165f, -0.043469019234180450439f, 0.026463048532605171204f, 0.10029435902833938599f, 0.049682706594467163086f, -0.10798303782939910889f, 0.041555564850568771362f, -0.059283494949340820312f, -0.60945975780487060547f, 0.050111353397369384766f, 0.34214398264884948730f, -0.069956757128238677979f, 0.072366446256637573242f, 0.24119168519973754883f, 0.54538536071777343750f, 0.49845182895660400391f, 0.18544599413871765137f, -0.15069581568241119385f, 0.12515607476234436035f, 0.27150550484657287598f, -0.87681663036346435547f, -0.14268288016319274902f, 0.026461752131581306458f, -0.24419251084327697754f, -0.21152186393737792969f, 0.28303822875022888184f, -0.35780155658721923828f, 0.31716743111610412598f, -0.24226328730583190918f, -0.17530889809131622314f, 0.018916433677077293396f, 0.048200216144323348999f, -0.21534818410873413086f, -0.55032593011856079102f, 0.038291506469249725342f, 0.23308376967906951904f, -0.28472763299942016602f, -0.0084552736952900886536f, 0.11230520159006118774f, 0.083694182336330413818f, 0.25494006276130676270f, -0.28882119059562683105f, -0.040201928466558456421f, 0.29638826847076416016f, -0.21455103158950805664f, -0.0055002844892442226410f, -0.55168437957763671875f},
  {0.0065849446691572666168f, -0.20986652374267578125f, 0.50124233961105346680f, 0.010757924057543277740f, 0.29510790109634399414f, 0.24211935698986053467f, -0.15766859054565429688f, 0.016949405893683433533f, 0.11779005825519561768f, 0.22957122325897216797f, 0.46905633807182312012f, -0.064707636833190917969f, 0.13207827508449554443f, 0.35118839144706726074f, 0.66414624452590942383f, 0.63595432043075561523f, 0.43328112363815307617f, -0.035236768424510955811f, -0.15815585851669311523f, -0.11980689316987991333f, -0.13179606199264526367f, -0.17353196442127227783f, 0.054111998528242111206f, -0.47786492109298706055f, 0.17820239067077636719f, 0.12951228022575378418f, 0.11073551326990127563f, -0.23722961544990539551f, -0.030429087579250335693f, -0.055331308394670486450f, 0.099899314343929290771f, -0.28331559896469116211f, -0.55414098501205444336f, -0.72139400243759155273f, -0.14056664705276489258f, -0.088985405862331390381f, -0.50100487470626831055f, 0.13654527068138122559f, -0.12906429171562194824f, 0.37336376309394836426f, 0.026313798502087593079f, -0.39347594976425170898f, -0.081349171698093414307f, 0.28281506896018981934f, -0.24414849281311035156f, -0.22672389447689056396f, 0.25769802927970886230f, -0.015846405178308486938f, -0.33776530623435974121f, -0.30338940024375915527f, -0.20731469988822937012f, -0.042277768254280090332f, -0.21386353671550750732f, -0.39461699128150939941f, 0.50746321678161621094f, 0.080976426601409912109f, -0.25265163183212280273f, 0.030464313924312591553f, -0.26245468854904174805f, -0.38415196537971496582f, -0.038913629949092864990f, -0.15795376896858215332f, -0.26346743106842041016f, -0.37569236755371093750f, -0.14379279315471649170f, 0.015454911626875400543f, -0.16336989402770996094f, 0.067178621888160705566f, 0.20486241579055786133f, -0.057059742510318756104f, -0.19417071342468261719f, -0.89135849475860595703f},
  {-0.041350230574607849121f, 0.018491057679057121277f, -0.019938699901103973389f, -0.011682758107781410217f, 0.013316527009010314941f, 0.037278994917869567871f, -0.064628064632415771484f, -0.025546709075570106506f, 0.053150147199630737305f, -0.011923004873096942902f, -0.0062260474078357219696f, -0.056393619626760482788f, 0.024914463981986045837f, 0.0060889017768204212189f, 0.022324688732624053955f, -0.0075446777045726776123f, -0.012024335563182830811f, 0.11967163532972335815f, -0.0016132305609062314034f, 0.0041291085071861743927f, -0.0082795489579439163208f, -0.062202300876379013062f, -0.042428005486726760864f, -0.014134727418422698975f, -0.080077163875102996826f, 0.038188952952623367310f, -0.047111660242080688477f, -0.00095767236780375242233f, -0.024506527930498123169f, 0.015605569817125797272f, 0.11320066452026367188f, -0.048879273235797882080f, -0.025767086073756217957f, 0.0090568531304597854614f, -0.020323708653450012207f, 0.038584101945161819458f, -0.022041033953428268433f, -0.0042828470468521118164f, 0.018817270174622535706f, -0.022829841822385787964f, 0.028437299653887748718f, -0.039184492081403732300f, 0.014994298107922077179f, 0.055211618542671203613f, -0.037181112915277481079f, 0.029011808335781097412f, -0.036598302423954010010f, 0.080534249544143676758f, 0.037030335515737533569f, 0.043995805084705352783f, -0.091029971837997436523f, 0.018068997189402580261f, -0.019561588764190673828f, 0.033022224903106689453f, -0.072879165410995483398f, 0.023415064439177513123f, -0.087333969771862030029f, 0.041182491928339004517f, -0.036190364509820938110f, 0.053347285836935043335f, -0.0082035874947905540466f, 0.015104705467820167542f, -0.0082396119832992553711f, 0.071088165044784545898f, -0.054660070687532424927f, -0.011505097150802612305f, -0.022939916700124740601f, -0.091589085757732391357f, -0.024727370589971542358f, 0.018592732027173042297f, 0.038462739437818527222f, 0.0058577493764460086823f},
  {0.26372215151786804199f, 0.33617275953292846680f, 0.14527423679828643799f, 0.0068879597820341587067f, 0.033555079251527786255f, 0.063612118363380432129f, -0.098791010677814483643f, -0.037968382239341735840f, -0.023097272962331771851f, 0.27375793457031250000f, -0.16208358108997344971f, 0.17643685638904571533f, 0.18756914138793945312f, 0.034183878451585769653f, 0.43076562881469726562f, 0.066166572272777557373f, -0.22466424107551574707f, 0.24067644774913787842f, 0.022706463932991027832f, 0.066669754683971405029f, 0.046372592449188232422f, -0.10399478673934936523f, -0.059066336601972579956f, 0.11809627711772918701f, -0.10792630910873413086f, 0.32890486717224121094f, -0.11241547763347625732f, -0.23198176920413970947f, -0.0087867667898535728455f, 0.29406839609146118164f, 0.22677277028560638428f, -0.17878122627735137939f, -0.082808680832386016846f, 0.035730477422475814819f, -0.50395834445953369141f, 0.0059379418380558490753f, -0.17002931237220764160f, -0.089223071932792663574f, -0.089598126709461212158f, -0.095955543220043182373f, -0.12917295098304748535f, -0.083465605974197387695f, 0.47833350300788879395f, 0.058215841650962829590f, 0.10415545105934143066f, 0.10327379405498504639f, 0.24452239274978637695f, -0.037837855517864227295f, 0.37693813443183898926f, -0.25008881092071533203f, 0.25890678167343139648f, 0.11322707682847976685f, -0.090252012014389038086f, 0.14024344086647033691f, -0.044969253242015838623f, 0.066362693905830383301f, -0.21068738400936126709f, 0.017634324729442596436f, 0.089611612260341644287f, 0.17592424154281616211f, -0.11069813370704650879f, 0.0048831021413207054138f, -0.27584445476531982422f, -0.098190642893314361572f, -0.23839001357555389404f, -0.25011599063873291016f, 0.071504957973957061768f, -0.10574906319379806519f, 0.17415265738964080811f, 0.30762568116188049316f, -0.30520060658454895020f, -0.14616864919662475586f},
  {0.020957233384251594543f, 0.027698995545506477356f, 0.064320631325244903564f, -0.13210558891296386719f, 0.018116146326065063477f, -0.092643819749355316162f, -0.054228138178586959839f, -0.016795286908745765686f, 0.078428857028484344482f, 0.040563941001892089844f, -0.00034832913661375641823f, -0.021769281476736068726f, 0.043605756014585494995f, -0.00075528374873101711273f, 0.059487536549568176270f, 0.016685785725712776184f, 0.040041368454694747925f, 0.21507591009140014648f, 0.044632922857999801636f, 0.10203102976083755493f, -0.058368988335132598877f, -0.099721990525722503662f, 0.026711007580161094666f, 0.00071704440051689743996f, 0.010934793390333652496f, 0.045444414019584655762f, -0.092875756323337554932f, 0.022488370537757873535f, 0.051744412630796432495f, 0.0099662281572818756104f, 0.068545043468475341797f, 0.015909098088741302490f, 0.0053258668631315231323f, 0.0086551345884799957275f, -0.041158989071846008301f, 0.00034975519520230591297f, -0.055798053741455078125f, -0.041969120502471923828f, -0.042820706963539123535f, -0.0067283399403095245361f, -0.043516464531421661377f, -0.080063663423061370850f, 0.049054276198148727417f, 0.044824387878179550171f, 0.011165613308548927307f, -0.028457490727305412292f, -0.016693757846951484680f, 0.020411910489201545715f, 0.047925263643264770508f, 0.058718729764223098755f, 0.052116081118583679199f, 0.037630271166563034058f, -0.093264855444431304932f, 0.015891624614596366882f, 0.030668461695313453674f, -0.012886652722954750061f, 0.013409689068794250488f, 0.065427042543888092041f, -0.056959833949804306030f, 0.039907656610012054443f, -0.071862287819385528564f, 0.049443546682596206665f, -0.033338204026222229004f, 0.096106097102165222168f, -0.058955635875463485718f, -0.045004516839981079102f, -0.085115619003772735596f, -0.040195360779762268066f, 0.0064076832495629787445f, -0.061284985393285751343f, 0.0031893521081656217575f, -0.063919618725776672363f},
  {-0.11119341850280761719f, 0.17919032275676727295f, -0.24668011069297790527f, 0.028667643666267395020f, 0.060399774461984634399f, 0.13191543519496917725f, -0.026089942082762718201f, -0.31884288787841796875f, 0.0039057633839547634125f, 0.14399898052215576172f, -0.11958722770214080811f, 0.10873274505138397217f, -0.012941999360918998718f, 0.46518179774284362793f, 0.38998907804489135742f, -0.12469502538442611694f, -0.22772437334060668945f, -0.27481892704963684082f, -0.29547166824340820312f, -0.082363970577716827393f, -0.17235688865184783936f, -0.056213237345218658447f, 0.019772438332438468933f, 0.69727957248687744141f, 0.060908723622560501099f, 0.068218573927879333496f, 0.074436731636524200439f, -0.071386948227882385254f, -0.10409259796142578125f, -0.12004090100526809692f, 0.029463320970535278320f, 0.028499297797679901123f, 0.16016651690006256104f, -0.30826300382614135742f, -0.57913178205490112305f, 0.22009000182151794434f, -0.46187466382980346680f, 0.14439363777637481689f, 0.025803914293646812439f, 0.23546136915683746338f, -0.040187012404203414917f, 0.29536476731300354004f, -0.46269783377647399902f, 0.19984248280525207520f, 0.19118162989616394043f, -0.37512335181236267090f, -0.15339475870132446289f, 0.13364621996879577637f, -0.22969926893711090088f, -0.12539444863796234131f, 0.22622340917587280273f, 0.013136687688529491425f, 0.047711942344903945923f, -0.064240522682666778564f, 0.31383603811264038086f, 0.016235988587141036987f, -0.32179421186447143555f, -0.59944367408752441406f, -0.41867482662200927734f, -0.094140872359275817871f, -0.26824328303337097168f, -0.25385284423828125000f, 0.27215427160263061523f, -0.19845516979694366455f, 0.17908425629138946533f, 0.012597895227372646332f, 0.28583121299743652344f, 0.0016730744391679763794f, -0.15713003277778625488f, -0.016543045639991760254f, 0.15127307176589965820f, -0.35322314500808715820f},
  {0.023716414347290992737f, 0.065582141280174255371f, 0.083046346902847290039f, -0.027861660346388816833f, 0.041549347341060638428f, 0.061644326895475387573f, -0.029681826010346412659f, -0.058457195758819580078f, 0.077122583985328674316f, 0.050249397754669189453f, 0.079633206129074096680f, 0.066717185080051422119f, 0.049409933388233184814f, 0.010538542643189430237f, 0.032528784126043319702f, 0.019284538924694061279f, 0.017170008271932601929f, 0.18315635621547698975f, 0.076087154448032379150f, -0.015838421881198883057f, -0.0042211962863802909851f, -0.037477191537618637085f, -0.018360609188675880432f, 0.014545973390340805054f, 0.0042128153145313262939f, 0.17487870156764984131f, -0.016531703993678092957f, -0.026877827942371368408f, 0.0074375728145241737366f, -0.050630945712327957153f, 7.2892406024038791656e-05f, -0.0050493511371314525604f, -0.024291282519698143005f, -0.0029928269796073436737f, -0.083933137357234954834f, 0.040875054895877838135f, -0.018912103027105331421f, -0.094146706163883209229f, -0.10352017730474472046f, 0.049531653523445129395f, -0.056639090180397033691f, 0.036773994565010070801f, 0.038262519985437393188f, -0.036739639937877655029f, 0.064025662839412689209f, 0.037555430084466934204f, 0.075116068124771118164f, 0.043392356485128402710f, 0.081243880093097686768f, -0.063158385455608367920f, 0.023897221311926841736f, 0.074852384626865386963f, -0.080412574112415313721f, 0.049778524786233901978f, -0.018714282661676406860f, 0.041208263486623764038f, -0.080637127161026000977f, 0.043591395020484924316f, 0.019557455554604530334f, -0.087220460176467895508f, 0.013441777788102626801f, 0.089751958847045898438f, -0.067610822618007659912f, 0.086116038262844085693f, -0.063739769160747528076f, -0.021800126880407333374f, -0.084260322153568267822f, 0.053276058286428451538f, 0.049330964684486389160f, 0.024147838354110717773f, -0.032116364687681198120f, -0.10695851594209671021f},
  {-0.051685646176338195801f, 0.052284665405750274658f, 0.056556355208158493042f, -0.040392436087131500244f, 0.0017959781689569354057f, -0.017338136211037635803f, -0.13460479676723480225f, -0.073569282889366149902f, 0.046267196536064147949f, 0.074961304664611816406f, 0.051784846931695938110f, 0.0094488235190510749817f, 0.077617667615413665771f, -0.034347277134656906128f, 0.013362505473196506500f, -0.034200478345155715942f, -0.053316462785005569458f, 0.13592711091041564941f, 0.053445417433977127075f, 0.012634314596652984619f, 0.0056197191588580608368f, -0.022551150992512702942f, 0.0082359062507748603821f, 0.0028691277839243412018f, 0.011592812836170196533f, 0.051492888480424880981f, -0.056562304496765136719f, -0.040060047060251235962f, -0.026018735021352767944f, 0.14803647994995117188f, 0.067133896052837371826f, 0.014946370385587215424f, 0.042779777199029922485f, 0.0079591916874051094055f, -0.069527678191661834717f, -0.057599462568759918213f, -0.11096200346946716309f, -0.042305141687393188477f, -0.11821330338716506958f, 0.019919287413358688354f, -0.045609131455421447754f, 0.037724457681179046631f, -0.00062477850588038563728f, 0.0030557082500308752060f, 0.053944546729326248169f, 0.069698795676231384277f, 0.0062223537825047969818f, 0.029027741402387619019f, 0.011229309253394603729f, 0.064377494156360626221f, -0.079687848687171936035f, 0.12524503469467163086f, -0.088486596941947937012f, 0.0074584479443728923798f, -0.014730677939951419830f, 0.012027318589389324188f, -0.062867738306522369385f, -0.027039218693971633911f, -0.079119957983493804932f, -0.067079149186611175537f, -0.016526667401194572449f, 0.031580589711666107178f, 0.011918515898287296295f, 0.049188654869794845581f, -0.057890422642230987549f, 0.027006676420569419861f, -0.014150103554129600525f, -0.081704176962375640869f, -0.090367950499057769775f, -0.0079272584989666938782f, -0.031600251793861389160f, -0.032852444797754287720f},
  {0.041346181184053421021f, 0.85870969295501708984f, -0.16084386408329010010f, -0.10556475818157196045f, -0.091330513358116149902f, 0.095983013510704040527f, -0.020180584862828254700f, 0.10404298454523086548f, -0.11882512271404266357f, -0.010246963240206241608f, -0.10406672209501266479f, 0.077635943889617919922f, -0.36062249541282653809f, -0.12602818012237548828f, 0.24885147809982299805f, -0.83233493566513061523f, -0.27232512831687927246f, -0.15792579948902130127f, -0.24923153221607208252f, -0.070127151906490325928f, 0.24839882552623748779f, 0.21761365234851837158f, 0.011243400163948535919f, 0.38428601622581481934f, -0.11365450173616409302f, -0.088350869715213775635f, 0.039624914526939392090f, -0.10697614401578903198f, -0.014744326472282409668f, 0.53196555376052856445f, -0.10425999760627746582f, -0.25509622693061828613f, 0.096762709319591522217f, 0.10510859638452529907f, 0.073270149528980255127f, -0.28723147511482238770f, -0.67278027534484863281f, 0.19116629660129547119f, 0.56379115581512451172f, -0.099592760205268859863f, 0.051885515451431274414f, 0.26494851708412170410f, -0.48142117261886596680f, 0.36074894666671752930f, -0.12313611805438995361f, 0.072064287960529327393f, 0.35158598423004150391f, 0.064913466572761535645f, 0.11420952528715133667f, 0.072598531842231750488f, 0.11377754062414169312f, 0.22685363888740539551f, -0.38817524909973144531f, -0.056129336357116699219f, -0.60465472936630249023f, -0.079963043332099914551f, -0.14811442792415618896f, -0.14458297193050384521f, 0.36233866214752197266f, 0.64300948381423950195f, 0.91337078809738159180f, -0.13226866722106933594f, 0.62675380706787109375f, -0.037880614399909973145f, 0.12944944202899932861f, 0.42193415760993957520f, 0.33074420690536499023f, 0.064420178532600402832f, -0.47247704863548278809f, 0.27004781365394592285f, 0.048818308860063552856f, 0.27720540761947631836f},
  {0.32407438755035400391f, -0.28533053398132324219f, -0.19048635661602020264f, -0.12039810419082641602f, 0.19818735122680664062f, -0.25543195009231567383f, -0.10208781808614730835f, 0.14599251747131347656f, -0.090115144848823547363f, -0.035991217941045761108f, 0.19651132822036743164f, -0.013889796100556850433f, 0.41216543316841125488f, -0.44790375232696533203f, 0.25753822922706604004f, -0.023552564904093742371f, -0.12490590661764144897f, -0.33508846163749694824f, -0.28939297795295715332f, -0.036886792629957199097f, -0.18400122225284576416f, -0.097879424691200256348f, 0.042704202234745025635f, 0.16053074598312377930f, -0.11269688606262207031f, -0.0031457352451980113983f, -0.027049776166677474976f, -0.13371483981609344482f, -0.059112664312124252319f, -0.22860537469387054443f, -0.19162814319133758545f, 0.50104743242263793945f, 0.19985152781009674072f, 0.040978536009788513184f, 0.24321232736110687256f, 0.10429245978593826294f, 0.46958225965499877930f, 0.17107944190502166748f, 0.082231536507606506348f, -0.034811582416296005249f, 0.11263338476419448853f, -0.20383515954017639160f, 0.18709626793861389160f, -0.095438823103904724121f, 0.055098339915275573730f, -0.14199422299861907959f, 0.018207754939794540405f, 0.028733633458614349365f, 0.14334376156330108643f, -0.43850705027580261230f, -0.11583828181028366089f, 0.23278921842575073242f, -0.10508068650960922241f, 0.052771683782339096069f, -0.14730724692344665527f, -0.056418791413307189941f, 0.21628557145595550537f, -0.51468163728713989258f, 0.00043476850260049104691f, 0.031426686793565750122f, 0.086502514779567718506f, -0.13115410506725311279f, 0.20594251155853271484f, -0.12798219919204711914f, -0.20577134191989898682f, 0.37571936845779418945f, 0.00033170878305099904537f, 0.14295318722724914551f, 0.14981403946876525879f, 0.10050614178180694580f, -0.75118029117584228516f, -0.25346419215202331543f},
  {0.18251472711563110352f, 0.11282022297382354736f, 0.17624983191490173340f, 0.059900842607021331787f, 0.10701701045036315918f, 0.033576577901840209961f, -0.083871945738792419434f, -0.18777170777320861816f, 0.14752277731895446777f, -0.0054840124212205410004f, -0.018487358465790748596f, 0.048501666635274887085f, 0.045669335871934890747f, 0.011477468535304069519f, 0.17185525596141815186f, 0.10369008034467697144f, -0.089120663702487945557f, 0.25881260633468627930f, 0.021474579349160194397f, 0.0032900259830057621002f, -0.083840630948543548584f, -0.094491824507713317871f, -0.010779999196529388428f, -0.050743512809276580811f, 0.052754390984773635864f, 0.13514612615108489990f, -0.039021231234073638916f, -0.13974148035049438477f, 0.020251918584108352661f, 0.073917247354984283447f, 0.15281887352466583252f, -0.059134405106306076050f, 0.014675912447273731232f, 0.020453693345189094543f, -0.068627700209617614746f, 0.22026228904724121094f, -0.030362628400325775146f, 0.11489009857177734375f, -0.12806262075901031494f, -0.0093371588736772537231f, -0.13725371658802032471f, -0.10202177613973617554f, -0.025977963581681251526f, -0.033077821135520935059f, -0.11016893386840820312f, 0.00085551454685628414154f, 0.17075334489345550537f, 0.013881316408514976501f, -0.079184107482433319092f, -0.012428971938788890839f, -0.16863520443439483643f, 0.085195414721965789795f, 0.039261072874069213867f, 0.088462941348552703857f, -0.024347105994820594788f, 0.050430148839950561523f, -0.12521910667419433594f, 0.17410238087177276611f, 0.0050467625260353088379f, -0.044591248035430908203f, 0.022052794694900512695f, -0.082035131752490997314f, -0.14383003115653991699f, 0.032914079725742340088f, -0.098148040473461151123f, -0.11354711651802062988f, 0.015847608447074890137f, -0.032022856175899505615f, 0.018835766240954399109f, -0.042038582265377044678f, -0.017004298046231269836f, 0.00095189787680283188820f},
  {-0.47566795349121093750f, 0.11707589030265808105f, 0.29599770903587341309f, 0.060385372489690780640f, 0.058387126773595809937f, -0.41106265783309936523f, 0.045536093413829803467f, 0.037927847355604171753f, -0.0096436347812414169312f, 0.18133221566677093506f, 0.081308580935001373291f, 0.12235971540212631226f, 1.0897424221038818359f, -0.21632085740566253662f, 1.4480526447296142578f, -0.13089387118816375732f, 0.13725137710571289062f, 0.032296583056449890137f, 0.55196070671081542969f, -0.28240147233009338379f, -0.020275186747312545776f, 0.16573041677474975586f, -0.089506767690181732178f, -0.38666325807571411133f, -0.14992623031139373779f, 0.085769869387149810791f, 0.28341203927993774414f, 0.18595004081726074219f, -0.23589035868644714355f, -0.51386916637420654297f, 0.26011779904365539551f, 0.12014884501695632935f, -0.21369932591915130615f, 0.093435905873775482178f, 0.16442936658859252930f, 0.72110539674758911133f, -0.17451384663581848145f, 0.34612008929252624512f, -0.14692144095897674561f, 0.36719045042991638184f, -0.24488799273967742920f, 0.24881283938884735107f, -0.080250702798366546631f, 0.58444625139236450195f, -0.058878403156995773315f, -0.28016042709350585938f, -0.093486666679382324219f, 0.044013418257236480713f, 0.055252540856599807739f, -0.62146043777465820312f, -0.074097998440265655518f, -0.26367342472076416016f, -0.087140731513500213623f, 0.34705415368080139160f, -0.29689228534698486328f, 0.089521631598472595215f, 0.26384097337722778320f, -0.12430603057146072388f, 0.34334221482276916504f, 0.11632154881954193115f, 0.32944637537002563477f, 0.40264981985092163086f, -0.23715689778327941895f, -0.13116446137428283691f, -0.44640362262725830078f, 0.21563975512981414795f, 0.21688742935657501221f, -0.042275879532098770142f, 0.27942126989364624023f, 0.17677073180675506592f, -0.11564390361309051514f, -0.76941084861755371094f},
  {0.076287195086479187012f, 0.30958169698715209961f, -0.043702431023120880127f, -0.059116393327713012695f, -0.26687073707580566406f, 0.27296206355094909668f, 0.12272759526968002319f, 0.37917533516883850098f, -0.11174095422029495239f, 0.024268459528684616089f, 0.35490667819976806641f, 0.069688998162746429443f, -0.14811018109321594238f, -0.24156537652015686035f, -0.14893482625484466553f, 0.097955800592899322510f, -0.22199115157127380371f, -0.19932071864604949951f, -0.78687566518783569336f, 0.053216371685266494751f, -0.097300857305526733398f, -0.012531389482319355011f, -0.057785551995038986206f, 0.42594796419143676758f, -0.023556815460324287415f, -0.15113914012908935547f, -0.016506697982549667358f, -0.25740033388137817383f, 0.12042979151010513306f, 0.0081250956282019615173f, -0.19221766293048858643f, -0.79436808824539184570f, -0.065564930438995361328f, -0.72116887569427490234f, -0.17266161739826202393f, -0.055321890860795974731f, -1.0069165229797363281f, 0.16186101734638214111f, 0.14113248884677886963f, 0.61657106876373291016f, 0.36625745892524719238f, -0.46494978666305541992f, -0.047020904719829559326f, 0.58769834041595458984f, 0.052002511918544769287f, -0.59201258420944213867f, 0.30473652482032775879f, -0.072475358843803405762f, -0.11489129811525344849f, -0.94746392965316772461f, 0.58968490362167358398f, 0.043297827243804931641f, -0.91155272722244262695f, -0.50995749235153198242f, 0.28167906403541564941f, -0.10217773169279098511f, -0.55644321441650390625f, 0.13226638734340667725f, -0.54753655195236206055f, 0.29381248354911804199f, 0.34994006156921386719f, 0.12867565453052520752f, -0.16159012913703918457f, 0.45206663012504577637f, -0.11623172461986541748f, 0.52365279197692871094f, 0.47592118382453918457f, -0.098100699484348297119f, -0.13956801593303680420f, -0.23813894391059875488f, -0.17305245995521545410f, -0.60686433315277099609f},
  {0.18450284004211425781f, 0.20996372401714324951f, -0.030465049669146537781f, -0.10142845660448074341f, -0.19729891419410705566f, 0.24294820427894592285f, -0.11555501073598861694f, 0.075637452304363250732f, 0.19891279935836791992f, 0.16018655896186828613f, 0.063977591693401336670f, -0.066919706761837005615f, 0.015090411528944969177f, -0.048444736748933792114f, 0.19827781617641448975f, -0.061734620481729507446f, -0.15418659150600433350f, 0.33231195807456970215f, -0.065767735242843627930f, 0.11031750589609146118f, 0.050280850380659103394f, 0.11675454676151275635f, -0.11883775889873504639f, 0.091164976358413696289f, -0.25817236304283142090f, 0.17509476840496063232f, -0.12741670012474060059f, -0.12079957127571105957f, 0.083324991166591644287f, 0.27459502220153808594f, 0.25493735074996948242f, -0.095924958586692810059f, -0.082343928515911102295f, 0.078791089355945587158f, -0.078716620802879333496f, -0.063635215163230895996f, -0.15012952685356140137f, 0.064776994287967681885f, -0.14975404739379882812f, -0.052760086953639984131f, -0.15763089060783386230f, -0.096722044050693511963f, 0.027040572836995124817f, -0.042802620679140090942f, 0.016625173389911651611f, 0.068192757666110992432f, 0.093707457184791564941f, -0.061391346156597137451f, 0.15940573811531066895f, -0.035742610692977905273f, 0.12938168644905090332f, 0.024002544581890106201f, -0.17618042230606079102f, 0.062420688569545745850f, 0.011147857643663883209f, 0.055984277278184890747f, -0.18253478407859802246f, -0.063160002231597900391f, -0.047435395419597625732f, 0.033764880150556564331f, 0.13740234076976776123f, 0.087330430746078491211f, 0.11367098987102508545f, 0.20479612052440643311f, -0.20575653016567230225f, -0.0061900531873106956482f, -0.040393341332674026489f, 0.18983955681324005127f, -0.10832925140857696533f, 0.013776137493550777435f, -0.24100959300994873047f, -0.020266221836209297180f},
  {-0.067311912775039672852f, -0.039445966482162475586f, 0.27897411584854125977f, -0.042673204094171524048f, -0.14486822485923767090f, -0.23444029688835144043f, 0.10727196186780929565f, 0.25215712189674377441f, -0.20050647854804992676f, -0.29625195264816284180f, -0.21078346669673919678f, 0.099545501172542572021f, 0.76223337650299072266f, -0.0024214603472501039505f, 0.31548187136650085449f, -0.24209553003311157227f, 0.31244120001792907715f, -0.090022757649421691895f, 0.31560614705085754395f, 0.093280896544456481934f, 0.036102339625358581543f, -0.039637912064790725708f, 0.061430025845766067505f, -0.34875875711441040039f, 0.13094183802604675293f, -0.10362578928470611572f, -0.21685343980789184570f, -0.12166868150234222412f, -0.11656568944454193115f, -0.26791357994079589844f, 0.28527313470840454102f, -0.12508639693260192871f, -0.15995684266090393066f, -0.17310084402561187744f, 0.024866277351975440979f, 0.18913988769054412842f, -0.46123301982879638672f, -0.22858597338199615479f, 0.32572588324546813965f, 0.60550713539123535156f, -0.31399291753768920898f, -0.091351032257080078125f, -0.20762953162193298340f, 0.70701032876968383789f, 0.0076125105842947959900f, -0.49023827910423278809f, -0.46073666214942932129f, -0.065301083028316497803f, -0.17713010311126708984f, -0.38179653882980346680f, 0.052656181156635284424f, -0.28832587599754333496f, 0.20696377754211425781f, 0.45192518830299377441f, -0.35714530944824218750f, -0.14195145666599273682f, 0.38306117057800292969f, 0.30298063158988952637f, 0.60805350542068481445f, 0.14117069542407989502f, 0.051230397075414657593f, 0.37224534153938293457f, 0.27568057179450988770f, 0.044490534812211990356f, -0.24246232211589813232f, -0.26316100358963012695f, 0.040991701185703277588f, -0.026098672300577163696f, 0.22493526339530944824f, 0.28439691662788391113f, -0.22327645123004913330f, -0.98049736022949218750f},
  {0.58025604486465454102f, 0.24708504974842071533f, 0.31789675354957580566f, -0.30416944622993469238f, -0.29668295383453369141f, 0.37556961178779602051f, -0.068688064813613891602f, -0.55688601732254028320f, -0.21004520356655120850f, 0.14085744321346282959f, -0.39996448159217834473f, 0.060299158096313476562f, -0.25743570923805236816f, -0.091861516237258911133f, 0.015336154960095882416f, 0.12031446397304534912f, 0.057308413088321685791f, 0.31944870948791503906f, 0.14403726160526275635f, -0.16844812035560607910f, -0.077797941863536834717f, -0.29617860913276672363f, 0.024817956611514091492f, 0.10928390920162200928f, 0.067310579121112823486f, 0.27670067548751831055f, 0.049775592982769012451f, -0.19656224548816680908f, 0.36275911331176757812f, -0.13277746737003326416f, 0.54226303100585937500f, -0.45151799917221069336f, 0.016200006008148193359f, 0.040556576102972030640f, -0.97152364253997802734f, -0.079819388687610626221f, -0.15845842659473419189f, -0.051632381975650787354f, -0.50283163785934448242f, 0.18421587347984313965f, 0.21179567277431488037f, -0.30837428569793701172f, 0.15944921970367431641f, 0.25530424714088439941f, -0.44912955164909362793f, -0.13817033171653747559f, -0.11333148181438446045f, -0.38859102129936218262f, -0.77022862434387207031f, -0.31407985091209411621f, -0.025398563593626022339f, -0.014140783809125423431f, -0.28131553530693054199f, -0.10660357028245925903f, 0.40951889753341674805f, -0.10913854092359542847f, -0.11995322257280349731f, 0.78925371170043945312f, -0.10455173254013061523f, -0.0072105103172361850739f, -0.21306049823760986328f, 0.67894744873046875000f, -0.27480268478393554688f, 0.38821637630462646484f, -0.60677713155746459961f, 0.077209919691085815430f, 0.16023303568363189697f, 0.40534287691116333008f, -0.20039398968219757080f, -0.095652177929878234863f, -0.054454576224088668823f, 0.032690607011318206787f},
  {0.13332302868366241455f, 0.24672786891460418701f, 0.57518452405929565430f, 0.25737205147743225098f, 0.067371875047683715820f, -0.016600444912910461426f, -0.083926066756248474121f, -0.020471107214689254761f, -0.088593535125255584717f, -0.31905755400657653809f, -0.24262486398220062256f, 0.17911063134670257568f, 0.71922445297241210938f, -0.13647580146789550781f, 0.88486611843109130859f, -0.015687795355916023254f, -0.066181898117065429688f, 0.45482301712036132812f, 0.29090681672096252441f, 0.23233121633529663086f, -0.32688069343566894531f, -0.28218823671340942383f, 0.15866144001483917236f, -0.33339139819145202637f, -0.26048505306243896484f, 0.047981977462768554688f, -0.17716948688030242920f, -0.041543055325746536255f, -0.076425008475780487061f, -0.17306955158710479736f, 0.30948123335838317871f, -0.093034662306308746338f, 0.020909538492560386658f, -0.28887957334518432617f, -0.39204838871955871582f, 0.57899791002273559570f, -0.33821672201156616211f, 0.16078805923461914062f, -0.47629433870315551758f, 0.14434657990932464600f, -0.21972052752971649170f, -0.50798463821411132812f, -0.088790290057659149170f, 0.32628852128982543945f, 0.22372715175151824951f, -0.15983340144157409668f, -0.021780522540211677551f, 0.46096965670585632324f, 0.27274188399314880371f, -0.10749854147434234619f, -0.11737680435180664062f, 0.13191154599189758301f, -0.37633436918258666992f, 0.083453342318534851074f, -0.18229135870933532715f, -0.24117672443389892578f, -0.018338270485401153564f, 0.41406685113906860352f, 0.13370451331138610840f, -0.43617755174636840820f, 0.036969486624002456665f, 0.28306716680526733398f, -0.21895341575145721436f, 0.21404470503330230713f, -0.49049159884452819824f, 0.059452865272760391235f, 0.27050021290779113770f, 0.042539343237876892090f, 0.11647813767194747925f, 0.40100944042205810547f, -0.55813074111938476562f, -0.69869577884674072266f},
  {-0.036748040467500686646f, -0.23769131302833557129f, -0.12446381896734237671f, 0.0039812643080949783325f, -0.20875906944274902344f, -0.20083050429821014404f, -0.095578297972679138184f, 0.68971300125122070312f, 0.018987463787198066711f, 0.18971118330955505371f, 0.34834536910057067871f, 0.014136182144284248352f, 0.40579047799110412598f, -0.67275190353393554688f, -0.54676800966262817383f, -0.084505692124366760254f, -0.029728149995207786560f, -0.093660168349742889404f, -0.17068283259868621826f, -0.090422719717025756836f, 0.21913540363311767578f, 0.15089862048625946045f, -0.035428106784820556641f, -0.20859475433826446533f, -0.040507707744836807251f, 0.082746237516403198242f, -0.0054015209898352622986f, 0.054486516863107681274f, -0.21938399970531463623f, 0.52302998304367065430f, 0.023853426799178123474f, -0.83593583106994628906f, 0.39697167277336120605f, -0.21220257878303527832f, 0.63477337360382080078f, -0.47746148705482482910f, -0.41143465042114257812f, 0.086965225636959075928f, 0.058466635644435882568f, 0.0067728278227150440216f, -0.21285262703895568848f, -0.17298965156078338623f, 0.61407935619354248047f, -0.20106992125511169434f, -0.066918276250362396240f, -0.25901994109153747559f, -0.31379380822181701660f, -0.53755444288253784180f, -0.34165480732917785645f, -0.25313428044319152832f, -0.0053776036947965621948f, -0.0010078439954668283463f, -0.39446777105331420898f, 0.031017752364277839661f, -0.33498665690422058105f, 0.010280090384185314178f, 0.12052033096551895142f, 0.34189569950103759766f, 0.50029563903808593750f, 0.36500746011734008789f, 0.00026726268697530031204f, -0.14346753060817718506f, -0.59969246387481689453f, -0.063871286809444427490f, -0.39567598700523376465f, 0.56553065776824951172f, 0.021097525954246520996f, 0.047099761664867401123f, -0.23410902917385101318f, -0.53159672021865844727f, 0.21530216932296752930f, -0.53358441591262817383f},
  {0.15992330014705657959f, -0.033227339386940002441f, 0.13925911486148834229f, 0.12335965782403945923f, 0.097256630659103393555f, 0.014870812185108661652f, 0.036857616156339645386f, 0.029397638514637947083f, -0.10393961519002914429f, 0.16547517478466033936f, 0.12246903777122497559f, -0.058574531227350234985f, 0.10797100514173507690f, 0.020906653255224227905f, 0.10719247162342071533f, 0.0030677434988319873810f, -0.034446332603693008423f, 0.26594430208206176758f, 0.070916816592216491699f, 0.066685646772384643555f, 0.044617924839258193970f, -0.034629385918378829956f, -0.12569145858287811279f, -0.023616274818778038025f, 0.10769280791282653809f, 0.11051716655492782593f, 0.028666893020272254944f, 0.15408691763877868652f, 0.068931795656681060791f, 0.026599988341331481934f, 0.079055197536945343018f, -0.043458350002765655518f, -0.10325784236192703247f, 0.085435450077056884766f, 0.031785760074853897095f, -0.064386859536170959473f, -0.14193478226661682129f, 0.14517839252948760986f, -0.099882677197456359863f, 0.018672388046979904175f, -0.076379910111427307129f, -0.040404178202152252197f, -0.10244255512952804565f, 0.027461227029561996460f, -0.012604458257555961609f, 0.033779561519622802734f, 0.017611751332879066467f, 0.0075718369334936141968f, -0.047495473176240921021f, 0.12493365257978439331f, -0.20972388982772827148f, 0.049174670130014419556f, -0.036176003515720367432f, 0.022952018305659294128f, -0.049537498503923416138f, 0.099537849426269531250f, -0.0086406571790575981140f, 0.076093986630439758301f, 0.077882200479507446289f, -0.00033040827838703989983f, 0.0021941896993666887283f, 0.057489983737468719482f, -0.12452532351016998291f, 0.10280942171812057495f, -0.16403357684612274170f, -0.040779177099466323853f, 0.043608795851469039917f, -0.048392049968242645264f, -0.076091647148132324219f, 0.014312774874269962311f, -0.030879843980073928833f, -0.095596946775913238525f},
  {-0.047697260975837707520f, 0.27671033143997192383f, 0.30619576573371887207f, -0.36399182677268981934f, 0.23979257047176361084f, 0.037971291691064834595f, -0.18841436505317687988f, -0.065485402941703796387f, -0.19257709383964538574f, 0.34692290425300598145f, 0.019919712096452713013f, -0.078240454196929931641f, 0.10447970032691955566f, 0.36364981532096862793f, 0.41781470179557800293f, 0.37424826622009277344f, -0.099591597914695739746f, 0.18219043314456939697f, 0.19375863671302795410f, 0.22792941331863403320f, 0.12102030962705612183f, -0.30952745676040649414f, 0.093371368944644927979f, -0.035594642162322998047f, -0.15779775381088256836f, 0.30769166350364685059f, -0.21737690269947052002f, -0.052790246903896331787f, 0.24636849761009216309f, 0.25404229760169982910f, 0.35491165518760681152f, -0.17760188877582550049f, -0.15970760583877563477f, -0.086902782320976257324f, -0.038739748299121856689f, 0.31876453757286071777f, 0.10075321793556213379f, 0.086399063467979431152f, 0.081876657903194427490f, -0.065366610884666442871f, 0.057548370212316513062f, -0.17569969594478607178f, 0.052331890910863876343f, -0.028659373521804809570f, 0.010033820755779743195f, 0.050915624946355819702f, -0.063850082457065582275f, 0.29272755980491638184f, 0.15085355937480926514f, -0.22972117364406585693f, -0.46457782387733459473f, 0.052628550678491592407f, -0.062220361083745956421f, 0.11561367660760879517f, 0.043319854885339736938f, -0.052579812705516815186f, -0.064152672886848449707f, 0.42087119817733764648f, 0.35065436363220214844f, 0.14158138632774353027f, 0.035905346274375915527f, -0.14869317412376403809f, -0.35288017988204956055f, 0.20069913566112518311f, -0.19082568585872650146f, -0.41679188609123229980f, -0.057732988148927688599f, 0.057754393666982650757f, -0.19607070088386535645f, -0.084059506654739379883f, 0.11690548807382583618f, 0.012289498001337051392f},
  {0.22131381928920745850f, 0.10437768697738647461f, 0.12722466886043548584f, 0.029861833900213241577f, 0.0029978377278894186020f, 0.026785641908645629883f, 0.13053709268569946289f, -0.10873550176620483398f, -0.038541905581951141357f, 0.23466278612613677979f, -0.10563813149929046631f, 0.0069884648546576499939f, 0.068654529750347137451f, -0.042936388403177261353f, -0.039059046655893325806f, 0.0025759676937013864517f, 0.080103114247322082520f, 0.24415835738182067871f, 0.12248580902814865112f, -0.15787465870380401611f, -0.074010521173477172852f, 0.0084394821897149085999f, -0.065656773746013641357f, -0.079789154231548309326f, -0.047763444483280181885f, -0.12487923353910446167f, 0.028059953823685646057f, 0.14285095036029815674f, 0.010624884627759456635f, 0.17630648612976074219f, 0.077387258410453796387f, -0.092388622462749481201f, 0.049374110996723175049f, 0.037871979176998138428f, -0.029778579249978065491f, 0.11608473211526870728f, -0.062703065574169158936f, -0.11148624122142791748f, -0.17665804922580718994f, 0.075052015483379364014f, 0.092473365366458892822f, -0.019300691783428192139f, -0.086089357733726501465f, -0.0067937104031443595886f, -0.050337851047515869141f, 0.036585461348295211792f, 0.13461327552795410156f, 0.011779236607253551483f, 0.099951341748237609863f, -0.13230800628662109375f, -0.25169295072555541992f, 0.015299908816814422607f, -0.25778639316558837891f, 0.047015484422445297241f, -0.056462459266185760498f, -0.092046611011028289795f, -0.075383417308330535889f, 0.14178568124771118164f, 0.10850261151790618896f, -0.062139976769685745239f, 0.11767482757568359375f, -0.0055598230101168155670f, -0.21572580933570861816f, 0.24699015915393829346f, -0.29003262519836425781f, -0.14795765280723571777f, -0.10626596212387084961f, 0.059083770960569381714f, -0.13400639593601226807f, 0.11609025299549102783f, 0.044047806411981582642f, -0.076241701841354370117f},
  {-0.049006201326847076416f, 0.060365580022335052490f, 0.20782002806663513184f, -0.068068251013755798340f, 0.14724822342395782471f, -0.064916208386421203613f, -0.23406624794006347656f, -0.091877341270446777344f, 0.076132878661155700684f, 0.23974889516830444336f, 0.035834990441799163818f, -0.10783515870571136475f, 0.10013955831527709961f, 0.0051318858750164508820f, 0.0096247075125575065613f, 0.085631862282752990723f, -0.13492015004158020020f, 0.31899365782737731934f, 0.16261848807334899902f, 0.15025061368942260742f, 0.010199267417192459106f, -0.047367140650749206543f, 0.074649579823017120361f, 0.031859852373600006104f, 0.038409773260354995728f, 0.094241186976432800293f, -0.14495012164115905762f, 0.036970883607864379883f, -0.076804526150226593018f, 0.040147945284843444824f, 0.20198646187782287598f, -0.12585940957069396973f, -0.18101792037487030029f, -0.035676546394824981689f, -0.017971107736229896545f, 0.085148416459560394287f, -0.075862497091293334961f, -0.0084872003644704818726f, -0.29314628243446350098f, -0.0048334752209484577179f, -0.16430294513702392578f, -0.055657520890235900879f, 0.10892383009195327759f, 0.027237473055720329285f, 0.068336836993694305420f, -0.012464073486626148224f, 0.18768796324729919434f, 0.17138746380805969238f, 0.16639055311679840088f, -0.10517840832471847534f, -0.18036827445030212402f, 0.016530808061361312866f, -0.054685816168785095215f, 0.085883960127830505371f, 0.064313195645809173584f, 0.35056135058403015137f, -0.053687367588281631470f, -0.041005760431289672852f, -0.033246602863073348999f, -0.018043057993054389954f, -0.038105651736259460449f, 0.014514090493321418762f, 0.025196151807904243469f, 0.056054592132568359375f, -0.14477686583995819092f, -0.0056657656095921993256f, -0.10872875154018402100f, 0.13983441889286041260f, 0.018315205350518226624f, 0.089947052299976348877f, -0.13597083091735839844f, -0.066188350319862365723f},
  {0.29903611540794372559f, 0.41065758466720581055f, 0.33121821284294128418f, 0.046339791268110275269f, -0.14342309534549713135f, 0.089317932724952697754f, -0.046064406633377075195f, 0.0092415530234575271606f, 0.10820063948631286621f, 0.11153599619865417480f, -0.078524872660636901855f, 0.14586542546749114990f, 0.13773870468139648438f, -0.39296069741249084473f, 0.28969374299049377441f, -0.093754924833774566650f, -0.083431221544742584229f, 0.47523003816604614258f, 0.18878923356533050537f, -0.14218038320541381836f, 0.0054741604253649711609f, -0.22726653516292572021f, -0.065714836120605468750f, -0.15651090443134307861f, -0.019724939018487930298f, 0.32586196064949035645f, 0.069872438907623291016f, -0.11602285504341125488f, 0.078142449259757995605f, 0.28551211953163146973f, 0.49959534406661987305f, -0.078116364777088165283f, -0.077148370444774627686f, -0.22510048747062683105f, -0.28475254774093627930f, 0.38526582717895507812f, -0.22957389056682586670f, -0.29538658261299133301f, -0.44973900914192199707f, -0.022484997287392616272f, -0.10846798121929168701f, -0.25524389743804931641f, -0.017907584086060523987f, 0.041671480983495712280f, 0.027708612382411956787f, 0.00087150983745232224464f, 0.043806064873933792114f, -0.033116914331912994385f, 0.10274329036474227905f, 0.038385458290576934814f, -0.0064932210370898246765f, 0.20108869671821594238f, -0.28869301080703735352f, 0.074922271072864532471f, -0.0053726029582321643829f, -0.020470809191465377808f, -0.15868508815765380859f, 0.31700143218040466309f, 0.11830262094736099243f, 0.048611331731081008911f, -0.44194549322128295898f, 0.22671541571617126465f, -0.22885648906230926514f, -0.012066061608493328094f, -0.22638417780399322510f, 0.083398059010505676270f, -0.14582279324531555176f, -0.00044393949792720377445f, -0.23311483860015869141f, 0.069328747689723968506f, -0.30020841956138610840f, -0.16335667669773101807f},
  {0.20209227502346038818f, 0.059914927929639816284f, 0.64395993947982788086f, 0.15164254605770111084f, -0.19944167137145996094f, -0.087134949862957000732f, -0.074185028672218322754f, -0.24828752875328063965f, -0.0045023672282695770264f, 0.059269938617944717407f, -0.23562218248844146729f, -0.069633811712265014648f, 0.12040846049785614014f, 0.080103732645511627197f, 0.34508374333381652832f, -0.098097689449787139893f, 0.13373747467994689941f, 0.038939949125051498413f, 0.43694984912872314453f, 0.21309870481491088867f, -0.32671695947647094727f, 0.34138774871826171875f, 0.21148645877838134766f, -0.20200397074222564697f, 0.28719487786293029785f, 0.29482141137123107910f, -0.42550528049468994141f, -0.12806001305580139160f, 0.60219508409500122070f, 0.10041446983814239502f, 0.25796860456466674805f, -0.098829932510852813721f, -0.071285352110862731934f, 0.20884770154953002930f, -0.42339953780174255371f, 0.19585508108139038086f, 0.055165003985166549683f, 0.094464696943759918213f, -0.40063518285751342773f, -0.036073613911867141724f, -0.033082507550716400146f, -0.57598054409027099609f, 0.10586472600698471069f, 0.26076197624206542969f, -0.23847042024135589600f, -0.0052133081480860710144f, -0.014701346866786479950f, 0.21952709555625915527f, 0.17254474759101867676f, -0.0044020866043865680695f, -0.31212079524993896484f, 0.015674985945224761963f, 0.16056241095066070557f, 0.020243622362613677979f, 0.17638573050498962402f, -0.25854635238647460938f, -0.079713523387908935547f, 0.55725783109664916992f, 0.11363180726766586304f, 0.16518168151378631592f, 0.22328858077526092529f, 0.75115066766738891602f, -0.55919599533081054688f, 0.23294113576412200928f, -0.31462472677230834961f, -0.54538923501968383789f, -0.20316542685031890869f, 0.034125413745641708374f, -0.071245551109313964844f, -0.052809145301580429077f, 0.042956314980983734131f, -0.17412379384040832520f}
};
static const float tensor_features_5_conv_5_fc_0_bias[24] = 
{0.56849783658981323242f, -0.36801096796989440918f, -0.21146339178085327148f, -0.28541642427444458008f, -0.23944456875324249268f, 0.37740084528923034668f, -0.23244658112525939941f, -0.21243955194950103760f, 0.075946904718875885010f, 0.63375967741012573242f, -0.29365277290344238281f, -0.25968870520591735840f, -0.062300544232130050659f, -0.33636742830276489258f, 0.26969429850578308105f, -0.34829229116439819336f, -0.54841357469558715820f, 0.24311681091785430908f, -0.27623936533927917480f, -0.50136154890060424805f, -0.25603735446929931641f, -0.34251722693443298340f, -0.47357299923896789551f, -0.45281508564949035645f};
static const float tensor_features_5_conv_5_fc_2_weight[72][24] = 
{
  {-0.67695379257202148438f, 0.55378931760787963867f, 0.099467284977436065674f, 0.24827590584754943848f, 0.0095831612125039100647f, 0.42707037925720214844f, -0.085845917463302612305f, 0.011532076634466648102f, 0.12848976254463195801f, -0.41519588232040405273f, 0.12603254616260528564f, 0.16632702946662902832f, 0.78291141986846923828f, 0.15886294841766357422f, 0.20166057348251342773f, -0.12413594871759414673f, -0.066640198230743408203f, 0.70123744010925292969f, 0.16972433030605316162f, 0.10929682105779647827f, -0.054612733423709869385f, 0.078672572970390319824f, -0.17027452588081359863f, -0.38264337182044982910f},
  {0.14783285558223724365f, 0.70207345485687255859f, 0.041461002081632614136f, 0.21716903150081634521f, 0.095244213938713073730f, -0.084225244820117950439f, -0.050427760928869247437f, -0.065193727612495422363f, -0.47026392817497253418f, -0.25502616167068481445f, -0.061029236763715744019f, 0.56286823749542236328f, -0.27899745106697082520f, -0.15764828026294708252f, 0.37897771596908569336f, 0.25049662590026855469f, 0.80472820997238159180f, -0.35194629430770874023f, -0.023456668481230735779f, 0.056162141263484954834f, 0.20225894451141357422f, 0.020811261609196662903f, 0.17446428537368774414f, -0.0078732194378972053528f},
  {0.091715559363365173340f, 0.21319368481636047363f, -0.0076473238877952098846f, 0.16777402162551879883f, 0.043023444712162017822f, -0.014441494829952716827f, -0.043005783110857009888f, -0.062196187674999237061f, -0.78876465559005737305f, 0.049917165189981460571f, 0.16287767887115478516f, 0.50277048349380493164f, 0.52538275718688964844f, 0.0052588055841624736786f, 0.042411997914314270020f, 0.18536968529224395752f, 0.56513828039169311523f, 0.62997931241989135742f, 0.039367318153381347656f, 0.29521867632865905762f, -0.082636266946792602539f, -0.068702049553394317627f, 0.23936715722084045410f, 0.33436679840087890625f},
  {0.013827801682054996490f, -0.023109398782253265381f, -0.050649065524339675903f, -0.40865209698677062988f, -0.023268744349479675293f, 0.086231581866741180420f, 0.0048101623542606830597f, 0.014700737781822681427f, -0.022047517821192741394f, -0.0047560506500303745270f, -0.096748419106006622314f, 0.15317858755588531494f, 0.085515178740024566650f, -0.14397452771663665771f, -0.060813520103693008423f, 0.16978737711906433105f, 0.16941711306571960449f, 0.080839931964874267578f, 0.027978232130408287048f, 0.040950566530227661133f, 0.25105968117713928223f, 0.10139584541320800781f, 0.030873581767082214355f, 0.16154083609580993652f},
  {-0.24696974456310272217f, 0.11145068705081939697f, 0.0033231230918318033218f, 0.12705858051776885986f, -0.028133714571595191956f, 0.44927716255187988281f, 0.063199445605278015137f, -0.0032458282075822353363f, 1.0723128318786621094f, -0.30685326457023620605f, 0.049821000546216964722f, -0.28705579042434692383f, 0.56491154432296752930f, -0.024699931964278221130f, 0.0080287139862775802612f, 0.0079135587438941001892f, 0.12669567763805389404f, 0.59112799167633056641f, -0.032699014991521835327f, -0.18279519677162170410f, 0.16724944114685058594f, 0.00035763310734182596207f, 0.027490172535181045532f, -0.060992572456598281860f},
  {0.20317970216274261475f, 0.18645942211151123047f, 0.026719862595200538635f, 0.036490689963102340698f, 0.043132402002811431885f, -0.22042244672775268555f, -0.028138965368270874023f, -0.013219449669122695923f, 0.10617418587207794189f, -0.97722923755645751953f, 0.078950203955173492432f, 0.75979572534561157227f, 0.33300769329071044922f, -0.080563880503177642822f, 0.57787603139877319336f, -0.087864160537719726562f, -0.056747566908597946167f, 0.89439409971237182617f, 0.086173713207244873047f, -0.067741908133029937744f, 0.18175175786018371582f, -0.14648367464542388916f, -0.10861251503229141235f, 0.54755926132202148438f},
  {-0.020951537415385246277f, -0.11875505000352859497f, -0.014419099316000938416f, -0.16389831900596618652f, -0.065212167799472808838f, -0.10047826170921325684f, -0.047956906259059906006f, -0.0060137566179037094116f, 0.0080523872748017311096f, -0.0026921688113361597061f, 0.10454176366329193115f, 0.13759370148181915283f, 0.12898238003253936768f, -0.11383334547281265259f, -0.041791412979364395142f, -0.60131001472473144531f, 0.14976897835731506348f, 0.033957831561565399170f, -0.12932881712913513184f, -0.13581578433513641357f, 0.32677480578422546387f, 0.13978508114814758301f, 0.15513889491558074951f, -0.66490101814270019531f},
  {0.094411939382553100586f, -0.19944052398204803467f, -0.046545509248971939087f, -0.23462925851345062256f, 0.0033745921682566404343f, -0.32333049178123474121f, -0.034670136868953704834f, 0.00049870013026520609856f, -0.33050334453582763672f, -0.42206966876983642578f, -0.0078495191410183906555f, 0.14623430371284484863f, -0.71678733825683593750f, -0.12064281105995178223f, 0.28191038966178894043f, -0.27862399816513061523f, -0.19397740066051483154f, -0.55613094568252563477f, 0.078092746436595916748f, 0.054693765938282012939f, -0.040949672460556030273f, -0.021898653358221054077f, -0.00011908214946743100882f, 0.029563782736659049988f},
  {0.11992333084344863892f, 0.16464073956012725830f, -0.0036401047836989164352f, -0.18080163002014160156f, 0.027536010369658470154f, -0.13321043550968170166f, -0.040198963135480880737f, -0.012475636787712574005f, -0.24940282106399536133f, 0.23893827199935913086f, -0.13476377725601196289f, -0.39072930812835693359f, -0.020177923142910003662f, 0.042684298008680343628f, 0.10113398730754852295f, 0.065338030457496643066f, -0.056722309440374374390f, -0.089029803872108459473f, 0.034692946821451187134f, -0.15502725541591644287f, -0.039023954421281814575f, 0.066008768975734710693f, -0.20127193629741668701f, -0.30475097894668579102f},
  {-0.59081822633743286133f, 0.11609869450330734253f, 0.093386270105838775635f, 0.33901917934417724609f, 0.032916706055402755737f, -0.46726202964782714844f, 0.026629325002431869507f, 0.015862151980400085449f, -0.22490943968296051025f, -0.29798489809036254883f, 0.12836970388889312744f, -0.34314253926277160645f, 0.29221183061599731445f, -0.14918960630893707275f, 0.013535086996853351593f, 0.77701628208160400391f, 0.40158829092979431152f, 0.17556722462177276611f, -0.073232688009738922119f, 0.025940993800759315491f, -0.18144163489341735840f, -0.0012167632812634110451f, 0.078284718096256256104f, 0.048129655420780181885f},
  {0.011050635948777198792f, 0.36895814538002014160f, -0.021166400983929634094f, 0.20452751219272613525f, 0.013781532645225524902f, 0.58498698472976684570f, 0.057927995920181274414f, 0.096392959356307983398f, -0.14300610125064849854f, -0.44364127516746520996f, 0.22252611815929412842f, 0.32351121306419372559f, 0.17052841186523437500f, 0.044356815516948699951f, 0.46055954694747924805f, 0.32762455940246582031f, 0.17525608837604522705f, 0.0056146322749555110931f, 0.12966634333133697510f, 0.097034305334091186523f, -0.19240669906139373779f, -0.18868617713451385498f, -0.0062491158023476600647f, -0.11647434532642364502f},
  {-0.11865545809268951416f, -0.051019284874200820923f, -0.064717814326286315918f, -0.28706455230712890625f, -0.093819089233875274658f, -0.099885500967502593994f, -0.066334299743175506592f, 0.0051402682438492774963f, -0.16694699227809906006f, 0.094603821635246276855f, 0.037415955215692520142f, 0.37885126471519470215f, 0.31826710700988769531f, -0.25109955668449401855f, 0.21451695263385772705f, -0.40426358580589294434f, 0.38312986493110656738f, 0.051029965281486511230f, -0.033167775720357894897f, -0.16938848793506622314f, -0.13814884424209594727f, -0.010907715186476707458f, 0.17396560311317443848f, 0.10634208470582962036f},
  {0.60337781906127929688f, 0.44322258234024047852f, -0.010557128116488456726f, 0.17648455500602722168f, -0.012320769019424915314f, 0.39453777670860290527f, 0.0052174679003655910492f, 0.0056275096721947193146f, -0.10883317887783050537f, 0.55492705106735229492f, 0.025492314249277114868f, 0.44802489876747131348f, -0.14205490052700042725f, 0.050870038568973541260f, 0.57004177570343017578f, 0.050565302371978759766f, 0.46120256185531616211f, -0.024211023002862930298f, -0.0022194951307028532028f, 0.019175602123141288757f, 0.060394842177629470825f, 0.076208159327507019043f, 0.23016312718391418457f, 0.22983118891716003418f},
  {-0.23743389546871185303f, 0.097730427980422973633f, -0.038696013391017913818f, 0.11035957187414169312f, 0.075782217085361480713f, 0.33730143308639526367f, 0.081896707415580749512f, -0.021308416500687599182f, 0.87035065889358520508f, -0.29755845665931701660f, 0.061123080551624298096f, 0.084684602916240692139f, 0.38339191675186157227f, 0.029091803357005119324f, 0.10183048993349075317f, 0.023201765492558479309f, 0.057561945170164108276f, 0.44895109534263610840f, -0.077577918767929077148f, -0.32336205244064331055f, -0.013657929375767707825f, -0.29689151048660278320f, -0.017904752865433692932f, -0.60682338476181030273f},
  {-0.21539957821369171143f, -0.45117703080177307129f, 0.057129949331283569336f, -0.24664917588233947754f, -0.11798460036516189575f, 0.31151902675628662109f, 0.028979219496250152588f, 0.13652609288692474365f, 0.50198310613632202148f, 0.31370091438293457031f, 0.0095350071787834167480f, 0.0026065274141728878021f, -0.10226440429687500000f, 0.034230925142765045166f, -0.23466762900352478027f, -0.48409733176231384277f, 0.10101719945669174194f, -0.28294959664344787598f, 0.024081746116280555725f, -0.11824297159910202026f, -0.092768587172031402588f, 0.12060511857271194458f, -0.27353277802467346191f, -0.054193317890167236328f},
  {0.24828554689884185791f, 0.069557428359985351562f, -0.017957629635930061340f, -0.083788111805915832520f, 0.040004331618547439575f, -0.013943582773208618164f, -0.096097700297832489014f, 0.056961871683597564697f, -0.083836592733860015869f, 0.59578865766525268555f, -0.024905834347009658813f, -0.25535985827445983887f, -0.021794499829411506653f, -0.096487887203693389893f, -0.36370506882667541504f, 0.84195560216903686523f, -0.36441528797149658203f, -0.22949604690074920654f, 0.023044450208544731140f, -0.16031463444232940674f, -0.022492824122309684753f, 0.18975654244422912598f, -0.23822551965713500977f, -0.049470718950033187866f},
  {-0.17036998271942138672f, 0.20744149386882781982f, 0.026170194149017333984f, -0.056799020618200302124f, -0.072892598807811737061f, 0.58510744571685791016f, 0.0054847188293933868408f, 0.044697079807519912720f, 0.75763428211212158203f, 0.51367187500000000000f, 0.084814816713333129883f, -0.22052243351936340332f, 0.45379510521888732910f, 0.035463090986013412476f, -0.27387312054634094238f, -0.080612145364284515381f, 0.31964579224586486816f, -0.32767254114151000977f, -0.20701676607131958008f, -0.022625938057899475098f, -0.10565364360809326172f, -0.0017996224341914057732f, -0.097331695258617401123f, -0.19264280796051025391f},
  {0.50962364673614501953f, 0.39075872302055358887f, 0.072857186198234558105f, 0.0075939558446407318115f, 0.064097709953784942627f, 0.42569500207901000977f, 0.041291091591119766235f, -0.0099908458068966865540f, 0.27896574139595031738f, 0.38788533210754394531f, 0.042097751051187515259f, 0.12962752580642700195f, 0.52748376131057739258f, -0.11186491698026657104f, -0.0071148769930005073547f, -0.39717146754264831543f, 0.057010531425476074219f, -0.0077943163923919200897f, -0.13023807108402252197f, -0.42461246252059936523f, 0.016496414318680763245f, -0.10085108131170272827f, -0.085165597498416900635f, -0.25499185919761657715f},
  {-0.18025474250316619873f, -0.31354323029518127441f, 0.038076534867286682129f, -0.18931944668292999268f, -0.029356254264712333679f, -0.11055137217044830322f, -0.0052298195660114288330f, -0.023496964946389198303f, 0.78999531269073486328f, -0.87444019317626953125f, 0.058486577123403549194f, -0.16976007819175720215f, -0.24322322010993957520f, -0.11972852051258087158f, -0.13488118350505828857f, 0.36393234133720397949f, -0.50636601448059082031f, -0.22780041396617889404f, -0.12887611985206604004f, -0.17249228060245513916f, -0.072317488491535186768f, -0.016936548054218292236f, -0.10751992464065551758f, -0.089060813188552856445f},
  {-0.39650610089302062988f, 0.34356611967086791992f, -0.0072486256249248981476f, -0.041859745979309082031f, 0.073488786816596984863f, -0.025746235623955726624f, 0.048791352659463882446f, -0.033991627395153045654f, -0.048060931265354156494f, -0.27117124199867248535f, -0.10079516470432281494f, -0.57331097126007080078f, 0.093204908072948455811f, 0.0068374639376997947693f, -0.049460630863904953003f, 0.12898157536983489990f, -0.23383675515651702881f, 0.24915361404418945312f, 0.14465695619583129883f, 0.067932017147541046143f, -0.077701352536678314209f, -0.15633100271224975586f, 0.053390540182590484619f, 0.079046793282032012939f},
  {0.10991111397743225098f, -0.54158759117126464844f, -0.011334122158586978912f, -0.23026230931282043457f, 0.014799292199313640594f, -0.16440269351005554199f, -0.036134876310825347900f, 0.028890302404761314392f, -0.29130557179450988770f, -0.0038081409875303506851f, -0.083417110145092010498f, -0.14161381125450134277f, -0.65200132131576538086f, -0.028659952804446220398f, -0.044588431715965270996f, -0.069146029651165008545f, 0.11290122568607330322f, -0.48813268542289733887f, -0.020892878994345664978f, 0.26932668685913085938f, 0.0069088274613022804260f, -0.28153637051582336426f, -0.35852634906768798828f, -0.30645167827606201172f},
  {-0.47120505571365356445f, -0.17398840188980102539f, 0.046567451208829879761f, 0.16882205009460449219f, -0.0010312239173799753189f, -0.23175971210002899170f, -0.044464796781539916992f, 0.029403986409306526184f, -0.23212082684040069580f, 0.73274731636047363281f, 0.13481026887893676758f, -0.12364052236080169678f, -0.81101578474044799805f, 0.090187683701515197754f, -0.17713265120983123779f, 0.39841383695602416992f, -0.66528183221817016602f, -0.70765322446823120117f, 0.046868078410625457764f, 0.22110243141651153564f, 0.15917551517486572266f, -0.16036596894264221191f, 0.096004202961921691895f, -0.024503234773874282837f},
  {-0.0014207699568942189217f, -0.29382622241973876953f, -0.13185578584671020508f, -0.20159764587879180908f, 0.0014596567489206790924f, 0.13902348279953002930f, 0.0058111692778766155243f, -0.00065178796648979187012f, -0.070906378328800201416f, 0.00024867604952305555344f, -0.16859713196754455566f, -0.14562043547630310059f, 0.036005210131406784058f, -0.0017990473425015807152f, 0.31135290861129760742f, 0.30555781722068786621f, 0.15040767192840576172f, -0.059401605278253555298f, 0.024072496220469474792f, -0.086838245391845703125f, -0.15577518939971923828f, 0.10662145167589187622f, -0.15208838880062103271f, -0.22666519880294799805f},
  {0.48433130979537963867f, 0.90027016401290893555f, 0.00042587649659253656864f, -0.093427434563636779785f, -0.022528540343046188354f, -0.10053060948848724365f, 0.016282821074128150940f, 0.028876174241304397583f, -0.13842946290969848633f, 0.38693603873252868652f, -0.12119309604167938232f, 0.69655323028564453125f, 0.46818324923515319824f, -0.036779083311557769775f, 0.76881349086761474609f, -0.33641278743743896484f, 0.48895227909088134766f, 0.88637053966522216797f, 0.039164736866950988770f, 0.15641741454601287842f, -0.10694213211536407471f, -0.12578533589839935303f, 0.15393695235252380371f, 0.60417032241821289062f},
  {0.81060987710952758789f, -0.20335240662097930908f, -0.044262520968914031982f, -0.23193171620368957520f, -0.047630410641431808472f, -0.0010480381315574049950f, 0.022975308820605278015f, -0.088866643607616424561f, -0.80203914642333984375f, 0.45055350661277770996f, 0.019487969577312469482f, -0.11530070751905441284f, 0.10840465873479843140f, -0.13134121894836425781f, 0.17192046344280242920f, 0.43737459182739257812f, 0.12944234907627105713f, 0.15927697718143463135f, -0.015084915794432163239f, 0.11977925151586532593f, -0.063886158168315887451f, 0.093347407877445220947f, 0.26677721738815307617f, -0.23857022821903228760f},
  {-0.17633374035358428955f, -0.15118616819381713867f, 0.11250111460685729980f, -0.045186549425125122070f, 0.031091481447219848633f, -0.017074501141905784607f, -0.12417635321617126465f, -0.088924571871757507324f, -0.098520651459693908691f, 0.22614929080009460449f, 0.22083611786365509033f, 0.25822779536247253418f, 0.086673401296138763428f, -0.11521691828966140747f, 0.31504595279693603516f, -0.16941358149051666260f, -0.18980605900287628174f, -0.084864661097526550293f, 0.12897284328937530518f, -0.037233222275972366333f, 0.087640665471553802490f, 0.33848983049392700195f, 0.24580290913581848145f, 0.043926183134317398071f},
  {0.095924399793148040771f, 0.16090817749500274658f, -0.028030548244714736938f, -0.024763250723481178284f, -0.045437794178724288940f, -0.28949835896492004395f, 0.0083101456984877586365f, -0.041670545935630798340f, 0.22004507482051849365f, 0.032860998064279556274f, -0.11572285741567611694f, 0.18929366767406463623f, 0.096377611160278320312f, 0.0073726256377995014191f, 0.047217514365911483765f, 0.018793286755681037903f, -0.011354551650583744049f, -0.077372722327709197998f, -0.060440357774496078491f, 0.52299141883850097656f, -0.089011833071708679199f, -0.18543343245983123779f, -0.011493097059428691864f, -0.10548753291368484497f},
  {0.21856717765331268311f, -0.020135965198278427124f, -0.063189856708049774170f, 0.28587535023689270020f, 0.017627051100134849548f, 0.77588397264480590820f, -0.013768051750957965851f, -0.013069353997707366943f, 0.30296453833580017090f, -0.34219765663146972656f, -0.017293522134423255920f, -0.052952934056520462036f, -0.13658009469509124756f, 0.047479696571826934814f, 0.14033691585063934326f, -0.17609350383281707764f, -0.17488607764244079590f, -0.56282758712768554688f, 0.14143258333206176758f, -0.12109397351741790771f, -0.13170905411243438721f, 0.012940703891217708588f, -0.15212261676788330078f, -0.48181468248367309570f},
  {-0.47533211112022399902f, -0.24813714623451232910f, 0.043410915881395339966f, -0.17462767660617828369f, 0.014547106809914112091f, -0.30210995674133300781f, 0.13432361185550689697f, 0.048978831619024276733f, 0.23675198853015899658f, -0.49272558093070983887f, -0.050584014505147933960f, 0.12999261915683746338f, -0.90131527185440063477f, -0.065874993801116943359f, 0.29280799627304077148f, -0.48103427886962890625f, -0.17810575664043426514f, -0.40467888116836547852f, -0.048363938927650451660f, -0.090935543179512023926f, -0.17224231362342834473f, 0.070368565618991851807f, -0.036620263010263442993f, -0.030312454327940940857f},
  {-0.37710961699485778809f, -0.44598531723022460938f, -0.010323509573936462402f, 0.24033923447132110596f, 0.014369546435773372650f, -0.13599120080471038818f, 0.073520772159099578857f, 0.023794705048203468323f, -0.36112818121910095215f, -0.37381631135940551758f, -0.0094403224065899848938f, 0.35494330525398254395f, -0.38880950212478637695f, 0.12144336104393005371f, -0.041636951267719268799f, 0.62872368097305297852f, 0.30469274520874023438f, -0.39807704091072082520f, 0.0015110343229025602341f, 0.24234357476234436035f, -0.13891118764877319336f, 0.21146647632122039795f, 0.33690807223320007324f, -0.0037301697302609682083f},
  {-0.24532167613506317139f, 0.050476536154747009277f, 0.0015866457251831889153f, 0.075054705142974853516f, -0.021076722070574760437f, 0.098142154514789581299f, -0.10052665323019027710f, 0.027374416589736938477f, -0.58611834049224853516f, -0.16417825222015380859f, 0.011089374311268329620f, 0.50709640979766845703f, -0.21700640022754669189f, 0.20464919507503509521f, 0.30764943361282348633f, -0.28406536579132080078f, 0.53874057531356811523f, -0.038206666707992553711f, 0.095279268920421600342f, -0.051061253994703292847f, 0.027316708117723464966f, 0.0033842679113149642944f, 0.30866852402687072754f, -0.14518842101097106934f},
  {0.34221705794334411621f, -0.078179933130741119385f, -0.023128390312194824219f, -0.11875950545072555542f, -0.053055331110954284668f, 0.47379249334335327148f, -0.012078150175511837006f, -0.035459123551845550537f, 0.32057887315750122070f, 0.074264928698539733887f, -0.053245428949594497681f, -0.017001414671540260315f, 0.89068126678466796875f, -0.0081445220857858657837f, 0.56411349773406982422f, 0.38726598024368286133f, -0.12486678361892700195f, -0.19546259939670562744f, 0.33064469695091247559f, -0.073628008365631103516f, 0.10980419069528579712f, 0.23209793865680694580f, 0.46954184770584106445f, 0.081183277070522308350f},
  {0.030287945643067359924f, -0.80488532781600952148f, 0.0040387930348515510559f, 0.020633049309253692627f, -0.095916137099266052246f, -0.11145185679197311401f, -0.016380423679947853088f, -0.00083538191393017768860f, 0.29900500178337097168f, 0.32467538118362426758f, -0.023061566054821014404f, 0.26991143822669982910f, -0.76772671937942504883f, 0.27112579345703125000f, -0.033037725836038589478f, 0.010104059241712093353f, -0.040885411202907562256f, -0.21169944107532501221f, 0.0098139476031064987183f, -0.048825368285179138184f, 0.10011992603540420532f, 0.021543074399232864380f, 0.40783295035362243652f, 0.17900125682353973389f},
  {-0.24526599049568176270f, -0.42463839054107666016f, 0.012574739754199981689f, -0.32633686065673828125f, 0.041558604687452316284f, -0.21013395488262176514f, 0.043883278965950012207f, -0.011353413574397563934f, -0.23560322821140289307f, -0.87267708778381347656f, 0.11428509652614593506f, -0.16839228570461273193f, -0.17839720845222473145f, -0.22269447147846221924f, -0.091911554336547851562f, 0.21817003190517425537f, -0.062794230878353118896f, -0.065792158246040344238f, -0.035120744258165359497f, 0.031751215457916259766f, -0.040438640862703323364f, -0.18696707487106323242f, -0.018068572506308555603f, -0.061265155673027038574f},
  {-0.55592089891433715820f, -0.33371940255165100098f, 0.011237944476306438446f, 0.24952751398086547852f, 0.063886910676956176758f, 0.097433716058731079102f, -0.078497737646102905273f, 0.030915796756744384766f, 0.68525153398513793945f, -0.048262454569339752197f, -0.00046463077887892723083f, -0.45171988010406494141f, 0.038964457809925079346f, 0.22556066513061523438f, -0.24039806425571441650f, 0.85968536138534545898f, 0.20622853934764862061f, 0.026295633986592292786f, 0.071136742830276489258f, -0.14979894459247589111f, 0.26615497469902038574f, -0.012316484004259109497f, -0.28977689146995544434f, -0.020091131329536437988f},
  {-0.18497833609580993652f, 0.50628006458282470703f, 0.031472846865653991699f, -0.16774533689022064209f, -0.14258885383605957031f, -0.79574644565582275391f, -0.14956533908843994141f, 0.025909991934895515442f, -0.25185683369636535645f, -0.61885076761245727539f, 0.0097961332648992538452f, 0.24578508734703063965f, 0.26557716727256774902f, -0.10076430439949035645f, 0.090878978371620178223f, -0.28302383422851562500f, 0.061399940401315689087f, 0.61173862218856811523f, 0.035596322268247604370f, -0.16748653352260589600f, 0.037817019969224929810f, -0.088115103542804718018f, -0.50295698642730712891f, -0.10856148600578308105f},
  {-0.59920769929885864258f, 0.28855720162391662598f, -0.091983027756214141846f, -0.085288196802139282227f, 0.11369845271110534668f, -0.31795421242713928223f, -0.014680746011435985565f, 0.019087590277194976807f, -0.28539624810218811035f, 0.010907029733061790466f, 0.10281752794981002808f, -0.0054435669444501399994f, 0.068840980529785156250f, -0.19753818213939666748f, 0.12584839761257171631f, -0.088438726961612701416f, 0.14869020879268646240f, 0.24620516598224639893f, 0.024067943915724754333f, 0.18422114849090576172f, -0.10839255154132843018f, 0.033770609647035598755f, -0.17907105386257171631f, -0.37342348694801330566f},
  {-0.018350463360548019409f, -0.098238512873649597168f, 0.12057007849216461182f, -0.30391937494277954102f, -0.0029429278802126646042f, -0.15798400342464447021f, -0.086996406316757202148f, -0.023509327322244644165f, -0.49602329730987548828f, -0.27808919548988342285f, 0.025106266140937805176f, -0.057460386306047439575f, 0.16114836931228637695f, -0.016174718737602233887f, -0.61678242683410644531f, -0.41262522339820861816f, -0.13265137374401092529f, 0.091953247785568237305f, 0.15208728611469268799f, -0.23018763959407806396f, 0.12495609372854232788f, 0.10732850432395935059f, -0.54066973924636840820f, -0.70246410369873046875f},
  {-0.57795166969299316406f, -0.33979874849319458008f, -0.079658038914203643799f, -0.11772096902132034302f, -0.045719373971223831177f, 0.12661668658256530762f, -0.024537550285458564758f, -0.019340544939041137695f, 0.41778668761253356934f, -0.30159175395965576172f, 0.049704078584909439087f, -0.82810747623443603516f, 0.070044934749603271484f, 0.016083052381873130798f, -0.66227531433105468750f, 0.32864803075790405273f, -0.62001693248748779297f, -0.38419848680496215820f, -0.00052409467753022909164f, -0.28098756074905395508f, 0.12768685817718505859f, -0.092083975672721862793f, -0.079461194574832916260f, -0.090631216764450073242f},
  {-0.16941913962364196777f, -0.17642591893672943115f, -0.060070753097534179688f, 0.11655161529779434204f, -0.12297882884740829468f, 0.10706138610839843750f, 7.5306306825950741768e-05f, 0.0045598330907523632050f, 0.29910385608673095703f, 0.19162441790103912354f, 0.20592151582241058350f, 0.15794757008552551270f, -0.58698201179504394531f, 0.14100208878517150879f, 0.016637338325381278992f, -0.21128863096237182617f, -0.058750182390213012695f, -0.62484979629516601562f, -0.048129040747880935669f, 0.12025862187147140503f, -0.065964065492153167725f, 0.061809636652469635010f, 0.14784243702888488770f, -0.031924162060022354126f},
  {0.48705747723579406738f, 0.050751861184835433960f, 0.078718386590480804443f, 0.18403720855712890625f, 0.13736191391944885254f, -0.36845621466636657715f, -0.016361339017748832703f, 0.027508236467838287354f, -1.1637361049652099609f, -0.16268806159496307373f, 0.11487009376287460327f, 0.068358287215232849121f, -0.15661804378032684326f, -0.12169611454010009766f, 0.56525564193725585938f, 0.20276352763175964355f, 0.30466169118881225586f, -0.074162662029266357422f, 0.039991609752178192139f, 0.082476623356342315674f, -0.030184056609869003296f, -0.069539710879325866699f, 0.42216044664382934570f, -0.023277472704648971558f},
  {0.46957680583000183105f, 0.69472163915634155273f, -0.0047905989922583103180f, 0.023662030696868896484f, 0.062761917710304260254f, -0.0070403707213699817657f, -0.072920128703117370605f, -0.054146118462085723877f, -0.71306991577148437500f, 0.75200164318084716797f, 0.026145499199628829956f, 0.18355830013751983643f, 0.55010384321212768555f, -0.019079701974987983704f, 0.31504034996032714844f, -0.042300004512071609497f, 0.37850266695022583008f, 0.29203149676322937012f, 0.015464265830814838409f, 0.11464262008666992188f, -0.096676401793956756592f, -0.049983628094196319580f, -0.18906353414058685303f, -0.057283136993646621704f},
  {-0.10954634100198745728f, -0.20423600077629089355f, -0.010167173109948635101f, 0.035197801887989044189f, 0.032393503934144973755f, 0.55508345365524291992f, 0.069747202098369598389f, -0.0062883752398192882538f, 0.070591367781162261963f, -0.60244888067245483398f, -0.12686930596828460693f, -0.012626150622963905334f, -0.36284539103507995605f, 0.23769161105155944824f, -0.092493936419486999512f, 0.22177548706531524658f, 0.043617539107799530029f, -0.52237886190414428711f, 0.022663947194814682007f, -0.11436659097671508789f, 0.073901668190956115723f, 0.15980322659015655518f, -0.24347229301929473877f, 0.29234492778778076172f},
  {-0.041769426316022872925f, -0.34469756484031677246f, -0.060996472835540771484f, -0.028273109346628189087f, -0.10363308340311050415f, 0.49401554465293884277f, -0.044477596879005432129f, -0.010163009166717529297f, 0.47842040657997131348f, 0.37418782711029052734f, -0.068356566131114959717f, -0.22077892720699310303f, -0.25139024853706359863f, 0.0035726458299905061722f, 0.066099204123020172119f, -0.24558162689208984375f, -0.32757857441902160645f, 0.0048394277691841125488f, 0.078159406781196594238f, -0.14764416217803955078f, 0.033946037292480468750f, 0.15623264014720916748f, 0.083424463868141174316f, -0.25836506485939025879f},
  {0.027391415089368820190f, -0.27988797426223754883f, -0.024586642161011695862f, -0.24961833655834197998f, -0.0047227144241333007812f, -0.27646592259407043457f, 0.022423567250370979309f, 0.075793258845806121826f, 0.19145172834396362305f, 0.15608412027359008789f, -0.024759804829955101013f, 0.80488467216491699219f, -0.60776770114898681641f, -0.10146731138229370117f, 0.72568708658218383789f, -0.51861208677291870117f, 0.43005776405334472656f, -0.93534529209136962891f, 0.055108144879341125488f, 0.15219365060329437256f, 0.041347585618495941162f, -0.093310698866844177246f, 0.13585209846496582031f, 0.28369906544685363770f},
  {-0.031785897910594940186f, 0.033357113599777221680f, -0.048711992800235748291f, -0.16427275538444519043f, -0.055796198546886444092f, 0.30340030789375305176f, 0.031225893646478652954f, 0.053673185408115386963f, 0.13414596021175384521f, 0.18138216435909271240f, -0.14773716032505035400f, 0.34074178338050842285f, -0.15653041005134582520f, -0.10519934445619583130f, -0.23367606103420257568f, 0.078053407371044158936f, -0.026687113568186759949f, -0.37308344244956970215f, -0.016989445313811302185f, 0.10486299544572830200f, -0.18153533339500427246f, 0.037420913577079772949f, 0.10574109852313995361f, -0.13054789602756500244f},
  {-0.39335164427757263184f, -0.35321527719497680664f, 0.064000569283962249756f, 0.17971649765968322754f, -0.0015064618783071637154f, -0.66240173578262329102f, -0.060874380171298980713f, -0.031382195651531219482f, -0.44209688901901245117f, -0.39636906981468200684f, 0.045984961092472076416f, 0.11486056447029113770f, -0.25500658154487609863f, -0.011280660517513751984f, 0.14998078346252441406f, 0.49107849597930908203f, -0.029711054638028144836f, 0.20430435240268707275f, 0.032782468944787979126f, 0.060055334120988845825f, -0.013282662257552146912f, -0.097386591136455535889f, -0.070818684995174407959f, 0.024341138079762458801f},
  {0.50229001045227050781f, 0.21415127813816070557f, 0.0057286689989268779755f, 0.43307420611381530762f, 0.024104323238134384155f, 0.17805042862892150879f, -0.068003334105014801025f, -0.042240537703037261963f, 0.64385014772415161133f, 0.16215023398399353027f, 0.023358128964900970459f, 0.64297169446945190430f, 0.48599398136138916016f, -0.24833664298057556152f, 0.47493404150009155273f, 0.26534658670425415039f, 0.22296400368213653564f, 0.024824889376759529114f, -0.048167210072278976440f, -0.15283562242984771729f, 0.19307920336723327637f, -0.040803786367177963257f, 0.21462564170360565186f, 0.25602984428405761719f},
  {0.16630934178829193115f, -0.59565901756286621094f, 0.10195855051279067993f, 0.22986720502376556396f, 0.040427763015031814575f, 0.19593529403209686279f, 0.19749522209167480469f, 0.074693143367767333984f, 0.091209635138511657715f, 0.51522290706634521484f, -0.0034854814875870943069f, -0.041824728250503540039f, 0.018309053033590316772f, 0.083590738475322723389f, 0.26545462012290954590f, 0.043154440820217132568f, -0.19403471052646636963f, -0.22745436429977416992f, -0.11489177495241165161f, -0.033069312572479248047f, 0.11590065062046051025f, 0.0067617846652865409851f, 0.064842700958251953125f, 0.63088560104370117188f},
  {0.71438109874725341797f, 0.056359298527240753174f, 0.0045967870391905307770f, 0.023664437234401702881f, 0.056990176439285278320f, 0.53210186958312988281f, 0.19522601366043090820f, -0.0084395753219723701477f, 0.10191803425550460815f, 0.35319235920906066895f, -0.12474311888217926025f, 0.32303586602210998535f, 0.71642982959747314453f, 0.014381034299731254578f, 0.38783127069473266602f, 0.39447933435440063477f, 0.57745254039764404297f, 0.50731635093688964844f, 0.015426239930093288422f, 0.22350244224071502686f, 0.080072246491909027100f, 0.022376634180545806885f, 0.57693105936050415039f, 0.74442142248153686523f},
  {-0.45534190535545349121f, -0.48873785138130187988f, -0.015614637173712253571f, -0.073067612946033477783f, 0.037771143019199371338f, -0.056884974241256713867f, -0.070049054920673370361f, -0.069760695099830627441f, 0.61574083566665649414f, -0.30980935692787170410f, -0.064558312296867370605f, 0.21216094493865966797f, -0.20098507404327392578f, -0.17356781661510467529f, 0.10015726834535598755f, 0.26700085401535034180f, -0.021108759567141532898f, -0.14905773103237152100f, -0.031698353588581085205f, 0.032680183649063110352f, 0.27546051144599914551f, -0.16655805706977844238f, -0.15904884040355682373f, 0.16963014006614685059f},
  {1.0265467166900634766f, -0.27532944083213806152f, -0.14731009304523468018f, -0.070720948278903961182f, -0.11231308430433273315f, -0.13544422388076782227f, 0.030559549108147621155f, 0.031582389026880264282f, -0.51767426729202270508f, 0.15196953713893890381f, 0.012386724352836608887f, 0.11800878494977951050f, 0.14865951240062713623f, 0.030208328738808631897f, 0.18458162248134613037f, 0.34574580192565917969f, 0.011851225048303604126f, 0.37017470598220825195f, -0.041081391274929046631f, 0.050032898783683776855f, 0.0086405333131551742554f, 0.10271646082401275635f, 0.061269324272871017456f, 0.018905660137534141541f},
  {-0.39203554391860961914f, -0.30639368295669555664f, 0.033840380609035491943f, 0.17670613527297973633f, -0.10343625396490097046f, -0.36261281371116638184f, -0.031092600896954536438f, -0.090497434139251708984f, 0.038676090538501739502f, -0.12492860853672027588f, -0.30112853646278381348f, 0.33925566077232360840f, -0.25709351897239685059f, 0.021350961178541183472f, -0.66713380813598632812f, -0.63132590055465698242f, -0.096245631575584411621f, 0.020525809377431869507f, -0.25432547926902770996f, -0.12530685961246490479f, -0.27888211607933044434f, 0.10473471879959106445f, 0.21072514355182647705f, 0.20170100033283233643f},
  {-0.082725018262863159180f, 0.20144172012805938721f, 0.033640794456005096436f, -0.41943684220314025879f, -0.036708757281303405762f, -0.51984995603561401367f, 0.011075563728809356689f, -0.099890455603599548340f, 0.36889055371284484863f, -0.81638056039810180664f, -0.21878327429294586182f, 0.11499045789241790771f, 0.10409103333950042725f, -0.082884073257446289062f, -0.040634240955114364624f, -0.40229764580726623535f, -0.38828063011169433594f, 0.21205057203769683838f, -0.12734661996364593506f, 0.21110568940639495850f, -0.038363445550203323364f, 0.055226523429155349731f, 0.029511611908674240112f, -0.074894554913043975830f},
  {-0.32860952615737915039f, 0.20409013330936431885f, -0.055432170629501342773f, -0.18821531534194946289f, 0.037927720695734024048f, -0.18454325199127197266f, 0.026839431375265121460f, -0.011259117163717746735f, 0.19508004188537597656f, -0.66732758283615112305f, 0.072128139436244964600f, -0.11998032033443450928f, 0.16971020400524139404f, 0.10214801877737045288f, -0.11307048797607421875f, -0.39016824960708618164f, -0.38577401638031005859f, 0.33668401837348937988f, 0.18179294466972351074f, 0.082946091890335083008f, 0.17209576070308685303f, 0.078746758401393890381f, -0.26670297980308532715f, 0.12871983647346496582f},
  {0.041566491127014160156f, 0.066031470894813537598f, -0.048950888216495513916f, 0.17424862086772918701f, -0.075559444725513458252f, 0.054007340222597122192f, -0.084938928484916687012f, 0.024577787145972251892f, -0.15468309819698333740f, -0.10177996754646301270f, -0.13172079622745513916f, -0.014224921353161334991f, 0.049195971339941024780f, 0.23052413761615753174f, -0.13910311460494995117f, 0.19785962998867034912f, 0.066726326942443847656f, 0.056988399475812911987f, -0.090174123644828796387f, -0.19553844630718231201f, -0.10206811875104904175f, 0.049163203686475753784f, -0.099074631929397583008f, 0.046910952776670455933f},
  {0.19441181421279907227f, -0.21011090278625488281f, -0.039294891059398651123f, -0.10551884025335311890f, -0.023042950779199600220f, 0.56270951032638549805f, -0.0066260774619877338409f, -0.0043562208302319049835f, 0.052251949906349182129f, -0.40710693597793579102f, 0.037679623812437057495f, -0.35844555497169494629f, 0.22986437380313873291f, -0.25417241454124450684f, 0.40874969959259033203f, 0.52631562948226928711f, -0.42766052484512329102f, -0.15501752495765686035f, 0.13261005282402038574f, -0.12895648181438446045f, -0.012192140333354473114f, 0.067274272441864013672f, 0.45000636577606201172f, -0.33409228920936584473f},
  {0.12902365624904632568f, -0.066833749413490295410f, 0.098862439393997192383f, -0.12457749992609024048f, -0.0022388447541743516922f, 0.73961812257766723633f, 0.080446101725101470947f, 0.11176443099975585938f, 0.77764099836349487305f, 0.44969102740287780762f, 0.039021898061037063599f, -0.19907088577747344971f, 0.63140630722045898438f, -0.090813286602497100830f, -0.15266111493110656738f, -0.13435053825378417969f, 0.11215062439441680908f, 0.50231361389160156250f, 0.089232183992862701416f, 0.088796406984329223633f, -0.099779017269611358643f, 0.065262548625469207764f, 0.26092720031738281250f, -0.20989935100078582764f},
  {0.054550640285015106201f, -0.26565545797348022461f, 0.030502026900649070740f, -0.0054584736935794353485f, -0.080351732671260833740f, -0.65432751178741455078f, 0.050095945596694946289f, 0.12427438795566558838f, -0.056587740778923034668f, -0.50656783580780029297f, -0.034425303339958190918f, -0.10279329121112823486f, 0.051851630210876464844f, -0.049735706299543380737f, -0.21951554715633392334f, -0.23078529536724090576f, -0.23966330289840698242f, -0.21796314418315887451f, -0.16008089482784271240f, 0.23026600480079650879f, 0.099332660436630249023f, -0.090231135487556457520f, 0.24109563231468200684f, -0.070418052375316619873f},
  {0.16280612349510192871f, -0.037845749408006668091f, -0.066189311444759368896f, 0.46421518921852111816f, -0.036843668669462203979f, 0.40410870313644409180f, -0.062000378966331481934f, 0.068768747150897979736f, -0.20993646979331970215f, 0.37628543376922607422f, 0.019732011482119560242f, 0.42784297466278076172f, -0.50009334087371826172f, 0.29404205083847045898f, 0.80907928943634033203f, 0.73036104440689086914f, 0.26260119676589965820f, -0.33292460441589355469f, -0.056125894188880920410f, 0.080207608640193939209f, -0.091608010232448577881f, 0.041683584451675415039f, 0.030760254710912704468f, -0.077795989811420440674f},
  {-0.29973953962326049805f, 0.32263845205307006836f, 0.082061178982257843018f, 0.083919294178485870361f, 0.0098426453769207000732f, -0.39626905322074890137f, -0.020898120477795600891f, 0.033465079963207244873f, -0.048617742955684661865f, -0.12750074267387390137f, 0.0047497805207967758179f, -0.49941736459732055664f, 0.25315663218498229980f, -0.035308897495269775391f, -0.49498504400253295898f, -0.58053690195083618164f, -0.35477179288864135742f, -0.26067063212394714355f, 0.026395928114652633667f, 0.026278885081410408020f, 0.14807309210300445557f, -0.10748860239982604980f, 0.26655611395835876465f, -0.38987746834754943848f},
  {0.31791132688522338867f, 0.37539586424827575684f, 0.089840762317180633545f, -0.29609510302543640137f, -0.033240556716918945312f, -0.34068745374679565430f, -0.0086319372057914733887f, 0.045249689370393753052f, 0.54703330993652343750f, -0.028468253090977668762f, 0.010293968953192234039f, -0.50641703605651855469f, 0.77206218242645263672f, -0.13094069063663482666f, -0.20897768437862396240f, -0.048714093863964080811f, -0.17459388077259063721f, 0.87395703792572021484f, 0.0065778382122516632080f, 0.042402524501085281372f, 0.031190013512969017029f, -0.032290138304233551025f, -0.092657946050167083740f, -0.066700838506221771240f},
  {-0.024966157972812652588f, -0.10488938540220260620f, -0.075744517147541046143f, -0.16743743419647216797f, 0.017460450530052185059f, -0.26447141170501708984f, -0.066117659211158752441f, -0.036711387336254119873f, -0.16307596862316131592f, -0.71065193414688110352f, -0.043499913066625595093f, 5.0047270633513107896e-05f, 0.14153799414634704590f, 0.040176082402467727661f, 0.095711618661880493164f, -0.22783693671226501465f, -0.0021948898211121559143f, -0.083123259246349334717f, -0.093973092734813690186f, 0.080508776009082794189f, -0.091697789728641510010f, 0.020704872906208038330f, -0.19515641033649444580f, 0.21597641706466674805f},
  {0.64636671543121337891f, 0.24513401091098785400f, 0.050583757460117340088f, 0.13257177174091339111f, 0.070580475032329559326f, -0.46091726422309875488f, 0.026880528777837753296f, 0.069001778960227966309f, -0.46304741501808166504f, -0.22355723381042480469f, 0.021807674318552017212f, -0.46888935565948486328f, -0.23166060447692871094f, 0.056745722889900207520f, 0.39320409297943115234f, -0.14986900985240936279f, -0.40334215760231018066f, -0.20573648810386657715f, -0.069320216774940490723f, 0.17402502894401550293f, 0.15350860357284545898f, 0.094985119998455047607f, 0.18390643596649169922f, -0.088244572281837463379f},
  {-0.32323792576789855957f, 0.040889747440814971924f, 0.028514647856354713440f, -0.33388197422027587891f, -0.012221436016261577606f, -0.0064575038850307464600f, 0.019879192113876342773f, 0.074809700250625610352f, -0.30024176836013793945f, -0.33877602219581604004f, 0.027149392291903495789f, 0.48010906577110290527f, -0.45654919743537902832f, -0.042741581797599792480f, -0.080392085015773773193f, -0.069330476224422454834f, 0.25231808423995971680f, -0.25285896658897399902f, -0.0091268578544259071350f, 0.14320549368858337402f, 0.21508949995040893555f, 0.060881301760673522949f, -0.31793811917304992676f, -0.11469018459320068359f},
  {-0.74037152528762817383f, -0.78847384452819824219f, -0.043692037463188171387f, -0.097531527280807495117f, -0.066096879541873931885f, -0.44333943724632263184f, 0.13053624331951141357f, 0.0040908944793045520782f, -0.56125032901763916016f, -0.10253898799419403076f, -0.015701584517955780029f, -0.75293743610382080078f, -1.1671702861785888672f, -0.051970075815916061401f, -0.33764949440956115723f, -0.42068555951118469238f, -0.49741303920745849609f, -0.66045677661895751953f, -0.12853799760341644287f, -0.26931515336036682129f, -0.079172775149345397949f, 0.0042952094227075576782f, -0.088825084269046783447f, 0.051822833716869354248f},
  {0.40944093465805053711f, 0.88278096914291381836f, -0.0038969286251813173294f, -0.097913362085819244385f, 0.0090546840801835060120f, 0.18177849054336547852f, 0.059596940875053405762f, -0.024497626349329948425f, -0.78268343210220336914f, 0.20643937587738037109f, -0.061439123004674911499f, -0.00091589789371937513351f, 0.65057581663131713867f, -0.048044197261333465576f, 0.15598298609256744385f, 0.61135834455490112305f, 0.56379908323287963867f, 0.059569086879491806030f, 0.015491675585508346558f, 0.064089506864547729492f, 0.090505719184875488281f, -0.10408172756433486938f, 0.010587269440293312073f, 0.063069276511669158936f},
  {0.10770519822835922241f, -0.025107651948928833008f, -0.00027056416729465126991f, 0.056539721786975860596f, 0.044460680335760116577f, -0.028302393853664398193f, -0.062701329588890075684f, -0.054098207503557205200f, -0.053419515490531921387f, -0.076747953891754150391f, 0.082465447485446929932f, 0.033748269081115722656f, 0.088298186659812927246f, 0.060731090605258941650f, 0.035633258521556854248f, 0.13584285974502563477f, -0.18919150531291961670f, 0.028534628450870513916f, 0.061096560209989547729f, 0.23796929419040679932f, 0.012394171208143234253f, -0.040911339223384857178f, -0.13939522206783294678f, -0.32799118757247924805f},
  {0.017540303990244865417f, -0.080966420471668243408f, 0.052819814532995223999f, 0.17757485806941986084f, 0.037504769861698150635f, 0.46212264895439147949f, 0.034223258495330810547f, 0.026800503954291343689f, 0.86885935068130493164f, -0.46835559606552124023f, -0.00039661454502493143082f, -0.18708938360214233398f, 0.44404560327529907227f, 0.060373913496732711792f, 0.31441095471382141113f, -0.49916481971740722656f, 0.0067624100483953952789f, 0.73816907405853271484f, 0.085344366729259490967f, 0.24342663586139678955f, 0.015016846358776092529f, 0.038966406136751174927f, 0.099800929427146911621f, -0.11935153603553771973f},
  {-0.060219541192054748535f, -0.57636910676956176758f, -0.0014387015253305435181f, -0.012030467391014099121f, 0.0069323931820690631866f, 0.17070324718952178955f, -0.034591969102621078491f, 0.030667973682284355164f, 0.12391091883182525635f, 0.44004964828491210938f, 0.061372395604848861694f, -0.16448329389095306396f, 0.35968893766403198242f, -0.081548601388931274414f, 0.60971391201019287109f, 0.23017129302024841309f, 0.57736474275588989258f, 1.0264871120452880859f, 0.079236365854740142822f, 0.056122221052646636963f, -0.23945254087448120117f, -0.061585668474435806274f, -0.027086663991212844849f, -0.22433300316333770752f},
  {0.34052413702011108398f, 0.22310966253280639648f, -0.042455717921257019043f, -0.12406073510646820068f, 0.068552196025848388672f, 0.17962032556533813477f, 0.065571479499340057373f, -0.058830641210079193115f, -0.0093774516135454177856f, 0.47453111410140991211f, -0.18840576708316802979f, 0.10864888876676559448f, 0.68633496761322021484f, -0.12313264608383178711f, 0.71384704113006591797f, 0.12072522938251495361f, 0.17096887528896331787f, 0.72883224487304687500f, -0.11019849777221679688f, 0.054805494844913482666f, -0.039030939340591430664f, -0.13132534921169281006f, -0.18696098029613494873f, -0.26156416535377502441f},
  {0.49080872535705566406f, 0.24661067128181457520f, -0.0089614968746900558472f, -0.062036555260419845581f, 0.028670815750956535339f, 0.23780569434165954590f, 0.0085404738783836364746f, 0.049790676683187484741f, 0.019652904942631721497f, -0.045165818184614181519f, -0.013334956020116806030f, 0.13059450685977935791f, 0.31622469425201416016f, 0.069816797971725463867f, 0.52153867483139038086f, 0.12260302156209945679f, 0.40181356668472290039f, 0.52197754383087158203f, 0.061602391302585601807f, 0.036230381578207015991f, 0.040353525429964065552f, -0.00074761395808309316635f, -0.13580550253391265869f, 0.035021584481000900269f}
};
static const float tensor_features_5_conv_5_fc_2_bias[72] = 
{-0.21889095008373260498f, -0.60642641782760620117f, 0.083286613225936889648f, -0.11942914873361587524f, -0.17200201749801635742f, -0.35021787881851196289f, -0.044732861220836639404f, -0.26867848634719848633f, 0.35285800695419311523f, -0.65474402904510498047f, -0.88414639234542846680f, -0.32441943883895874023f, 0.94164228439331054688f, -0.28491628170013427734f, 0.74788600206375122070f, 0.67531442642211914062f, 0.83122265338897705078f, 0.57374125719070434570f, -0.78116971254348754883f, -0.091865718364715576172f, 0.0046332543715834617615f, 0.21751765906810760498f, -0.0039520161226391792297f, 0.86782574653625488281f, 0.19237971305847167969f, 0.20248968899250030518f, -0.17417374253273010254f, -0.082740627229213714600f, -0.23178322613239288330f, -0.95774304866790771484f, -0.91125428676605224609f, 0.24486674368381500244f, 1.0073237419128417969f, -0.66409385204315185547f, 0.19786678254604339600f, 0.025855675339698791504f, -0.64098578691482543945f, -0.52638089656829833984f, -0.29408368468284606934f, 0.36441990733146667480f, -0.22528393566608428955f, 0.19368435442447662354f, -0.65996789932250976562f, 0.46818864345550537109f, -0.38375052809715270996f, 0.41114336252212524414f, -1.1898125410079956055f, 0.74148190021514892578f, 0.48001506924629211426f, 0.69926261901855468750f, -0.61322295665740966797f, 0.58675664663314819336f, 0.062275212258100509644f, -0.54681533575057983398f, -0.91128081083297729492f, 0.25922948122024536133f, -0.77785861492156982422f, 0.47320973873138427734f, -0.55739909410476684570f, 0.057287529110908508301f, -0.58070528507232666016f, 0.48080310225486755371f, -1.0534205436706542969f, -0.49936163425445556641f, -0.57660824060440063477f, -0.21312680840492248535f, -0.23334188759326934814f, -0.017599783837795257568f, -0.25138601660728454590f, 0.47639763355255126953f, 0.53851991891860961914f, 1.2978035211563110352f};
static const float tensor_features_6_conv_5_fc_0_weight[32][120] = 
{
