// This file is computer-generated by onnx2c 
// (TODO: add creating command line here)
// (TODO: print creation date here )

// ONNX model:
// produced by pytorch, version 2.2.1
// ONNX IR version: 10
// Model documentation: 
/*

*/

#include <float.h>
#include <math.h>
#include <stdbool.h>
#include <stdint.h>
#include <string.h>
#define MAX(X,Y) ( X > Y ? X : Y)
#define MIN(X,Y) ( X < Y ? X : Y)
#define CLIP(X,L) ( MAX(MIN(X,L), -L) )

static const float tensor_features_2_conv_3_fc_0_weight[8][8] = 
{
  {-0.022179575636982917786f, -0.046175654977560043335f, -0.038394257426261901855f, -0.033084344118833541870f, -0.035137366503477096558f, -0.0051148589700460433960f, -0.016324648633599281311f, -0.045464642345905303955f},
  {0.015485784970223903656f, -0.046857580542564392090f, -0.014614508487284183502f, -0.025943011045455932617f, -0.040434684604406356812f, -0.047525465488433837891f, -0.0064005120657384395599f, -0.038562629371881484985f},
  {-0.0096625620499253273010f, 2.3999782570172101259e-05f, -0.0041588051244616508484f, -0.023350406438112258911f, 0.0034445077180862426758f, -0.0061034047976136207581f, 0.0032519304659217596054f, 2.2521855498780496418e-05f},
  {0.076355919241905212402f, -0.094227887690067291260f, -0.27704456448554992676f, 0.27691191434860229492f, -0.28010973334312438965f, 0.17471615970134735107f, 0.28555864095687866211f, -0.20513239502906799316f},
  {0.013464105315506458282f, 0.0036633936688303947449f, -0.014778829179704189301f, -0.019884215667843818665f, 0.0088950702920556068420f, -0.0072000226937234401703f, -0.011577763594686985016f, -0.024193361401557922363f},
  {-0.0090432316064834594727f, -0.018393615260720252991f, -0.028772618621587753296f, -0.015823075547814369202f, -0.0029410051647573709488f, -0.013622795231640338898f, -0.014128243550658226013f, 0.0030282572843134403229f},
  {0.0059879338368773460388f, -0.016435168683528900146f, -0.071432106196880340576f, 0.016942514106631278992f, -0.037080522626638412476f, 0.016867060214281082153f, -0.034918788820505142212f, -0.037724371999502182007f},
  {-0.068064466118812561035f, -0.13494195044040679932f, 0.27315405011177062988f, -0.073418974876403808594f, 0.36647021770477294922f, -0.22196130454540252686f, 0.34602358937263488770f, 0.43807852268218994141f}
};
static const float tensor_features_2_conv_3_fc_0_bias[8] = 
{-0.027156146243214607239f, -0.037238240242004394531f, -0.0052355015650391578674f, 0.22481125593185424805f, -0.0084005184471607208252f, -0.0078200018033385276794f, -0.027300378307700157166f, 0.24887475371360778809f};
static const float tensor_features_2_conv_3_fc_2_weight[8][8] = 
{
  {0.021116500720381736755f, 0.0053361630998551845551f, -0.0024120975285768508911f, 0.13657681643962860107f, -0.0075871013104915618896f, 0.016035869717597961426f, -0.050591342151165008545f, -0.30572390556335449219f},
  {-0.031359903514385223389f, -0.039427246898412704468f, 0.00043267267756164073944f, 0.25020349025726318359f, -0.031457088887691497803f, -0.0046384483575820922852f, -0.035390816628932952881f, 0.62422877550125122070f},
  {-0.033063545823097229004f, 0.010555680841207504272f, -0.0032204384915530681610f, -0.25210425257682800293f, -0.0080290399491786956787f, -0.0045540127903223037720f, -0.00011861084203701466322f, -0.17409470677375793457f},
  {-0.015423092991113662720f, 0.029512079432606697083f, -0.013349162414669990540f, -0.31655547022819519043f, 0.0020133312791585922241f, -0.0012933119433000683784f, 0.010987049899995326996f, 0.34372439980506896973f},
  {0.016692817211151123047f, -0.027578689157962799072f, -0.0019070268608629703522f, -0.17519994080066680908f, -0.0068207602016627788544f, 0.00042546808253973722458f, -0.030874216929078102112f, 0.15368767082691192627f},
  {-0.0027090287767350673676f, -0.022299824282526969910f, -0.0039542443118989467621f, -0.17274656891822814941f, 0.011522646062076091766f, 0.0073477285914123058319f, -0.0043324227444827556610f, 0.43527987599372863770f},
  {0.022588413208723068237f, -0.0053549585863947868347f, -0.010604637674987316132f, -0.15710318088531494141f, 0.0011632849927991628647f, -0.0054199863225221633911f, 0.031046155840158462524f, 0.12161197513341903687f},
  {-0.030576316639780998230f, 0.039213038980960845947f, -0.022167019546031951904f, 0.0096988780423998832703f, -0.0059516658075153827667f, -0.0054599330760538578033f, 0.018007228150963783264f, -0.014829088933765888214f}
};
static const float tensor_features_2_conv_3_fc_2_bias[8] = 
{-0.049060057848691940308f, 0.17421513795852661133f, -0.45652016997337341309f, 0.24396847188472747803f, -0.46403083205223083496f, 0.31695285439491271973f, 0.39820361137390136719f, 0.41869026422500610352f};
static const float tensor_features_5_conv_5_fc_0_weight[24][72] = 
{
  {0.00045157986460253596306f, -0.018528994172811508179f, 0.0041471486911177635193f, 0.029818557202816009521f, 0.20239701867103576660f, 0.014659492298960685730f, 0.10021369159221649170f, -0.037352811545133590698f, 0.042839430272579193115f, -0.031657814979553222656f, -0.013585868291556835175f, -0.079292058944702148438f, 0.038849391043186187744f, -0.14781317114830017090f, 0.012817405164241790771f, -0.045214414596557617188f, -0.032752748578786849976f, 0.083927676081657409668f, 0.047900754958391189575f, 0.0055463830940425395966f, -0.12054445594549179077f, 0.085881777107715606689f, 0.030735759064555168152f, 0.040946431457996368408f, -0.11343200504779815674f, -0.043415311723947525024f, 0.10251764953136444092f, -0.038715846836566925049f, 0.010932229459285736084f, 0.016218993812799453735f, 0.085146367549896240234f, 0.015086052007973194122f, -0.0035365896765142679214f, -0.019403630867600440979f, 0.046644523739814758301f, 0.017449442297220230103f, -0.050181601196527481079f, -0.078522473573684692383f, 0.023371750488877296448f, 0.027789006009697914124f, 0.049885664135217666626f, -0.033401347696781158447f, -0.14705392718315124512f, -0.064340174198150634766f, -0.067352332174777984619f, -0.043008945882320404053f, 0.030398864299058914185f, 0.00099162745755165815353f, 0.0091898646205663681030f, -0.061703041195869445801f, 0.021764384582638740540f, -0.049063254147768020630f, -0.018923405557870864868f, 0.036812059581279754639f, -0.090084545314311981201f, -0.021456664428114891052f, -0.083288028836250305176f, -0.051936618983745574951f, -0.089015938341617584229f, 0.040265578776597976685f, -0.040661163628101348877f, 0.024242483079433441162f, -0.083485759794712066650f, 0.061388742178678512573f, -0.023235913366079330444f, -0.083990976214408874512f, -0.028462387621402740479f, 0.045980554074048995972f, -0.10840672254562377930f, -0.039259422570466995239f, -0.011989041231572628021f, 0.042932398617267608643f},
  {-0.067964188754558563232f, -0.17300273478031158447f, 0.0044143605045974254608f, -0.23072420060634613037f, 0.16041895747184753418f, -0.30675739049911499023f, 0.35350909829139709473f, 0.050802629441022872925f, 0.21558946371078491211f, -0.40507322549819946289f, -0.32671853899955749512f, -0.076734930276870727539f, -0.16552968323230743408f, -0.19963391125202178955f, -0.69297873973846435547f, 0.25695365667343139648f, 0.33204457163810729980f, -0.018951555714011192322f, 0.53940218687057495117f, -0.00040304649155586957932f, -0.23526835441589355469f, -0.18626911938190460205f, -0.25433468818664550781f, 0.13380716741085052490f, -0.12337128072977066040f, -0.44059389829635620117f, 0.27400276064872741699f, -0.23779539763927459717f, 0.078627303242683410645f, -0.31098636984825134277f, 0.17554497718811035156f, -0.12809385359287261963f, -0.13190226256847381592f, 0.44626009464263916016f, -0.092367909848690032959f, -0.10439544171094894409f, 0.070046991109848022461f, -0.26387414336204528809f, -0.052444562315940856934f, -0.19011983275413513184f, 0.20082280039787292480f, 0.0046427547931671142578f, 0.14327432215213775635f, -0.0011390876024961471558f, -0.15085102617740631104f, -0.13648468255996704102f, 0.64096164703369140625f, 0.12303183227777481079f, -0.17487062513828277588f, -0.29595327377319335938f, 0.13997989892959594727f, 0.24555462598800659180f, -0.025256849825382232666f, 0.20434029400348663330f, -0.13260130584239959717f, 0.066687904298305511475f, -0.17313666641712188721f, 0.11673666536808013916f, 0.036551598459482192993f, 0.057453610002994537354f, -0.018614225089550018311f, 0.38740050792694091797f, -0.051259171217679977417f, 0.10423637181520462036f, 0.17281663417816162109f, -0.0060913790948688983917f, 0.082172557711601257324f, -0.20768240094184875488f, -0.29321128129959106445f, -0.23808030784130096436f, -0.34730952978134155273f, 0.049223002046346664429f},
  {0.15885753929615020752f, 0.17158012092113494873f, -0.055943787097930908203f, 0.00086010870290920138359f, 0.19592869281768798828f, -0.15414915978908538818f, 0.37962836027145385742f, -0.057317998260259628296f, 0.26470422744750976562f, 0.063926190137863159180f, 0.11971347033977508545f, -0.054273098707199096680f, 0.088813938200473785400f, -0.097910277545452117920f, -0.063691444694995880127f, 0.20002132654190063477f, 0.14469183981418609619f, -0.16300316154956817627f, 0.012244000099599361420f, -0.0051237735897302627563f, 0.016140321269631385803f, 0.054904259741306304932f, 0.13446140289306640625f, 0.067427791655063629150f, -0.19369319081306457520f, -0.17108936607837677002f, 0.033704087138175964355f, -0.24087084829807281494f, -0.12349157035350799561f, 0.091596558690071105957f, 0.13586947321891784668f, -0.033745180815458297729f, 0.047336172312498092651f, 0.17296840250492095947f, 0.094950139522552490234f, 0.052448250353336334229f, -0.046571124345064163208f, -0.13317832350730895996f, 0.012251951731741428375f, 0.20137171447277069092f, 0.013241508975625038147f, 0.12268358469009399414f, 0.16950362920761108398f, 0.28427553176879882812f, -0.19856373965740203857f, -0.10002970695495605469f, 0.14807957410812377930f, 0.18895137310028076172f, -0.15152068436145782471f, 0.053847428411245346069f, -0.18554288148880004883f, 0.063546590507030487061f, -0.037732709199190139771f, 0.11506650596857070923f, -0.055761829018592834473f, -0.040150880813598632812f, -0.19067122042179107666f, -0.18365013599395751953f, -0.067300066351890563965f, 0.0080643715336918830872f, -0.099238306283950805664f, 0.055023614317178726196f, 0.15946370363235473633f, 0.0089154113084077835083f, 0.10390007495880126953f, 0.073698028922080993652f, -0.012543350458145141602f, 0.11258616298437118530f, -0.0016163120744749903679f, -0.14540316164493560791f, 0.057337004691362380981f, -0.035222101956605911255f},
  {0.16681389510631561279f, -0.073918208479881286621f, 0.20063215494155883789f, -0.27630865573883056641f, -0.0036967860069125890732f, -0.051574319601058959961f, 0.067047044634819030762f, 0.064437367022037506104f, -0.019703838974237442017f, -0.59343808889389038086f, -0.13525989651679992676f, -0.10556766390800476074f, -0.072195827960968017578f, -0.15985535085201263428f, -0.22184748947620391846f, 0.21228033304214477539f, -0.14526525139808654785f, 0.13627116382122039795f, 0.26519432663917541504f, -0.14189751446247100830f, 0.029372282326221466064f, -0.46564421057701110840f, 0.23224736750125885010f, 0.00050236884271726012230f, -0.40685102343559265137f, -0.033493816852569580078f, 0.0093712192028760910034f, 0.13039393723011016846f, -0.40424779057502746582f, -0.012686059810221195221f, 0.33358225226402282715f, 0.14695535600185394287f, -0.040544774383306503296f, 0.37574541568756103516f, 0.49927040934562683105f, 0.093671284615993499756f, -0.038063731044530868530f, 0.014836876653134822845f, -0.018591294065117835999f, -0.22137364745140075684f, 0.10495750606060028076f, 0.031620159745216369629f, 0.19828903675079345703f, 0.080098718404769897461f, -0.17725613713264465332f, -0.37817752361297607422f, 0.15049371123313903809f, -0.17917062342166900635f, -0.36806944012641906738f, 0.11460348963737487793f, 0.12872353196144104004f, -0.044348910450935363770f, -0.020024375990033149719f, -0.15232656896114349365f, -0.071732304990291595459f, 0.21354858577251434326f, -0.22104568779468536377f, 0.023775268346071243286f, 0.11973795294761657715f, -0.0076398612000048160553f, -0.43580493330955505371f, -0.24809888005256652832f, 0.11187314987182617188f, 0.15541763603687286377f, 0.24802663922309875488f, 0.19687430560588836670f, -0.051673106849193572998f, 0.22759713232517242432f, -0.19197651743888854980f, -0.27705690264701843262f, -0.011979949660599231720f, -0.15479241311550140381f},
  {-0.080237530171871185303f, -0.085188396275043487549f, 0.29216927289962768555f, -0.21432222425937652588f, 0.081221215426921844482f, 0.010315482504665851593f, 0.071865819394588470459f, 0.071926444768905639648f, 0.30810198187828063965f, -0.0084393965080380439758f, 0.020649829879403114319f, -0.18924660980701446533f, -0.13191004097461700439f, 0.0038008063565939664841f, -0.27518016099929809570f, 0.44783192873001098633f, 0.17366521060466766357f, -0.052807424217462539673f, -0.071389503777027130127f, 0.19908894598484039307f, 0.18938586115837097168f, -0.075389869511127471924f, -0.045282438397407531738f, 0.45977491140365600586f, 0.11143929511308670044f, -0.33966866135597229004f, -0.079053387045860290527f, -0.35254016518592834473f, -0.098194122314453125000f, -0.041080970317125320435f, 0.40923690795898437500f, 0.11912608891725540161f, 0.16295574605464935303f, 0.14323534071445465088f, -0.50205016136169433594f, -0.59014290571212768555f, -0.25170487165451049805f, -0.048970133066177368164f, 0.065795511007308959961f, -0.090206429362297058105f, -0.039186924695968627930f, 0.028910106047987937927f, 0.15548665821552276611f, -0.17099507153034210205f, 0.14288079738616943359f, -0.16019497811794281006f, 0.13869082927703857422f, -0.28456076979637145996f, 0.021479185670614242554f, -0.24748148024082183838f, -0.051519509404897689819f, 0.23504433035850524902f, -0.15689603984355926514f, 0.54117828607559204102f, -0.18945716321468353271f, 0.18322178721427917480f, -0.27677637338638305664f, 0.24257396161556243896f, -0.13428927958011627197f, -0.19943518936634063721f, 0.013765139505267143250f, -0.011807855218648910522f, -0.045942794531583786011f, 0.074178948998451232910f, 0.27578073740005493164f, -0.19020015001296997070f, 0.24244245886802673340f, -0.46467325091361999512f, 0.066283933818340301514f, -0.39445000886917114258f, -0.25312909483909606934f, 0.13691413402557373047f},
  {-0.40600851178169250488f, -0.12528477609157562256f, 0.23698231577873229980f, -0.077288940548896789551f, 0.093752197921276092529f, -0.064055003225803375244f, 0.079352848231792449951f, 0.23632276058197021484f, 0.019446680322289466858f, 0.13354486227035522461f, -0.023128230124711990356f, 0.14216296374797821045f, 0.062306225299835205078f, 0.077533893287181854248f, -0.097198739647865295410f, 0.38230097293853759766f, 0.14092908799648284912f, 0.084716327488422393799f, 0.19392374157905578613f, 0.11997311562299728394f, 0.40838164091110229492f, -0.058591037988662719727f, 0.16711536049842834473f, 0.56424778699874877930f, 0.052642736583948135376f, -0.21821789443492889404f, -0.12435888499021530151f, 0.10678572207689285278f, -0.13294790685176849365f, 0.00080114777665585279465f, 0.21728666126728057861f, 0.021803740411996841431f, -0.024939488619565963745f, 0.063499905169010162354f, -0.099317997694015502930f, -0.22061674296855926514f, 0.19121545553207397461f, -0.30289423465728759766f, -0.16844479739665985107f, -0.15464411675930023193f, 0.019047010689973831177f, 0.077963359653949737549f, -0.10469990968704223633f, -0.13063873350620269775f, 0.10054693371057510376f, -0.012644858099520206451f, -0.036243289709091186523f, -0.0061922138556838035583f, 0.17260044813156127930f, -0.14754909276962280273f, -0.15118615329265594482f, 0.33869260549545288086f, 0.041535872966051101685f, -0.11736177653074264526f, -0.23150527477264404297f, -0.15180797874927520752f, -0.10790196061134338379f, -0.0085329152643680572510f, 0.21292454004287719727f, 0.086817987263202667236f, -0.15564854443073272705f, 0.10719889402389526367f, 0.13200679421424865723f, 0.28187385201454162598f, 0.28589186072349548340f, 0.10641780495643615723f, 0.034987997263669967651f, 0.15295861661434173584f, -0.14966192841529846191f, -0.28474983572959899902f, -0.36337968707084655762f, -0.10435684025287628174f},
  {0.26604452729225158691f, -0.016662782058119773865f, -0.037112616002559661865f, 0.0085957953706383705139f, 0.036002479493618011475f, 0.0068235555663704872131f, 0.094317935407161712646f, -0.017518168315291404724f, 0.14677429199218750000f, -0.16014178097248077393f, -0.086653381586074829102f, 0.070356644690036773682f, -0.022589698433876037598f, -0.021062357351183891296f, -0.19636105000972747803f, 0.0074621485546231269836f, 0.072371713817119598389f, 0.011733583174645900726f, 0.034053333103656768799f, -0.16834397614002227783f, -0.13320052623748779297f, -0.089689761400222778320f, -0.062219008803367614746f, 0.0019600933883339166641f, -0.29528746008872985840f, -0.023680886253714561462f, 0.24227151274681091309f, 0.053929958492517471313f, -0.073537304997444152832f, -0.044093690812587738037f, -0.014864315278828144073f, 0.16145579516887664795f, -0.069366522133350372314f, -0.075170911848545074463f, 0.011581131257116794586f, 0.028503365814685821533f, 0.0067266141995787620544f, 0.054984472692012786865f, 0.016828101128339767456f, 0.087146095931529998779f, 0.019356176257133483887f, -0.081413388252258300781f, -0.26378101110458374023f, -0.024527709931135177612f, -0.073449857532978057861f, -0.034516476094722747803f, 0.24235235154628753662f, 0.019046414643526077271f, 0.0097566684707999229431f, -0.054514341056346893311f, 0.056610986590385437012f, 0.020110348239541053772f, 0.14288346469402313232f, -0.11754149198532104492f, 0.020176826044917106628f, 0.13246715068817138672f, -0.043109610676765441895f, -0.10964000970125198364f, -0.053141497075557708740f, -0.11185024678707122803f, 0.025375679135322570801f, 0.028890011832118034363f, 0.096886374056339263916f, 0.027710899710655212402f, 0.068288087844848632812f, 0.13311275839805603027f, 0.10890257358551025391f, 0.17584206163883209229f, -0.11592634767293930054f, -0.070823378860950469971f, -0.028912061825394630432f, 0.0084151336923241615295f},
  {0.026105672121047973633f, -0.072149820625782012939f, -0.011713863350450992584f, -0.0061456295661628246307f, -0.0099849356338381767273f, 0.030885694548487663269f, 0.062623500823974609375f, -0.082526870071887969971f, 0.0082035697996616363525f, 0.048856988549232482910f, -0.038727641105651855469f, -0.020542718470096588135f, 0.060854982584714889526f, -0.030135512351989746094f, -0.058763429522514343262f, 0.087312042713165283203f, 0.0033589841332286596298f, -0.013241375796496868134f, -0.047421220690011978149f, -0.060431618243455886841f, 0.0048757838085293769836f, -0.094256758689880371094f, 0.017200350761413574219f, 0.034366521984338760376f, -0.046023666858673095703f, -0.067909471690654754639f, 0.046535890549421310425f, -0.071412093937397003174f, -0.025412216782569885254f, 0.078264944255352020264f, 0.042219482362270355225f, 0.035226956009864807129f, -0.12516656517982482910f, -0.0096064507961273193359f, 0.12825828790664672852f, 0.0028621668461710214615f, 0.032216493040323257446f, 0.026389328762888908386f, -0.076808460056781768799f, 1.0588694749458227307e-05f, -0.035088293254375457764f, -0.14533327519893646240f, 0.040290899574756622314f, -0.036930851638317108154f, -0.028015930205583572388f, -0.042079109698534011841f, 0.028237726539373397827f, -0.045746762305498123169f, 0.023406203836202621460f, 0.027796212583780288696f, 0.046839512884616851807f, -0.0037763928994536399841f, -0.042446825653314590454f, -0.0056445053778588771820f, -0.012664651498198509216f, 0.099913492798805236816f, -0.14628954231739044189f, -0.045059051364660263062f, 0.034951996058225631714f, 0.058001920580863952637f, -0.061112664639949798584f, 0.0029156063683331012726f, -0.017561750486493110657f, -0.033932920545339584351f, 0.096687272191047668457f, 0.010785595513880252838f, 0.019587317481637001038f, -0.11984303593635559082f, 0.12446328252553939819f, -0.078662946820259094238f, 0.038366530090570449829f, 0.0097999302670359611511f},
  {-0.30548876523971557617f, 0.019427297636866569519f, 0.10741506516933441162f, 0.042322307825088500977f, -0.077738329768180847168f, -0.14790436625480651855f, -0.0023201736621558666229f, 0.39371314644813537598f, 0.11345214396715164185f, 0.33796128630638122559f, 0.15902939438819885254f, 0.12656290829181671143f, 0.21927116811275482178f, 0.063424810767173767090f, 0.054749321192502975464f, 0.49586585164070129395f, 0.039290096610784530640f, 0.070338830351829528809f, 0.23201677203178405762f, 0.016051059588789939880f, 0.33832189440727233887f, 0.15053609013557434082f, 0.057683531194925308228f, 0.61984866857528686523f, 0.051481105387210845947f, -0.33682802319526672363f, 0.065666034817695617676f, 0.24949495494365692139f, -0.24730715155601501465f, 0.13641251623630523682f, 0.14416249096393585205f, 0.10953101515769958496f, -0.0034036564175039529800f, -0.10751892626285552979f, 0.17535693943500518799f, 0.25102281570434570312f, 0.14476752281188964844f, -0.018003571778535842896f, -0.087533660233020782471f, 0.10032196342945098877f, -0.18159499764442443848f, -0.083246871829032897949f, -0.21340340375900268555f, 0.066593438386917114258f, 0.048716209828853607178f, -0.00072605762397870421410f, -0.036680605262517929077f, 0.18936477601528167725f, -0.030140317976474761963f, 0.042492531239986419678f, -0.088370226323604583740f, 0.45215705037117004395f, 0.17930495738983154297f, -0.22015532851219177246f, 0.34307542443275451660f, -0.0074501838535070419312f, -0.17327645421028137207f, -0.16275034844875335693f, 0.24471153318881988525f, 0.046250000596046447754f, 0.11119505017995834351f, 0.17373842000961303711f, -0.057941768318414688110f, 0.23875062167644500732f, 0.11866892129182815552f, -0.063602901995182037354f, 0.014818333089351654053f, 0.070310175418853759766f, -0.074968628585338592529f, -0.22319456934928894043f, -0.26767915487289428711f, -0.021590299904346466064f},
  {0.14899861812591552734f, 0.064346194267272949219f, 0.020105207338929176331f, -0.38254919648170471191f, 0.091248258948326110840f, 0.18395952880382537842f, 0.23798131942749023438f, 0.034655105322599411011f, -0.13982914388179779053f, -0.20321136713027954102f, 0.096492782235145568848f, -0.24049594998359680176f, 0.039724256843328475952f, -0.17374284565448760986f, 0.064065285027027130127f, 0.042561247944831848145f, 0.018659763038158416748f, -0.050443328917026519775f, 0.32256463170051574707f, -0.13998174667358398438f, 0.17899583280086517334f, -0.27800714969635009766f, 0.17854161560535430908f, 0.096160538494586944580f, -0.20043718814849853516f, -0.0029205253813415765762f, 0.086842760443687438965f, 0.051131136715412139893f, -0.087725177407264709473f, 0.12054523825645446777f, 0.11834894120693206787f, -0.028089404106140136719f, -0.026802618056535720825f, -0.022932972759008407593f, -0.10740313678979873657f, -0.081047333776950836182f, -0.15706796944141387939f, 0.050225012004375457764f, -0.12022078037261962891f, 0.27934148907661437988f, 0.12859094142913818359f, -0.22797289490699768066f, -0.013210538774728775024f, -0.030958507210016250610f, -0.44496923685073852539f, -0.075424082577228546143f, 0.21402563154697418213f, -0.13051611185073852539f, -0.19700361788272857666f, 0.14090017974376678467f, 0.046561084687709808350f, -0.0035185855813324451447f, 0.043280091136693954468f, 0.0068183108232915401459f, -0.059915628284215927124f, 0.33826661109924316406f, -0.13507521152496337891f, 0.023084087297320365906f, 0.061034724116325378418f, 0.063112035393714904785f, -0.12215705215930938721f, 0.088630631566047668457f, -0.11980940401554107666f, 0.13116012513637542725f, 0.18499380350112915039f, 0.059013459831476211548f, 0.0055918279103934764862f, -0.13942439854145050049f, 0.17053376138210296631f, -0.089257434010505676270f, 0.13729411363601684570f, 0.033730905503034591675f},
  {0.19020143151283264160f, 0.087929531931877136230f, -0.030628966167569160461f, -0.11053072661161422729f, -0.091469354927539825439f, 0.036504637449979782104f, -0.071650736033916473389f, -0.012929482385516166687f, 0.14547696709632873535f, 0.056129544973373413086f, 0.060352917760610580444f, -0.051294006407260894775f, 0.14476957917213439941f, 0.026976943016052246094f, -0.0028214056510478258133f, 0.010763605125248432159f, 0.012634114362299442291f, 0.10203366726636886597f, -0.0014589222846552729607f, 0.023297823965549468994f, 0.012880376540124416351f, -0.21521295607089996338f, 0.16614297032356262207f, 0.022584155201911926270f, 0.035893473774194717407f, 0.0051337750628590583801f, -0.12231079488992691040f, 0.013322714716196060181f, -0.073353119194507598877f, -0.011024336330592632294f, 0.040982890874147415161f, 0.083488069474697113037f, 0.0078970640897750854492f, -0.10454611480236053467f, -0.081855826079845428467f, -0.052248351275920867920f, -0.022935099899768829346f, 0.026335043832659721375f, -0.024707846343517303467f, 0.085979878902435302734f, 0.089866220951080322266f, 0.14430235326290130615f, -0.094084970653057098389f, -0.055433139204978942871f, -0.10145820677280426025f, -0.12418635189533233643f, -0.027772923931479454041f, 0.063335001468658447266f, -0.14233420789241790771f, 0.038307160139083862305f, -0.014547239989042282104f, 0.020123990252614021301f, -0.073020800948143005371f, -0.056897014379501342773f, -0.043781977146863937378f, 0.073190681636333465576f, -0.15660259127616882324f, 0.066507339477539062500f, -0.10922753810882568359f, -0.095249176025390625000f, -0.12247263640165328979f, 0.00062922213692218065262f, 0.0081605613231658935547f, 0.036042619496583938599f, -0.014388424344360828400f, 0.11438062041997909546f, -0.019038815051317214966f, 0.14897923171520233154f, 0.071738772094249725342f, -0.054806832224130630493f, 0.048826653510332107544f, 0.10421583056449890137f},
  {0.52989476919174194336f, 0.055683959275484085083f, -0.28676468133926391602f, 0.24672228097915649414f, -0.15653164684772491455f, 0.19275927543640136719f, 0.055687636137008666992f, 0.19055765867233276367f, -0.065205052495002746582f, 0.13101193308830261230f, 0.089894846081733703613f, 0.14144632220268249512f, 0.0018850566120818257332f, -0.0050937714986503124237f, -0.25502005219459533691f, -0.036871593445539474487f, -0.34802073240280151367f, 0.053771227598190307617f, 0.11528583616018295288f, -0.052338246256113052368f, -0.95475739240646362305f, 0.034283041954040527344f, -0.00042297621257603168488f, 0.30889743566513061523f, -0.12508444488048553467f, 0.094926685094833374023f, -0.058284077793359756470f, 0.12876489758491516113f, -0.042133588343858718872f, -0.086544871330261230469f, -0.41643026471138000488f, 0.065836317837238311768f, -0.075486652553081512451f, 0.039449296891689300537f, -0.072667643427848815918f, -0.019467545673251152039f, 0.16079333424568176270f, -0.52204495668411254883f, 0.24388337135314941406f, -0.15751551091670989990f, 0.023363731801509857178f, 0.012552222236990928650f, 0.036315891891717910767f, -0.0032244960311800241470f, 0.0054863523691892623901f, 0.28784874081611633301f, 0.090883441269397735596f, -0.088624007999897003174f, 0.19224104285240173340f, -0.15874098241329193115f, 0.26402315497398376465f, 0.064698323607444763184f, -0.17018689215183258057f, -0.076200440526008605957f, 0.00053457461763173341751f, 0.032038055360317230225f, 0.023606440052390098572f, -0.057931929826736450195f, 0.057984635233879089355f, -0.038785651326179504395f, 0.092909224331378936768f, 0.22533456981182098389f, -0.24070298671722412109f, 0.0057943826541304588318f, -0.0045028878375887870789f, 0.10221687704324722290f, 0.017414843663573265076f, -0.073745861649513244629f, -0.056058667600154876709f, 0.064147271215915679932f, -0.18212153017520904541f, -0.12958958745002746582f},
  {0.032987236976623535156f, 0.022570282220840454102f, -0.024193285033106803894f, -0.0082946885377168655396f, 0.010475188493728637695f, -0.024638878181576728821f, 0.046698197722434997559f, 0.0021509209182113409042f, 0.0098723843693733215332f, 0.028834713622927665710f, 0.068774953484535217285f, 0.048158228397369384766f, -0.051028151065111160278f, -0.041417799890041351318f, -0.070853047072887420654f, -0.0057305614463984966278f, 0.015149797312915325165f, -0.011563500389456748962f, -0.019333129748702049255f, -0.023496272042393684387f, -0.0080701913684606552124f, 0.044912423938512802124f, -0.073001019656658172607f, 0.053928889334201812744f, -0.095130674540996551514f, -0.034741826355457305908f, 0.049034688621759414673f, 0.014985464513301849365f, -0.0071868933737277984619f, 0.042234864085912704468f, 0.027608061209321022034f, 0.025879234075546264648f, 0.022814715281128883362f, -0.0022520227357745170593f, -0.044032368808984756470f, -0.025300648063421249390f, 0.015819683670997619629f, -0.028496135026216506958f, -0.076973557472229003906f, -0.087990254163742065430f, -0.024150736629962921143f, -0.022549673914909362793f, -0.15445622801780700684f, -0.045795999467372894287f, -0.060079008340835571289f, 0.0093581043183803558350f, 0.075959943234920501709f, 0.032809469848871231079f, -0.033024631440639495850f, 0.020789422094821929932f, -0.015685755759477615356f, -6.4700121583882719278e-05f, 0.11936122924089431763f, -0.028322799131274223328f, -0.013422769494354724884f, -0.035360865294933319092f, -0.021673539653420448303f, -0.022968137636780738831f, 0.0032735823187977075577f, -0.031290434300899505615f, 0.00084376661106944084167f, 0.016849851235747337341f, -0.022103684023022651672f, 0.021306699141860008240f, -0.0088970838114619255066f, -0.013424084521830081940f, -0.023871283978223800659f, -0.034579671919345855713f, -0.028194611892104148865f, 0.00084108108421787619591f, -0.0038990820758044719696f, 0.011783151887357234955f},
  {0.081827305257320404053f, 0.13495534658432006836f, -0.070860520005226135254f, -0.46805375814437866211f, 0.049354325979948043823f, 0.044988308101892471313f, 0.40771543979644775391f, -0.086601860821247100830f, 0.17883589863777160645f, -0.35516905784606933594f, 0.087878510355949401855f, 0.35518139600753784180f, 0.11719324439764022827f, -0.069901816546916961670f, 0.0035510412417352199554f, 0.070201732218265533447f, 0.057697899639606475830f, -0.057941652834415435791f, -0.19709420204162597656f, -0.26929664611816406250f, -0.25971877574920654297f, 0.26671880483627319336f, -0.22931270301342010498f, 0.0076468540355563163757f, -0.32556074857711791992f, -0.12838643789291381836f, 0.15208134055137634277f, -0.22056278586387634277f, 0.00098834780510514974594f, -0.14501963555812835693f, 0.091992631554603576660f, 0.081845529377460479736f, -0.10690289735794067383f, -0.11433909833431243896f, 0.19628073275089263916f, -0.18932372331619262695f, -0.23944000899791717529f, 0.022737225517630577087f, 0.39810904860496520996f, -0.12525078654289245605f, 0.00075900432420894503593f, -0.10224512964487075806f, -0.096339292824268341064f, 0.22616852819919586182f, -0.18259339034557342529f, -0.087747506797313690186f, 0.12859582901000976562f, -0.087892018258571624756f, -0.075240075588226318359f, -0.0096380589529871940613f, -0.049833182245492935181f, 0.045418716967105865479f, 0.077472694218158721924f, 0.16372232139110565186f, 0.10208115726709365845f, -0.11652383208274841309f, -0.24033726751804351807f, -0.23408494889736175537f, -0.19013920426368713379f, 0.044606752693653106689f, -0.067732863128185272217f, 0.043777208775281906128f, -0.18322145938873291016f, 0.16241221129894256592f, 0.020079830661416053772f, -0.069202505052089691162f, 0.14837621152400970459f, -0.054166823625564575195f, -0.14880877733230590820f, -0.25638577342033386230f, -0.076599843800067901611f, -0.079257927834987640381f},
  {-0.16661889851093292236f, 0.22551195323467254639f, 0.16390207409858703613f, -0.36402055621147155762f, 0.25978627800941467285f, -0.044590130448341369629f, 0.15557214617729187012f, -0.060981534421443939209f, 0.18180774152278900146f, 0.18708658218383789062f, -0.23326452076435089111f, -0.11280076950788497925f, -0.10416235774755477905f, -0.29481586813926696777f, -0.26110371947288513184f, 0.25723761320114135742f, 0.27166438102722167969f, -0.063205793499946594238f, 0.090139776468276977539f, 0.013630737550556659698f, 0.28442546725273132324f, 0.17014847695827484131f, 0.14778673648834228516f, 0.17417192459106445312f, -0.18801558017730712891f, -0.25307354331016540527f, -0.10058877617120742798f, -0.15829101204872131348f, -0.25437414646148681641f, 0.13373322784900665283f, 0.34682002663612365723f, 0.021382303908467292786f, 0.41722115874290466309f, 0.27675417065620422363f, 0.18707616627216339111f, 0.12806496024131774902f, -0.29063415527343750000f, -0.18991297483444213867f, 0.062577195465564727783f, 0.29254105687141418457f, 0.023009585216641426086f, -0.16793243587017059326f, 0.13332289457321166992f, 0.072397194802761077881f, 0.32919061183929443359f, -0.26902967691421508789f, 0.25239360332489013672f, 0.11416427046060562134f, 0.10799731314182281494f, 0.077498972415924072266f, -0.55241936445236206055f, 0.070515736937522888184f, 0.36849087476730346680f, -0.053029708564281463623f, -0.093755587935447692871f, 0.25081241130828857422f, -0.45565885305404663086f, -0.12072951346635818481f, -0.16189761459827423096f, -0.12228790670633316040f, 0.095985703170299530029f, -0.039010800421237945557f, 0.28275573253631591797f, 0.25585043430328369141f, 0.33778959512710571289f, 0.26606887578964233398f, -0.0058896061964333057404f, 0.070866264402866363525f, -0.12952248752117156982f, -0.34118950366973876953f, 0.14453272521495819092f, -0.19494554400444030762f},
  {-0.34218251705169677734f, 0.083176426589488983154f, 0.37093490362167358398f, -0.037603724747896194458f, -0.097679153084754943848f, -0.050690572708845138550f, 0.12337180972099304199f, 0.20123513042926788330f, 0.055829159915447235107f, -0.19771221280097961426f, 0.020340235903859138489f, 0.12644772231578826904f, -0.054686307907104492188f, -0.066085763275623321533f, -0.034477982670068740845f, 0.46148726344108581543f, 0.34545469284057617188f, 0.044303491711616516113f, 0.11914339661598205566f, 0.12427077442407608032f, 0.59724980592727661133f, 0.00063731329282745718956f, 0.26429334282875061035f, 0.44101250171661376953f, -0.045250434428453445435f, -0.18673555552959442139f, -0.19384634494781494141f, 0.30879232287406921387f, 0.015850093215703964233f, 0.018308544531464576721f, 0.35223960876464843750f, -0.11310535669326782227f, 0.12732625007629394531f, -0.031762018799781799316f, 0.32685533165931701660f, -0.0087499655783176422119f, 0.096997790038585662842f, -0.51497799158096313477f, -0.093272060155868530273f, -0.088761329650878906250f, 0.086867801845073699951f, 0.048893675208091735840f, 0.10731381922960281372f, -0.057950850576162338257f, 0.042901661247014999390f, -0.086021848022937774658f, 8.5716928879264742136e-05f, 0.22448872029781341553f, 0.062441851943731307983f, -0.37358623743057250977f, -0.52158981561660766602f, 0.29606133699417114258f, 0.080902181565761566162f, -0.41056096553802490234f, -0.016202952712774276733f, 0.017324788495898246765f, -0.18444156646728515625f, -0.063889533281326293945f, -0.031663257628679275513f, -0.083447031676769256592f, -0.16678038239479064941f, -0.21311900019645690918f, 0.40903809666633605957f, 0.10166233032941818237f, 0.29438459873199462891f, 0.086196094751358032227f, -0.078110441565513610840f, 0.12541642785072326660f, 0.037587206810712814331f, -0.30888798832893371582f, -0.32389301061630249023f, -0.12322577834129333496f},
  {0.20188769698143005371f, 0.0062636667862534523010f, 0.056326508522033691406f, -0.079149283468723297119f, 0.11595491319894790649f, -0.041838556528091430664f, -0.030042491853237152100f, -0.052329719066619873047f, -0.035640273243188858032f, 0.029119608923792839050f, 0.066914826631546020508f, -0.17729890346527099609f, 0.047487925738096237183f, -0.27807205915451049805f, -0.14537623524665832520f, 0.013166641816496849060f, 0.10628916323184967041f, 0.054029911756515502930f, -0.035588391125202178955f, 0.054459325969219207764f, 0.015375071205198764801f, -0.0091280229389667510986f, -0.086564444005489349365f, 0.094346709549427032471f, -0.084953695535659790039f, -0.099680028855800628662f, -0.085359260439872741699f, -0.025170763954520225525f, -0.11015917360782623291f, 0.034097258001565933228f, 0.046666868031024932861f, 0.12833400070667266846f, 0.017309129238128662109f, -0.064362041652202606201f, -0.043779548257589340210f, -0.028631765395402908325f, -0.069020651280879974365f, 0.027646154165267944336f, -0.010046733543276786804f, 0.029802789911627769470f, -0.078709177672863006592f, 0.074107229709625244141f, -0.23173661530017852783f, 0.086573839187622070312f, -0.15390725433826446533f, -0.10205867141485214233f, 0.17445331811904907227f, 0.050408221781253814697f, -0.12316053360700607300f, -0.049188945442438125610f, 0.025846442207694053650f, 0.011681307107210159302f, 0.14043051004409790039f, 3.1757990655023604631e-05f, -0.11165233701467514038f, 0.14884039759635925293f, -0.19336378574371337891f, -0.098655082285404205322f, -0.14720743894577026367f, 0.089748941361904144287f, -0.064397968351840972900f, 0.045723188668489456177f, -0.11604495346546173096f, 0.095021471381187438965f, 0.028328604996204376221f, 0.20924676954746246338f, 0.032940898090600967407f, -0.012970324605703353882f, -0.017018146812915802002f, -0.093168601393699645996f, -0.037096824496984481812f, -0.078436665236949920654f},
  {0.10602686554193496704f, 0.0069180047139525413513f, -0.046176739037036895752f, 0.019483191892504692078f, 0.11634320020675659180f, 0.012825448065996170044f, 0.064965188503265380859f, -0.015928020700812339783f, 0.016242260113358497620f, -0.10087884217500686646f, 0.053378134965896606445f, 0.046036537736654281616f, 0.17992658913135528564f, -0.14692361652851104736f, -0.0045723984949290752411f, 0.022250577807426452637f, -0.019548118114471435547f, -0.045714113861322402954f, -0.011657458730041980743f, -0.040830090641975402832f, -0.017611084505915641785f, 0.023808198049664497375f, -0.037014357745647430420f, -0.017929194495081901550f, -0.11498969048261642456f, -0.021588351577520370483f, 0.10534853488206863403f, -0.065570965409278869629f, -0.010745403356850147247f, 0.039383929222822189331f, 0.042011536657810211182f, 0.055233042687177658081f, 0.032555684447288513184f, -0.024550672620534896851f, -0.10480579733848571777f, -0.035396087914705276489f, -0.0081790341064333915710f, -0.0029655226971954107285f, -0.035105016082525253296f, 0.045909106731414794922f, -0.017860814929008483887f, -0.14206229150295257568f, -0.21409082412719726562f, -0.038864813745021820068f, -0.057777944952249526978f, -0.065477445721626281738f, 0.18713904917240142822f, 0.0048963204026222229004f, 0.0083141624927520751953f, 0.00097876368090510368347f, 0.021433731541037559509f, -0.036223772913217544556f, 0.044240672141313552856f, 0.10698238015174865723f, 0.023639434948563575745f, -0.053694650530815124512f, -0.068028278648853302002f, 0.021519035100936889648f, 0.055137876421213150024f, 0.033689465373754501343f, -0.087182886898517608643f, -0.042592708021402359009f, -0.11564712226390838623f, 0.026776362210512161255f, 0.030383192002773284912f, 0.027500402182340621948f, 0.028227088972926139832f, -0.0044213649816811084747f, -0.041644502431154251099f, -0.051351904869079589844f, 0.00030248946859501302242f, -0.034260202199220657349f},
  {0.087457068264484405518f, 0.25089073181152343750f, 0.077403977513313293457f, -0.33170560002326965332f, 0.049799147993326187134f, -0.20916526019573211670f, 0.13205206394195556641f, -0.12860554456710815430f, 0.072955615818500518799f, 0.15546707808971405029f, 0.0059595527127385139465f, 0.24541237950325012207f, 0.11616680771112442017f, -0.097678415477275848389f, -0.36248248815536499023f, 0.16788952052593231201f, 0.00044980811071582138538f, 0.18844020366668701172f, 0.041392333805561065674f, -0.046797133982181549072f, 0.16313289105892181396f, -0.0012401754502207040787f, 0.079319208860397338867f, 0.052730485796928405762f, -0.20687220990657806396f, -0.36021259427070617676f, 0.23426203429698944092f, -0.054903596639633178711f, -0.20853288471698760986f, -0.13698777556419372559f, 0.31740847229957580566f, 0.11996791511774063110f, -0.10027842968702316284f, 0.25824782252311706543f, -0.058388158679008483887f, 0.25348117947578430176f, -0.0053446101956069469452f, -0.16536800563335418701f, 0.073914632201194763184f, 0.16039809584617614746f, 0.073561176657676696777f, -0.21868872642517089844f, -0.12559400498867034912f, 0.086069241166114807129f, -0.27204868197441101074f, -0.16384443640708923340f, 0.30172088742256164551f, 0.12045104801654815674f, -0.19585935771465301514f, 0.062536299228668212891f, 0.14566038548946380615f, 0.067743964493274688721f, 0.022154685109853744507f, 0.15527158975601196289f, 0.094151414930820465088f, 0.11600812524557113647f, -0.50459229946136474609f, 0.20648095011711120605f, -0.25551861524581909180f, -0.27532535791397094727f, 0.046953741461038589478f, 0.16189637780189514160f, -0.041774664074182510376f, 0.49803334474563598633f, 0.16520564258098602295f, 0.041876096278429031372f, -0.054001849144697189331f, -0.080881170928478240967f, -0.26443934440612792969f, -0.14993090927600860596f, -0.060746908187866210938f, -0.19984468817710876465f},
  {0.087784409523010253906f, 0.031996607780456542969f, -0.020515898242592811584f, -0.055651169270277023315f, -0.0040660761296749114990f, -0.016559811308979988098f, -0.0063184043392539024353f, 0.0035697494167834520340f, -0.0078476443886756896973f, 0.072855323553085327148f, -0.013531734235584735870f, 0.017347188666462898254f, 0.082860745489597320557f, -0.045231435447931289673f, -0.013990551233291625977f, 0.023037808015942573547f, -0.0081935152411460876465f, -0.023851647973060607910f, -0.022725068032741546631f, -0.040699977427721023560f, -0.099578596651554107666f, 0.054335970431566238403f, -0.040908485651016235352f, 0.013824203051626682281f, -0.030919991433620452881f, -0.040962025523185729980f, 0.013270152732729911804f, 0.010091469623148441315f, -0.017914284020662307739f, 0.0081077143549919128418f, 0.034163843840360641479f, 0.025441816076636314392f, -0.013598815537989139557f, 0.041244588792324066162f, 0.021470783278346061707f, -0.024184260517358779907f, 0.014898709952831268311f, -0.014068790711462497711f, -0.062837839126586914062f, -0.031404435634613037109f, -0.014389543794095516205f, -0.053312968462705612183f, -0.092686228454113006592f, 0.034719243645668029785f, -0.019728429615497589111f, -0.012169914320111274719f, 0.0045137130655348300934f, -0.035274423658847808838f, -0.035568971186876296997f, -0.019705455750226974487f, 0.029764899984002113342f, 0.015083836391568183899f, 0.082939967513084411621f, 0.012679710984230041504f, 0.051488820463418960571f, 0.053789965808391571045f, -0.064399749040603637695f, -0.028690259903669357300f, -0.016166776418685913086f, 0.0051315473392605781555f, 0.013295755721628665924f, -0.034195233136415481567f, -0.075015857815742492676f, -0.018688464537262916565f, 0.020932873710989952087f, 0.064363665878772735596f, 0.0065055033192038536072f, -0.068472854793071746826f, 0.034101672470569610596f, -0.038141142576932907104f, -0.0093600060790777206421f, -0.078036099672317504883f},
  {-0.15946814417839050293f, 0.23382031917572021484f, 0.35951247811317443848f, -0.18936149775981903076f, 0.076343208551406860352f, -0.16498243808746337891f, 0.19325713813304901123f, -0.049117088317871093750f, -0.0053644739091396331787f, 0.026339806616306304932f, -0.082729794085025787354f, -0.076892353594303131104f, -0.18172019720077514648f, -0.032348275184631347656f, -0.075018152594566345215f, 0.25327911972999572754f, 0.17649495601654052734f, 0.11362978070974349976f, -0.077076606452465057373f, 0.17000491917133331299f, 0.48355975747108459473f, -0.10685943812131881714f, 0.094144023954868316650f, 0.27055108547210693359f, -0.19697505235671997070f, -0.19624763727188110352f, 0.11248113214969635010f, 0.038013637065887451172f, 0.020635211840271949768f, -0.039571579545736312866f, 0.37270158529281616211f, -0.015122169628739356995f, 0.20735852420330047607f, 0.12605355679988861084f, 0.098191857337951660156f, 0.19348198175430297852f, -0.24291644990444183350f, -0.47880113124847412109f, 0.0097359716892242431641f, 0.10569057613611221313f, 0.21157531440258026123f, -0.28787088394165039062f, 0.13009454309940338135f, 0.018953785300254821777f, -0.036235541105270385742f, -0.24281720817089080811f, 0.20468430221080780029f, -0.35631570219993591309f, -0.013403349556028842926f, -0.061854042112827301025f, -0.27176436781883239746f, 0.16426394879817962646f, 0.044962842017412185669f, 0.056858524680137634277f, -0.22659748792648315430f, 0.17425002157688140869f, -0.16784019768238067627f, 0.085963949561119079590f, -0.14805519580841064453f, -0.10573798418045043945f, 0.0050133322365581989288f, -0.045780491083860397339f, 0.41329213976860046387f, 0.15369753539562225342f, 0.40173146128654479980f, 0.27903029322624206543f, 0.21402239799499511719f, 0.072721995413303375244f, 0.21622315049171447754f, -0.27906480431556701660f, -0.28877979516983032227f, 0.067717477679252624512f},
  {-0.15041166543960571289f, 0.16071385145187377930f, 0.13867145776748657227f, -0.18118771910667419434f, -0.12528456747531890869f, -0.043896738439798355103f, -0.21811124682426452637f, 0.031400568783283233643f, -0.20830182731151580811f, 0.047217752784490585327f, -0.10896734893321990967f, -0.10476204007863998413f, 0.083162873983383178711f, -0.049525231122970581055f, -0.55231940746307373047f, 0.24620917439460754395f, 0.20844075083732604980f, -0.0060315523296594619751f, 0.13988274335861206055f, 0.019094953313469886780f, 0.0050781755708158016205f, 0.37909194827079772949f, 0.39154621958732604980f, 0.24666608870029449463f, 0.041842579841613769531f, -0.26255553960800170898f, 0.0093474965542554855347f, 0.084452286362648010254f, -0.24863724410533905029f, 0.0075686620548367500305f, 0.30667877197265625000f, -0.030544929206371307373f, 0.10356628894805908203f, 0.043820265680551528931f, 0.091101802885532379150f, -0.11665254086256027222f, -0.14147114753723144531f, -0.11147572100162506104f, -0.16888967156410217285f, -0.44832175970077514648f, -0.017697442322969436646f, -0.21862342953681945801f, -0.18402323126792907715f, 0.017641289159655570984f, -0.14364790916442871094f, -0.26038616895675659180f, 0.23114132881164550781f, -0.12436605989933013916f, 0.022747434675693511963f, -0.070164561271667480469f, 0.060326106846332550049f, 0.31364506483078002930f, 0.043336745351552963257f, 0.093754775822162628174f, -0.071287430822849273682f, 0.0052865780889987945557f, -0.34734842181205749512f, -0.21788634359836578369f, -0.18214230239391326904f, 0.12601767480373382568f, 0.13438855111598968506f, 0.065054178237915039062f, -0.10928775370121002197f, 0.46826085448265075684f, 0.33599066734313964844f, 0.33218273520469665527f, 0.0037016232963651418686f, 0.081267870962619781494f, -0.16454052925109863281f, -0.16671486198902130127f, -0.17401118576526641846f, 0.10647032409906387329f},
  {0.25814998149871826172f, -0.14583532512187957764f, -0.024395896121859550476f, -0.13413916528224945068f, 0.084464758634567260742f, 0.0034993914887309074402f, 0.034522242844104766846f, -0.025334859266877174377f, 0.088393226265907287598f, -0.041839476674795150757f, 0.0023767321836203336716f, -0.11800298839807510376f, -0.032176043838262557983f, -0.043562881648540496826f, -0.078344494104385375977f, 0.024696981534361839294f, 0.082036904990673065186f, 0.0078931758180260658264f, 0.060909200459718704224f, 0.060226146131753921509f, -0.19982190430164337158f, 0.22754876315593719482f, -0.14952157437801361084f, 0.029542116448283195496f, -0.18992584943771362305f, -0.078964598476886749268f, -0.12134710699319839478f, -0.20321303606033325195f, 0.030507335439324378967f, -0.050986960530281066895f, 0.10491771250963211060f, -0.036004666239023208618f, -0.026308877393603324890f, 0.050732400268316268921f, 0.019214866682887077332f, 0.082814492285251617432f, -0.13199087977409362793f, -0.019782183691859245300f, 0.14549173414707183838f, -0.067785657942295074463f, -0.029718296602368354797f, -0.078286714851856231689f, -0.29328200221061706543f, 0.036840908229351043701f, -0.16416466236114501953f, -0.043873872607946395874f, 0.15045215189456939697f, 0.033380288630723953247f, -0.050680607557296752930f, -0.061069779098033905029f, -0.16056847572326660156f, -0.051763873547315597534f, 0.13684743642807006836f, -0.072853483259677886963f, 0.083637021481990814209f, -0.070424556732177734375f, -0.058191385120153427124f, 0.052742552012205123901f, -0.24498665332794189453f, -0.10137978941202163696f, -0.061224371194839477539f, 0.0057356883771717548370f, -0.0095245139673352241516f, 0.031809713691473007202f, 0.078791484236717224121f, -0.027018195018172264099f, 0.0016291292849928140640f, 0.055012296885251998901f, -0.045752454549074172974f, -0.0081422589719295501709f, -0.040335975587368011475f, 0.20064349472522735596f},
  {0.018993863835930824280f, -0.076902247965335845947f, 0.097488038241863250732f, -0.052537988871335983276f, 0.065167717635631561279f, 0.10450376570224761963f, 0.0059293671511113643646f, -0.021335238590836524963f, 0.19209238886833190918f, 0.25116449594497680664f, -0.051917281001806259155f, -0.030095649883151054382f, -0.090942591428756713867f, -0.18892820179462432861f, -0.14428018033504486084f, 0.051117647439241409302f, 0.13171987235546112061f, -0.20967490971088409424f, 0.032146584242582321167f, -0.16762034595012664795f, -0.029499124735593795776f, 0.071337573230266571045f, 0.10886670649051666260f, 0.16808953881263732910f, -0.059953231364488601685f, -0.19401980936527252197f, 0.12879422307014465332f, -0.17796497046947479248f, -0.10104335099458694458f, -0.10908434540033340454f, 0.082858279347419738770f, 0.16460770368576049805f, 0.020839607343077659607f, -0.084107615053653717041f, -0.015153622254729270935f, -0.033350918442010879517f, -0.12603098154067993164f, -0.14922772347927093506f, -0.024457115679979324341f, -0.046623889356851577759f, 0.048303537070751190186f, -0.046647477895021438599f, -0.34944823384284973145f, 0.049762293696403503418f, -0.14140272140502929688f, -0.14401501417160034180f, 0.14873133599758148193f, -0.040430076420307159424f, 0.023719472810626029968f, -0.027484428137540817261f, -0.016116628423333168030f, 0.048327937722206115723f, 0.071426585316658020020f, -0.090153366327285766602f, -0.0094350809231400489807f, 0.12891310453414916992f, -0.31442385911941528320f, -0.12270550429821014404f, -0.11783608049154281616f, 0.039298310875892639160f, -0.013954018242657184601f, 0.0013494200538843870163f, -0.17052514851093292236f, 0.18040727078914642334f, 0.059394169598817825317f, 0.14368508756160736084f, 0.18506489694118499756f, 0.11463145166635513306f, 0.070101045072078704834f, -0.078893966972827911377f, -0.044728331267833709717f, -0.031644862145185470581f}
};
static const float tensor_features_5_conv_5_fc_0_bias[24] = 
{-0.35209760069847106934f, -0.18074402213096618652f, -0.31957861781120300293f, -0.33223485946655273438f, -0.086368329823017120361f, -0.015933236107230186462f, -0.30421844124794006348f, -0.22443598508834838867f, 0.18269981443881988525f, -0.34006792306900024414f, -0.33323386311531066895f, 0.12376581132411956787f, -0.22117863595485687256f, -0.47777262330055236816f, -0.27509793639183044434f, -0.10593669861555099487f, -0.34973078966140747070f, -0.26471394300460815430f, -0.48378694057464599609f, -0.22232401371002197266f, -0.27720743417739868164f, -0.40207412838935852051f, -0.32130473852157592773f, -0.37985149025917053223f};
static const float tensor_features_5_conv_5_fc_2_weight[72][24] = 
{
  {0.011350829154253005981f, 0.060154683887958526611f, -0.012293148785829544067f, -0.053616989403963088989f, 0.17813719809055328369f, 0.12192267179489135742f, -0.10894703119993209839f, 0.025691274553537368774f, -0.12754176557064056396f, -0.15926897525787353516f, -0.019994538277387619019f, 0.19345068931579589844f, 0.039381064474582672119f, -0.17981825768947601318f, -0.10555800795555114746f, 0.18956117331981658936f, 0.031451769173145294189f, -0.014808351173996925354f, -0.036711819469928741455f, 0.059977468103170394897f, -0.058116000145673751831f, 0.19372984766960144043f, 0.24512360990047454834f, 0.055392846465110778809f},
  {-0.0030670443084090948105f, -0.57102966308593750000f, -0.0023131396155804395676f, -0.19467382133007049561f, 0.18015798926353454590f, -0.081311047077178955078f, 0.018501646816730499268f, -0.061583064496517181396f, 0.052173659205436706543f, 0.17986878752708435059f, 0.084657169878482818604f, -0.45203047990798950195f, -0.029644595459103584290f, 0.0085686529055237770081f, -0.14509730041027069092f, -0.29839056730270385742f, 0.0053281546570360660553f, 0.022301508113741874695f, -0.20440700650215148926f, -0.020538980141282081604f, 0.027153830975294113159f, -0.14690467715263366699f, 0.057060431689023971558f, -0.076135002076625823975f},
  {-0.033580768853425979614f, -0.10182414203882217407f, -0.062930569052696228027f, -0.065840192139148712158f, -0.058580063283443450928f, -0.081736959517002105713f, 0.10866435617208480835f, -0.065905988216400146484f, -0.26632758975028991699f, -0.12470729649066925049f, -0.056398075073957443237f, 0.12636432051658630371f, -0.0078912870958447456360f, -0.10078737139701843262f, -0.14466784894466400146f, 0.080525279045104980469f, -0.0043514957651495933533f, 0.017408287152647972107f, -0.17213954031467437744f, -0.0083450162783265113831f, 0.071949340403079986572f, 0.052516132593154907227f, 0.050564710050821304321f, -0.0040654591284692287445f},
  {0.056384433060884475708f, -0.25467395782470703125f, 0.045516464859247207642f, 0.013698336668312549591f, 0.11138629168272018433f, 0.19560308754444122314f, 0.035209119319915771484f, 0.053584653884172439575f, 0.10422503203153610229f, -0.29205560684204101562f, 0.19668434560298919678f, -0.23488870263099670410f, -0.012830732390284538269f, 0.12784920632839202881f, -0.11845892667770385742f, 0.026734417304396629333f, 0.14361456036567687988f, 0.084963366389274597168f, 0.062080305069684982300f, 0.019643399864435195923f, 0.20165449380874633789f, -0.071517847478389739990f, 0.019753746688365936279f, 0.14043718576431274414f},
  {0.048408631235361099243f, 0.22969399392604827881f, -0.23782543838024139404f, 0.15136939287185668945f, 0.25650408864021301270f, 0.053600911051034927368f, 0.089139476418495178223f, 0.083052553236484527588f, 0.022281521931290626526f, 0.037869818508625030518f, 0.16288097202777862549f, -0.22060668468475341797f, 0.097947224974632263184f, 0.068825736641883850098f, -0.095690973103046417236f, -0.087989605963230133057f, 0.079841412603855133057f, 0.040645964443683624268f, 0.12440695613622665405f, 0.11966941505670547485f, -0.058928459882736206055f, -0.13734467327594757080f, -0.077277444303035736084f, 0.18487098813056945801f},
  {0.0077221989631652832031f, 0.091279573738574981689f, 0.051936972886323928833f, -0.039515495300292968750f, -0.19673830270767211914f, 0.097875759005546569824f, -0.020613616332411766052f, 0.031974051147699356079f, 0.14545808732509613037f, 0.051449645310640335083f, 0.15519510209560394287f, 0.14661799371242523193f, 0.045411918312311172485f, -0.18081399798393249512f, -0.015518430620431900024f, -0.15953604876995086670f, 0.16772279143333435059f, 0.062848761677742004395f, 0.25611805915832519531f, 0.010452695190906524658f, -0.099559769034385681152f, -0.035105176270008087158f, -0.10821076482534408569f, 0.085615709424018859863f},
  {0.055794972926378250122f, -0.0062236646190285682678f, 0.031845454126596450806f, -0.0081481691449880599976f, -0.092315986752510070801f, -0.10549265146255493164f, -0.17847768962383270264f, 0.11741334199905395508f, -0.25273576378822326660f, -0.18123310804367065430f, -0.023355931043624877930f, 0.20473329722881317139f, -0.058402292430400848389f, 0.016531590372323989868f, 0.056751035153865814209f, -0.059408277273178100586f, -0.015565562061965465546f, 0.032040670514106750488f, 0.38702985644340515137f, 0.038703296333551406860f, -0.28133755922317504883f, -0.12910750508308410645f, 0.065106160938739776611f, 0.080162622034549713135f},
  {0.0087596094235777854919f, 0.094588592648506164551f, 0.20359082520008087158f, 0.023017283529043197632f, 0.76103121042251586914f, 0.71384358406066894531f, 0.046984598040580749512f, 0.078574165701866149902f, 0.60465848445892333984f, 0.054574824869632720947f, 0.085892647504806518555f, -0.093291953206062316895f, 0.022824035957455635071f, 0.058386344462633132935f, 0.44881460070610046387f, 0.76707684993743896484f, -0.057119168341159820557f, -0.012805641628801822662f, 0.43283426761627197266f, 0.041754942387342453003f, 0.63279372453689575195f, 0.40710410475730895996f, 0.054736293852329254150f, 0.11064033210277557373f},
  {-0.0042478428222239017487f, -0.31719601154327392578f, -0.16517263650894165039f, -0.20489613711833953857f, -0.17120198905467987061f, -0.17787283658981323242f, 0.10040400177240371704f, 0.036455463618040084839f, -0.36846360564231872559f, 0.032537672668695449829f, 0.067593857645988464355f, -0.22392188012599945068f, -0.069978743791580200195f, 0.17014017701148986816f, -0.17612127959728240967f, -0.18448765575885772705f, 0.057791363447904586792f, -0.0088258814066648483276f, 0.029623443260788917542f, -0.028360567986965179443f, -0.27069401741027832031f, 0.059979740530252456665f, -0.019172454252839088440f, -0.13070484995841979980f},
  {0.00011633479152806103230f, 0.42368584871292114258f, 0.075632326304912567139f, -0.24440780282020568848f, -0.12471807003021240234f, 0.075817018747329711914f, -0.099890321493148803711f, 0.030792346224188804626f, 0.30412283539772033691f, 0.21512952446937561035f, -0.033377919346094131470f, 0.75145298242568969727f, 0.074952282011508941650f, -0.31626564264297485352f, -0.031510747969150543213f, -0.013558297418057918549f, 0.10531020164489746094f, -0.022602669894695281982f, -0.16327433288097381592f, -0.031331606209278106689f, -0.0043327156454324722290f, 0.044820107519626617432f, -0.039953093975782394409f, 0.24203026294708251953f},
  {-0.073182500898838043213f, -0.28709957003593444824f, 0.15623338520526885986f, -0.0058916495181620121002f, -0.28026384115219116211f, 0.15834559500217437744f, -0.080790579319000244141f, 0.045259360224008560181f, -0.049460560083389282227f, 0.24336464703083038330f, 0.10451142489910125732f, 0.29579222202301025391f, -0.0081664556637406349182f, -0.28657466173171997070f, 0.060974020510911941528f, -0.060512885451316833496f, 0.013723787851631641388f, 0.023892229422926902771f, -0.23856091499328613281f, 0.0015806017909198999405f, -0.12578789889812469482f, 0.065786451101303100586f, 0.16451847553253173828f, -0.11032555252313613892f},
  {-0.15695226192474365234f, -0.24016015231609344482f, -0.15161997079849243164f, 0.31858590245246887207f, -0.26355129480361938477f, -0.084404394030570983887f, 0.12747871875762939453f, -0.052549857646226882935f, -0.11939986050128936768f, 0.16586691141128540039f, -0.050687916576862335205f, 0.11766374856233596802f, 0.026901673525571823120f, 0.13187149167060852051f, 0.37596026062965393066f, -0.055203679949045181274f, -0.040128555148839950562f, -0.041228182613849639893f, -0.23353017866611480713f, -0.085471555590629577637f, 0.014553496614098548889f, -0.23106625676155090332f, -0.038559965789318084717f, -0.084743991494178771973f},
  {-0.10344845056533813477f, 0.028822053223848342896f, -0.11439234763383865356f, 0.25290548801422119141f, -0.081664040684700012207f, -0.035580527037382125854f, -0.12570105493068695068f, 0.026622926816344261169f, 0.20526327192783355713f, -0.31380754709243774414f, 0.11924977600574493408f, 0.019791968166828155518f, -0.013769630342721939087f, 0.15463908016681671143f, 0.11589600890874862671f, -0.14068287611007690430f, 0.096816159784793853760f, -0.019508229568600654602f, -0.18023496866226196289f, -0.054449319839477539062f, -0.055297132581472396851f, -0.24758841097354888916f, 0.056270215660333633423f, 0.11249653249979019165f},
  {0.012013689614832401276f, 0.41379830241203308105f, -0.0067225242964923381805f, -0.43491783738136291504f, -0.13796018064022064209f, -0.00065397593425586819649f, -0.053662784397602081299f, 0.040967077016830444336f, -0.17031086981296539307f, 0.30471107363700866699f, 0.039584565907716751099f, 0.013398369774222373962f, 0.0055213058367371559143f, 0.063915565609931945801f, 0.019918469712138175964f, 0.062052257359027862549f, -0.021985733881592750549f, 0.071581780910491943359f, 0.017885455861687660217f, -0.020644294098019599915f, 0.15014502406120300293f, 0.28683882951736450195f, -0.082029074430465698242f, -0.18331016600131988525f},
  {-0.013738927431404590607f, 0.12338514626026153564f, 0.16145658493041992188f, 0.41706541180610656738f, 0.31770828366279602051f, -0.039261825382709503174f, 0.036538045853376388550f, -0.053464628756046295166f, -0.29592812061309814453f, 0.13252417743206024170f, -0.14005772769451141357f, 0.022345906123518943787f, 0.049608327448368072510f, 0.10175289958715438843f, 0.11652172356843948364f, 0.097077667713165283203f, -0.0048634242266416549683f, 0.026831248775124549866f, 0.0046235062181949615479f, -0.019600247964262962341f, 0.19517593085765838623f, 0.31003788113594055176f, 0.14787973463535308838f, 0.055925082415342330933f},
  {-0.10698381066322326660f, -0.14493252336978912354f, -0.092330567538738250732f, -0.025578115135431289673f, -0.24658495187759399414f, -0.32090815901756286621f, -0.046385172754526138306f, -0.045425113290548324585f, -0.34864220023155212402f, -0.0061153592541813850403f, -0.054861266165971755981f, -0.039880331605672836304f, -0.0035443652886897325516f, -0.12181738764047622681f, -0.17616866528987884521f, -0.32912510633468627930f, 0.050184816122055053711f, -0.027833444997668266296f, -0.33467823266983032227f, -0.0095526976510882377625f, -0.36735722422599792480f, -0.25390800833702087402f, -0.074512116611003875732f, -0.059412822127342224121f},
  {0.047995731234550476074f, 0.67110967636108398438f, 0.13706955313682556152f, -0.031616035848855972290f, -0.033057898283004760742f, 0.14327596127986907959f, 0.030117627233266830444f, 0.084069989621639251709f, 0.23124562203884124756f, 0.18799744546413421631f, -0.26976510882377624512f, 0.62084245681762695312f, -0.047645121812820434570f, -0.081704266369342803955f, 0.20432154834270477295f, 0.23389379680156707764f, 0.085926845669746398926f, -0.022144099697470664978f, -0.094544045627117156982f, 0.012927146628499031067f, 0.20446695387363433838f, 0.20082937180995941162f, 0.061466429382562637329f, 0.028420830145478248596f},
  {-0.12881904840469360352f, 0.46662610769271850586f, 0.18670658767223358154f, 0.053716477006673812866f, -0.10468803346157073975f, -0.047592066228389739990f, 0.13725237548351287842f, -0.075362399220466613770f, 0.011696853674948215485f, 0.18364204466342926025f, -0.21026907861232757568f, 0.35943222045898437500f, -0.090062715113162994385f, -0.035825189203023910522f, 0.079186774790287017822f, -0.049648299813270568848f, 0.080808445811271667480f, 0.14254626631736755371f, -0.057255577296018600464f, -0.053521264344453811646f, 0.0031612981110811233521f, 0.013075123541057109833f, 0.088403776288032531738f, -0.048240002244710922241f},
  {0.10347053408622741699f, -0.072224035859107971191f, 0.033699668943881988525f, 0.00025875907158479094505f, -0.035643931478261947632f, -0.030105879530310630798f, -0.060402628034353256226f, 0.045187424868345260620f, 0.10826237499713897705f, 0.29238471388816833496f, -0.12998889386653900146f, 0.51422381401062011719f, 0.032815411686897277832f, -0.16216379404067993164f, -0.072778657078742980957f, 0.16031806170940399170f, 0.16181337833404541016f, 0.12309431284666061401f, -0.15886177122592926025f, 0.048894859850406646729f, 0.060992114245891571045f, 0.023258749395608901978f, 0.074901781976222991943f, -0.11492181569337844849f},
  {-0.013677860610187053680f, -0.028990725055336952209f, 0.052284739911556243896f, -0.31201198697090148926f, -0.14627534151077270508f, 0.10972773283720016479f, -0.10195294022560119629f, 0.026344265788793563843f, 0.27593725919723510742f, 0.37290373444557189941f, 0.084240302443504333496f, 0.36958944797515869141f, -0.017540482804179191589f, -0.40101912617683410645f, -0.069848276674747467041f, 0.16466724872589111328f, -0.047934580594301223755f, 0.052322331815958023071f, -0.12200046330690383911f, 0.10489902645349502563f, 0.081691041588783264160f, 0.053159203380346298218f, 0.12278435379266738892f, -0.18625698983669281006f},
  {0.061884049326181411743f, -0.079924784600734710693f, 0.093955606222152709961f, 0.093550272285938262939f, -0.010591860860586166382f, -0.10697678476572036743f, 0.045055374503135681152f, -0.011013117618858814240f, -0.024041069671511650085f, -0.054851215332746505737f, -0.21819673478603363037f, -0.022073956206440925598f, 0.016538839787244796753f, 0.19892150163650512695f, 0.14254868030548095703f, 0.083503521978855133057f, -0.022487293928861618042f, -0.034305386245250701904f, 0.0011015221243724226952f, 0.089797951281070709229f, -0.082920253276824951172f, -0.16494642198085784912f, -0.21412628889083862305f, 0.025700291618704795837f},
  {0.017893005162477493286f, 0.19543944299221038818f, -0.022794099524617195129f, 0.12389661371707916260f, -0.22096261382102966309f, 0.022195488214492797852f, 0.035476401448249816895f, 0.024975912645459175110f, 0.16970703005790710449f, 0.18612194061279296875f, -0.079610273241996765137f, 0.63966137170791625977f, -0.037530690431594848633f, 0.12026984989643096924f, -0.20571899414062500000f, 0.099152535200119018555f, -0.089853852987289428711f, 0.071100153028964996338f, 0.082835942506790161133f, 0.0092344479635357856750f, -0.30995345115661621094f, -0.13577680289745330811f, -0.13726596534252166748f, -0.015207975171506404877f},
  {0.11183950304985046387f, 0.078416608273983001709f, -0.056468106806278228760f, 0.031011955812573432922f, 0.14797729253768920898f, -0.34561800956726074219f, 0.17251086235046386719f, -0.044793389737606048584f, 0.023068731650710105896f, 0.27615082263946533203f, 0.030360491946339607239f, -0.072524294257164001465f, 0.045412316918373107910f, 0.17567723989486694336f, -0.12085948884487152100f, -0.085603028535842895508f, -0.045614007860422134399f, -0.073317296802997589111f, 0.0019301641732454299927f, -0.023589389398694038391f, -0.063493512570858001709f, 0.066652320325374603271f, -0.011566238477826118469f, 0.038347851485013961792f},
  {-0.054175578057765960693f, -0.037070199847221374512f, 0.21171918511390686035f, 0.17046158015727996826f, -0.21586373448371887207f, 0.10404957085847854614f, -0.023174254223704338074f, 0.035855337977409362793f, -0.021236075088381767273f, -0.048816949129104614258f, 0.012980672530829906464f, 0.20588843524456024170f, 0.022156620398163795471f, 0.062742739915847778320f, 0.24473102390766143799f, 0.083246082067489624023f, -0.065658949315547943115f, -0.035501647740602493286f, 0.10942953079938888550f, -0.015396296977996826172f, 0.041669875383377075195f, -0.082872845232486724854f, 0.052974022924900054932f, -0.057819880545139312744f},
  {-0.071554385125637054443f, 0.31012067198753356934f, -0.0020039400551468133926f, 0.30268588662147521973f, -0.15564931929111480713f, -0.031466994434595108032f, -0.011216809973120689392f, 0.0054275938309729099274f, -0.37455049157142639160f, 0.22999148070812225342f, -0.21208071708679199219f, 0.016476260498166084290f, -0.056526608765125274658f, -0.15067571401596069336f, 0.00039645886863581836224f, -0.20799916982650756836f, -0.081847138702869415283f, -0.027331950142979621887f, -0.28213870525360107422f, -0.027327911928296089172f, -0.15035243332386016846f, -0.15281422436237335205f, -0.035509563982486724854f, 0.021930608898401260376f},
  {0.019515218213200569153f, 0.035698778927326202393f, -0.27017879486083984375f, -0.11544466018676757812f, -0.16086268424987792969f, -0.15196737647056579590f, 0.079098522663116455078f, -0.066143043339252471924f, -0.27213323116302490234f, 0.084335796535015106201f, 0.050788994878530502319f, -0.45411738753318786621f, -0.011428873986005783081f, 0.087679505348205566406f, -0.29477027058601379395f, -0.38319838047027587891f, -0.075135938823223114014f, 0.0029136100783944129944f, -0.10955641418695449829f, -0.062211237847805023193f, -0.12006423622369766235f, -0.021562147885560989380f, -0.16630958020687103271f, 0.0032762880437076091766f},
  {0.054796334356069564819f, 0.00087236479157581925392f, 0.13886995613574981689f, 0.048768654465675354004f, -0.15683664381504058838f, -0.089648321270942687988f, -0.17873182892799377441f, -0.020957097411155700684f, 0.25568214058876037598f, 0.057647492736577987671f, 0.16963870823383331299f, -0.065354295074939727783f, 0.012140292674303054810f, -0.054171226918697357178f, -0.018749199807643890381f, 0.16558080911636352539f, -0.076893582940101623535f, 0.045496188104152679443f, -0.094646401703357696533f, -0.022132433950901031494f, 0.087070621550083160400f, 0.054266240447759628296f, 0.21054494380950927734f, -0.023644717410206794739f},
  {-0.041405085474252700806f, 0.12394161522388458252f, 0.11055681109428405762f, 0.24840022623538970947f, 0.13096292316913604736f, 0.094615034759044647217f, 0.14128908514976501465f, -0.028620382770895957947f, -0.10716574639081954956f, 0.0025277899112552404404f, 0.013513095676898956299f, -0.076266363263130187988f, 0.026041330769658088684f, -0.039031356573104858398f, -0.063955284655094146729f, -0.15415970981121063232f, 0.022295480594038963318f, -0.022605657577514648438f, -0.078755445778369903564f, -0.062095712870359420776f, -0.13487514853477478027f, -0.10583662986755371094f, -0.11365688592195510864f, -0.0043941410258412361145f},
  {-0.047887261956930160522f, -0.038052372634410858154f, -0.22058400511741638184f, 0.10719941556453704834f, 0.00066098629031330347061f, -0.12677794694900512695f, 0.061393026262521743774f, 0.060708556324243545532f, -0.12182828783988952637f, 0.13614688813686370850f, 0.16251072287559509277f, -0.11467985063791275024f, -0.034984894096851348877f, -0.057199884206056594849f, -0.0050673186779022216797f, -0.20076149702072143555f, -0.011167015880346298218f, 0.010325976647436618805f, -0.34240472316741943359f, -0.021870570257306098938f, -0.14003875851631164551f, -0.20114316046237945557f, -0.032119095325469970703f, -0.068733774125576019287f},
  {-0.0052905054762959480286f, 0.29743126034736633301f, 0.069866716861724853516f, 0.093606568872928619385f, 0.17413377761840820312f, -0.21434754133224487305f, -0.048329062759876251221f, -0.00060278462478891015053f, -0.27501839399337768555f, -0.044718999415636062622f, 0.0052691115997731685638f, 0.16153700649738311768f, 0.053474958986043930054f, 0.17731520533561706543f, -0.36132028698921203613f, -0.42415565252304077148f, 0.26929417252540588379f, 0.10240592062473297119f, -0.37081485986709594727f, 0.053945403546094894409f, -0.079187810420989990234f, -0.0038051805458962917328f, -0.024984758347272872925f, 0.068788893520832061768f},
  {-0.010887194424867630005f, 0.26206952333450317383f, -0.010624586604535579681f, -0.044820409268140792847f, 0.17570546269416809082f, 0.058345723897218704224f, 0.053745768964290618896f, -0.021199647337198257446f, 0.31337794661521911621f, -0.053682141005992889404f, 0.13389807939529418945f, -0.022466413676738739014f, 0.024685468524694442749f, 0.17473343014717102051f, 0.29760640859603881836f, 0.028585312888026237488f, 0.10112133622169494629f, 0.014687300659716129303f, 0.00014595995889976620674f, -0.046623457223176956177f, -0.021698987111449241638f, 0.11202596127986907959f, -0.0091704633086919784546f, -0.061518061906099319458f},
  {-0.049904748797416687012f, 0.020942309871315956116f, -0.036139309406280517578f, 0.49738863110542297363f, -0.0083120977506041526794f, 0.18610398471355438232f, -0.20083166658878326416f, -0.044254701584577560425f, 0.070139102637767791748f, 0.22068020701408386230f, -0.020692801102995872498f, 0.49961280822753906250f, -0.027982555329799652100f, -0.043066214770078659058f, 0.11575987190008163452f, 0.22041006386280059814f, 0.097804494202136993408f, -0.037405554205179214478f, -0.22441412508487701416f, -0.026465602219104766846f, 0.16328050196170806885f, 0.26452103257179260254f, 0.086318239569664001465f, -0.071140706539154052734f},
  {0.020180953666567802429f, 0.20634543895721435547f, 0.050488580018281936646f, 0.028074016794562339783f, 0.45745870471000671387f, 0.12543176114559173584f, -0.19032779335975646973f, -0.0099238315597176551819f, 0.0039225593209266662598f, -0.11746385693550109863f, 0.11931829154491424561f, 0.12917232513427734375f, 0.039970442652702331543f, -0.0067788441665470600128f, -0.18364280462265014648f, -0.020488640293478965759f, -0.044923186302185058594f, 0.034792181104421615601f, -0.041707761585712432861f, 0.11431209743022918701f, -0.13930621743202209473f, 0.037709157913923263550f, -0.023528313264250755310f, 0.25017884373664855957f},
  {-0.018632929772138595581f, -0.33479467034339904785f, -0.11265586316585540771f, -0.29419174790382385254f, -0.020506311208009719849f, -0.045550033450126647949f, -0.053813867270946502686f, -0.017287107184529304504f, -0.0061335610225796699524f, -0.15964972972869873047f, 0.14362347126007080078f, -0.32743757963180541992f, 0.025546664372086524963f, 0.022920969873666763306f, 0.10033029317855834961f, -0.093729116022586822510f, -0.021536961197853088379f, 0.060409586876630783081f, -0.14858557283878326416f, 0.016583941876888275146f, 0.0038482840172946453094f, -0.39283570647239685059f, 0.045768216252326965332f, 0.060511767864227294922f},
  {0.033543407917022705078f, -0.12329587340354919434f, 0.054278552532196044922f, -0.14476649463176727295f, -0.042454354465007781982f, -0.074200600385665893555f, -0.057075913995504379272f, -0.0060409074649214744568f, 0.038018885999917984009f, 0.13740432262420654297f, -0.014636605046689510345f, 0.034036453813314437866f, -0.015270369127392768860f, -0.29236647486686706543f, 0.25551727414131164551f, 0.11842670291662216187f, 0.085920855402946472168f, -0.042543936520814895630f, 0.097515337169170379639f, 0.014972242526710033417f, -0.033609308302402496338f, 0.11112235486507415771f, 0.16857850551605224609f, 0.0031036676373332738876f},
  {0.053086914122104644775f, -0.095826700329780578613f, 0.25408899784088134766f, 0.29804331064224243164f, 0.28167766332626342773f, 0.079525925219058990479f, -0.0097952987998723983765f, 0.031419824808835983276f, -0.046993248164653778076f, -0.021606093272566795349f, 0.034406658262014389038f, 0.16954185068607330322f, -0.0022523731458932161331f, 0.022691123187541961670f, 0.27833086252212524414f, 0.11773660033941268921f, 0.081116221845149993896f, -0.036388900130987167358f, 0.16780066490173339844f, 0.038828197866678237915f, 0.22337804734706878662f, 0.17564897239208221436f, 0.069257348775863647461f, 0.022646823897957801819f},
  {-0.031384103000164031982f, 0.47198224067687988281f, -0.068231940269470214844f, 0.051113314926624298096f, 0.15408794581890106201f, -0.035853955894708633423f, -0.13021568953990936279f, 0.032954208552837371826f, 0.26271042227745056152f, 0.25802198052406311035f, 0.014474274590611457825f, 0.22487394511699676514f, 0.060017667710781097412f, 0.014577328227460384369f, 0.050271596759557723999f, -0.034727141261100769043f, 0.092531993985176086426f, -0.025248041376471519470f, -0.12587964534759521484f, 0.10520339012145996094f, 0.074201509356498718262f, 0.15429168939590454102f, 0.0012484990293160080910f, 0.038131508976221084595f},
  {0.048890229314565658569f, 0.32612937688827514648f, -0.089972615242004394531f, -0.38369613885879516602f, -0.35632714629173278809f, -0.078239865601062774658f, -0.061019878834486007690f, 0.094257891178131103516f, -0.077159382402896881104f, -0.29734805226325988770f, -0.014701311476528644562f, -0.060549855232238769531f, -0.055695109069347381592f, -0.061739720404148101807f, 0.088588170707225799561f, -0.19437740743160247803f, 0.035268660634756088257f, 0.00094395776977762579918f, -0.25198155641555786133f, -0.020233193412423133850f, -0.31721961498260498047f, -0.076866455376148223877f, 0.027968928217887878418f, -0.085864521563053131104f},
  {-0.059418499469757080078f, 0.30403938889503479004f, 0.037950828671455383301f, 0.40955811738967895508f, -0.036181755363941192627f, 0.068289056420326232910f, 0.054628178477287292480f, -0.081020042300224304199f, -0.19048294425010681152f, -0.26031184196472167969f, 0.058653146028518676758f, -0.43236240744590759277f, -0.0052935332059860229492f, -0.037380021065473556519f, -0.40956944227218627930f, 0.12943519651889801025f, 0.0096669392660260200500f, -0.098650179803371429443f, -0.10278670489788055420f, 0.030592750757932662964f, -0.12992669641971588135f, -0.10606318712234497070f, 0.092250928282737731934f, 0.10240839421749114990f},
  {-0.073083639144897460938f, 0.24958071112632751465f, 0.17927579581737518311f, 0.40071430802345275879f, -0.0083309384062886238098f, -0.41365918517112731934f, -0.13851998746395111084f, 0.027993617579340934753f, -0.34015876054763793945f, -0.20775340497493743896f, -0.16253811120986938477f, -0.50436425209045410156f, -0.047645937651395797729f, -0.12607245147228240967f, 0.22035986185073852539f, -0.34024956822395324707f, 0.056758169084787368774f, -0.058049641549587249756f, -0.043715696781873703003f, -0.033434785902500152588f, -0.19487044215202331543f, 0.16196285188198089600f, -0.14604517817497253418f, 0.24612791836261749268f},
  {-0.036526910960674285889f, 0.12510408461093902588f, -0.21943424642086029053f, -0.26981174945831298828f, -0.10659614950418472290f, 0.055592298507690429688f, -0.036707062274217605591f, -0.039000947028398513794f, -0.067889966070652008057f, 0.082598194479942321777f, 0.062352400273084640503f, 0.10671519488096237183f, 0.0020116965752094984055f, 0.085540600121021270752f, -0.045607801526784896851f, -0.096728228032588958740f, 0.022569295018911361694f, -0.044673658907413482666f, -0.16832934319972991943f, 0.034606520086526870728f, -0.26740509271621704102f, 0.0052228872664272785187f, -0.028366027399897575378f, -0.034398797899484634399f},
  {0.019808102399110794067f, -0.052553515881299972534f, 0.13899962604045867920f, -0.12014655023813247681f, -0.10893910378217697144f, 0.033760894089937210083f, 0.097125947475433349609f, -0.084392853081226348877f, 0.35344526171684265137f, 0.11367185413837432861f, -0.21675236523151397705f, -0.062476042658090591431f, -0.018508713692426681519f, -0.065618783235549926758f, 0.59380197525024414062f, 0.26908314228057861328f, -0.11974788457155227661f, -0.054015938192605972290f, 0.24251830577850341797f, -0.043194968253374099731f, 0.22676719725131988525f, -0.10448072105646133423f, -0.079155988991260528564f, -0.15049840509891510010f},
  {0.050182074308395385742f, -0.23088788986206054688f, 0.079979293048381805420f, -0.014020964503288269043f, 0.27528145909309387207f, 0.077946998178958892822f, -0.015487062744796276093f, 0.12283192574977874756f, 0.016464890912175178528f, -0.094269283115863800049f, -0.080366551876068115234f, 0.13873310387134552002f, -0.00088130153017118573189f, -0.061682451516389846802f, 0.18375460803508758545f, -0.12380228936672210693f, 0.0068504898808896541595f, 0.094488792121410369873f, -0.0053381375037133693695f, 0.063989602029323577881f, 0.37122040987014770508f, 0.22007241845130920410f, 0.14611266553401947021f, 0.11821351945400238037f},
  {0.0084017142653465270996f, 0.051828257739543914795f, -0.13705493509769439697f, -0.28595563769340515137f, -0.081158295273780822754f, -0.079829774796962738037f, -0.12899427115917205811f, -0.011687334626913070679f, -0.28671267628669738770f, 0.10978739708662033081f, -0.070034936070442199707f, 0.51592546701431274414f, -0.024539096280932426453f, 0.010164371691644191742f, 0.18331700563430786133f, -0.059618413448333740234f, -0.032951213419437408447f, 0.027698643505573272705f, 0.067150287330150604248f, 0.0031979340128600597382f, -0.14372807741165161133f, -0.22459304332733154297f, 0.061114683747291564941f, 0.049158766865730285645f},
  {0.052933197468519210815f, 0.053202878683805465698f, -0.082359760999679565430f, 0.19616736471652984619f, 0.00072610803181305527687f, -0.044706650078296661377f, -0.016873635351657867432f, 0.032585252076387405396f, -0.21768026053905487061f, -0.15504457056522369385f, -0.24354180693626403809f, 0.15391719341278076172f, 0.054939996451139450073f, 0.079912699759006500244f, -0.080339327454566955566f, -0.048334952443838119507f, 0.10572380572557449341f, -0.062034040689468383789f, 0.025850802659988403320f, 0.039603915065526962280f, -0.083194702863693237305f, -0.055611528456211090088f, 0.23010933399200439453f, -0.16885770857334136963f},
  {-0.019261585548520088196f, -0.098619699478149414062f, 0.24584883451461791992f, 0.47316837310791015625f, 0.0037830770015716552734f, 0.12876980006694793701f, 0.0071852682158350944519f, 0.027462992817163467407f, 0.059326749294996261597f, 0.16491797566413879395f, -0.18554224073886871338f, 0.18175296485424041748f, 0.00099451956339180469513f, -0.041901353746652603149f, -0.12828868627548217773f, 0.18806420266628265381f, 0.081395044922828674316f, 0.049691896885633468628f, 0.082721300423145294189f, 0.050638161599636077881f, 0.23414982855319976807f, 0.21984106302261352539f, -0.00035449644201435148716f, 0.12717424333095550537f},
  {-0.040571317076683044434f, 0.52617073059082031250f, 0.21634192764759063721f, -0.24115467071533203125f, 0.11656553298234939575f, 0.20892368257045745850f, 0.10200209170579910278f, -0.11366897821426391602f, 0.36266756057739257812f, 0.068360403180122375488f, 0.060111518949270248413f, 0.15718348324298858643f, 0.017802789807319641113f, 0.26980477571487426758f, -0.041053980588912963867f, 0.35050004720687866211f, 0.089612789452075958252f, 0.0037893215194344520569f, 0.12554948031902313232f, 0.0021352383773773908615f, 0.072039350867271423340f, -0.012863595038652420044f, 0.097045212984085083008f, 0.061697456985712051392f},
  {-0.022034494206309318542f, 0.29579284787178039551f, 0.16979469358921051025f, -0.29003557562828063965f, -0.10062952339649200439f, 0.37961232662200927734f, -0.081482708454132080078f, -0.020000247284770011902f, 0.24895393848419189453f, 0.13959647715091705322f, 0.094490766525268554688f, 0.69885224103927612305f, 0.011012673377990722656f, -0.098272979259490966797f, 0.081274293363094329834f, 0.045512039214372634888f, 0.21902036666870117188f, -0.046498958021402359009f, -0.011023257859051227570f, -0.028802530840039253235f, -0.27585107088088989258f, -0.16271486878395080566f, 0.030677426606416702271f, 0.036864649504423141479f},
  {-0.021099174395203590393f, 0.29003039002418518066f, 0.029013300314545631409f, 0.059066977351903915405f, 0.20837444067001342773f, 0.011267568916082382202f, 0.052174326032400131226f, 0.086466282606124877930f, -0.042370583862066268921f, 0.039095614105463027954f, 0.012172467075288295746f, -0.093048326671123504639f, 0.0073919640854001045227f, 0.15593668818473815918f, 0.24822731316089630127f, 0.092275403439998626709f, 0.018849099054932594299f, -0.0044505754485726356506f, 0.00018344577983953058720f, -0.026604544371366500854f, 0.42410734295845031738f, 0.12064851820468902588f, -0.073153384029865264893f, 0.099422067403793334961f},
  {-0.076250605285167694092f, 0.28514140844345092773f, 0.28065413236618041992f, 0.26889461278915405273f, 0.27420437335968017578f, 0.20213790237903594971f, 0.097079239785671234131f, 0.030150607228279113770f, 0.14106254279613494873f, -0.0076588764786720275879f, -0.15037029981613159180f, -0.0087822312489151954651f, 0.058731585741043090820f, -0.16125111281871795654f, -0.052725423127412796021f, 0.25474551320075988770f, -0.068122521042823791504f, 0.013691032305359840393f, 0.19757540524005889893f, -0.047235623002052307129f, 0.27465018630027770996f, 0.32482010126113891602f, 0.098819397389888763428f, 0.081253513693809509277f},
  {0.014158426783978939056f, -0.016174731776118278503f, -0.0018051234073936939240f, -0.070853054523468017578f, -0.026341186836361885071f, 0.072334453463554382324f, -0.023357590660452842712f, 0.032250773161649703979f, -0.18147645890712738037f, 0.21940073370933532715f, 0.10035064071416854858f, -0.055564161390066146851f, 0.036564409732818603516f, 0.36799186468124389648f, -0.10230397433042526245f, -0.037930510938167572021f, -0.079644538462162017822f, -0.044828251004219055176f, 0.0048512686043977737427f, -0.024815618991851806641f, 0.084142863750457763672f, 0.25243011116981506348f, 0.088463820517063140869f, 0.059027608484029769897f},
  {0.097903914749622344971f, 0.0029856739565730094910f, 0.12826572358608245850f, -0.070165470242500305176f, 0.42880934476852416992f, 0.25992774963378906250f, -0.018151069059967994690f, 0.016194779425859451294f, 0.27130869030952453613f, 0.14597675204277038574f, -0.026683324947953224182f, 0.043201077729463577271f, 0.025079568848013877869f, 0.24967963993549346924f, 0.29631832242012023926f, 0.27928134799003601074f, -0.10215829312801361084f, -0.11761659383773803711f, 0.20395658910274505615f, 0.068657688796520233154f, 0.31113883852958679199f, 0.18804092705249786377f, 0.0039246478118002414703f, 0.080121971666812896729f},
  {-0.059653289616107940674f, -0.048158992081880569458f, 0.12127500027418136597f, 0.17098031938076019287f, 0.015027225017547607422f, 0.098523750901222229004f, -0.14023768901824951172f, 0.058254785835742950439f, 0.42992767691612243652f, -0.018546191975474357605f, 0.12088517844676971436f, 0.44924193620681762695f, -0.038711063563823699951f, 0.066977240145206451416f, 0.22710913419723510742f, -0.087811149656772613525f, -0.10619692504405975342f, -0.062975354492664337158f, -0.32274484634399414062f, -0.027643976733088493347f, -0.017507432028651237488f, -0.20742341876029968262f, 0.065387606620788574219f, -0.10665813833475112915f},
  {-0.040381882339715957642f, -0.069102443754673004150f, -0.22635641694068908691f, -0.23999427258968353271f, -0.090416319668292999268f, 0.037141229957342147827f, -0.23065149784088134766f, 0.019718518480658531189f, 0.058410167694091796875f, -0.019376423209905624390f, -0.14745582640171051025f, -0.22995349764823913574f, -0.059112358838319778442f, -0.40133988857269287109f, 0.10435222834348678589f, 0.33209526538848876953f, -0.049036294221878051758f, -0.041995331645011901855f, -0.067859448492527008057f, -0.041722990572452545166f, 0.13917399942874908447f, -0.15876783430576324463f, -0.011028640903532505035f, 0.0065080751664936542511f},
  {0.031521938741207122803f, 0.28468662500381469727f, -0.044661674648523330688f, -0.029278995469212532043f, -0.44505110383033752441f, -0.023500476032495498657f, -0.12815591692924499512f, 0.0011438925284892320633f, -0.34674510359764099121f, 0.0085975751280784606934f, -0.17303553223609924316f, 0.37478855252265930176f, 0.10239148885011672974f, 0.20132090151309967041f, 0.18084815144538879395f, -0.0078993858769536018372f, 0.099517554044723510742f, 0.035691399127244949341f, 0.17322139441967010498f, -0.012357178144156932831f, -0.034207493066787719727f, -0.015853287652134895325f, 0.032462265342473983765f, -0.093716003000736236572f},
  {-0.053740203380584716797f, 0.23765335977077484131f, 0.13176654279232025146f, -0.092824324965476989746f, 0.077868983149528503418f, -0.21204157173633575439f, 0.053421024233102798462f, -0.039978355169296264648f, 0.086706832051277160645f, -0.16788142919540405273f, 0.0032112183980643749237f, -0.098646268248558044434f, 0.061086930334568023682f, 0.034064851701259613037f, 0.13831982016563415527f, -0.016344938427209854126f, -0.12405275553464889526f, 0.022319383919239044189f, 0.096005894243717193604f, 0.031522564589977264404f, -0.041653223335742950439f, 0.20629005134105682373f, 0.077356934547424316406f, 0.23744791746139526367f},
  {-0.037658862769603729248f, -0.46300914883613586426f, -0.075454965233802795410f, 0.32603770494461059570f, -0.11074981838464736938f, -0.18508778512477874756f, 0.050658751279115676880f, 0.013848355971276760101f, -0.010093322023749351501f, -0.10861024260520935059f, 0.10086243599653244019f, -0.31422835588455200195f, -0.016202462837100028992f, -0.16953715682029724121f, -0.14432612061500549316f, -0.15306806564331054688f, -0.048708222806453704834f, 0.052046764642000198364f, -0.14341957867145538330f, -0.020105807110667228699f, -0.032917968928813934326f, -0.27213168144226074219f, 0.026568137109279632568f, 0.15207795798778533936f},
  {0.056384611874818801880f, -0.19802777469158172607f, -0.10501762479543685913f, 0.16237080097198486328f, -0.012155313044786453247f, 0.17419511079788208008f, -0.10513544827699661255f, 0.16064062714576721191f, 0.19167761504650115967f, -0.024017667397856712341f, 0.017197178676724433899f, 0.090531095862388610840f, 0.0065117776393890380859f, -0.16970038414001464844f, -0.089444957673549652100f, 0.094372309744358062744f, -0.10459221899509429932f, 0.020201051607728004456f, -0.084973365068435668945f, -0.032142058014869689941f, -0.059475079178810119629f, -0.044246267527341842651f, -0.020380638539791107178f, -0.00093669223133474588394f},
  {0.049776636064052581787f, -0.48369237780570983887f, 0.12486062198877334595f, 0.11344502866268157959f, -0.098488517105579376221f, -0.35683751106262207031f, 0.017334790900349617004f, -0.0063536516390740871429f, -0.19510611891746520996f, -0.33728659152984619141f, 0.27188983559608459473f, -0.69902503490447998047f, -0.010257843881845474243f, 0.055197391659021377563f, 0.20268273353576660156f, -0.23647402226924896240f, 0.0070631275884807109833f, 0.046335950493812561035f, -0.040966991335153579712f, 0.023060388863086700439f, 0.0031729440670460462570f, -0.15483167767524719238f, 0.14476931095123291016f, 0.15249659121036529541f},
  {0.051421850919723510742f, -0.26717054843902587891f, -0.0029592879582196474075f, -0.36457914113998413086f, -0.091652683913707733154f, 0.0021408756729215383530f, 0.17565491795539855957f, 0.11474226415157318115f, 0.053789418190717697144f, 0.11792401224374771118f, 0.12708693742752075195f, 0.016574120149016380310f, 0.037338208407163619995f, 0.14717757701873779297f, 0.16229116916656494141f, -0.027411740273237228394f, 0.0097446208819746971130f, -0.064173355698585510254f, -0.12456162273883819580f, 0.048313949257135391235f, 0.21368443965911865234f, 0.17058923840522766113f, 0.096208773553371429443f, 0.047384157776832580566f},
  {-0.0059226150624454021454f, -0.070523016154766082764f, 0.23774929344654083252f, 0.24140086770057678223f, 0.47878316044807434082f, -0.051280092447996139526f, 0.089250423014163970947f, 0.043780751526355743408f, -0.24692152440547943115f, 0.048370536416769027710f, -0.16602487862110137939f, -0.65565741062164306641f, 0.00054546433966606855392f, 0.29022666811943054199f, 0.19068785011768341064f, -0.20164318382740020752f, 0.034116324037313461304f, -0.0094106290489435195923f, 0.11406293511390686035f, 0.044577356427907943726f, 0.13305877149105072021f, 0.021072948351502418518f, 0.22482036054134368896f, 0.029174458235502243042f},
  {-0.031412385404109954834f, -0.19111652672290802002f, -0.16441322863101959229f, 0.28254833817481994629f, -0.24981625378131866455f, 0.0093663604930043220520f, -0.013728242367506027222f, -0.049525309354066848755f, -0.33804970979690551758f, -0.13619042932987213135f, 0.073460966348648071289f, -0.67540240287780761719f, -0.054318279027938842773f, 0.087967246770858764648f, 0.036567896604537963867f, 0.039707589894533157349f, 0.095335319638252258301f, 0.072685554623603820801f, 0.40428984165191650391f, -0.046869255602359771729f, 0.14241471886634826660f, 0.28970995545387268066f, 0.063074372708797454834f, 0.057465784251689910889f},
  {-0.064503401517868041992f, 0.026575079187750816345f, -0.24316947162151336670f, -0.20335032045841217041f, 0.23260314762592315674f, 0.083436965942382812500f, -0.033661413937807083130f, 0.065929368138313293457f, 0.26347750425338745117f, 0.18147225677967071533f, 0.18589115142822265625f, 0.14071874320507049561f, -0.00045325770042836666107f, -0.18601094186305999756f, -0.12845811247825622559f, 0.17493215203285217285f, 0.035940390080213546753f, 0.021053079515695571899f, -0.30249270796775817871f, -0.073285631835460662842f, 0.055095143616199493408f, 0.15340806543827056885f, -0.079623170197010040283f, -0.088429190218448638916f},
  {0.079577386379241943359f, 0.11381560564041137695f, -0.010879436507821083069f, 0.12718538939952850342f, 0.075066894292831420898f, -0.014892468228936195374f, -0.035415258258581161499f, 0.084989741444587707520f, -0.11424025893211364746f, 0.0065752938389778137207f, 0.077914848923683166504f, -0.17764647305011749268f, 0.037438340485095977783f, -0.23595485091209411621f, -0.28172409534454345703f, -0.20775581896305084229f, -0.0067701977677643299103f, -0.051932532340288162231f, -0.22286258637905120850f, 0.011272135190665721893f, 0.092520199716091156006f, -0.013449258171021938324f, -0.091851621866226196289f, -0.0083374446257948875427f},
  {-0.11125515401363372803f, 0.13366900384426116943f, 0.046808268874883651733f, -0.023604610934853553772f, -0.00026559774414636194706f, 0.085590347647666931152f, 0.048698764294385910034f, -0.024724489077925682068f, -0.095256403088569641113f, 0.10004471242427825928f, 0.044216144829988479614f, -0.064143240451812744141f, -0.034812677651643753052f, -0.12456067651510238647f, -0.43311369419097900391f, -0.14894749224185943604f, -0.039015755057334899902f, 0.038430914282798767090f, 0.13678133487701416016f, -0.054009359329938888550f, 0.038273878395557403564f, -0.031951379030942916870f, -0.031800147145986557007f, 0.080636389553546905518f},
  {0.071215763688087463379f, -0.034685019403696060181f, 0.052552532404661178589f, 0.14769211411476135254f, -0.36676767468452453613f, -0.26068654656410217285f, 0.061512172222137451172f, -0.16016870737075805664f, -0.28450158238410949707f, -0.12495777010917663574f, -0.18589620292186737061f, -0.12355006486177444458f, -0.0046889344230294227600f, 0.40712937712669372559f, 0.24331212043762207031f, 0.043215028941631317139f, -0.14106890559196472168f, -0.055647645145654678345f, 0.090721331536769866943f, 0.021841349080204963684f, -0.25911128520965576172f, 0.19782410562038421631f, 0.17309428751468658447f, -0.016367062926292419434f},
  {0.089684411883354187012f, -0.14131630957126617432f, 0.073285929858684539795f, -0.24978068470954895020f, -0.084372885525226593018f, 0.070650406181812286377f, 0.10215576738119125366f, -0.069418318569660186768f, 0.076429553329944610596f, 0.092015109956264495850f, 0.047303020954132080078f, 0.10721686482429504395f, 0.029164895415306091309f, -0.23517802357673645020f, 0.10460590571165084839f, -0.061880271881818771362f, -0.021813742816448211670f, 0.077995084226131439209f, 0.12681338191032409668f, 0.015140097588300704956f, 0.24487957358360290527f, 0.27018132805824279785f, 0.14719316363334655762f, -0.077795960009098052979f},
  {-0.077328599989414215088f, -0.30151060223579406738f, 0.25188577175140380859f, 0.12223420292139053345f, 0.039238072931766510010f, -0.25364637374877929688f, 0.037846535444259643555f, -0.13997778296470642090f, -0.47437790036201477051f, -0.31183591485023498535f, 0.053199205547571182251f, -0.62242525815963745117f, 0.10527874529361724854f, 0.25653871893882751465f, 0.17340941727161407471f, -0.011417835950851440430f, 0.10205049067735671997f, -0.024101383984088897705f, -0.077379651367664337158f, -0.034605711698532104492f, -0.092155009508132934570f, 0.36952897906303405762f, 0.13825847208499908447f, 0.095001280307769775391f},
  {-0.0021297466009855270386f, 0.41059032082557678223f, -0.13830040395259857178f, 0.070169188082218170166f, -0.22052448987960815430f, 0.0035462258383631706238f, -0.017860017716884613037f, -0.042179048061370849609f, -0.15805864334106445312f, 0.062787644565105438232f, 0.077071294188499450684f, -0.037672620266675949097f, 0.031098250299692153931f, -0.22955822944641113281f, -0.0037052191328257322311f, -0.11232244968414306641f, 0.0030386468861252069473f, 0.025848664343357086182f, 0.46863222122192382812f, 0.019657654687762260437f, -0.053642708808183670044f, 0.10524361580610275269f, -0.087491087615489959717f, 0.042657531797885894775f},
  {0.15244249999523162842f, 0.22340203821659088135f, -0.015172137878835201263f, -0.11329799890518188477f, 0.35554939508438110352f, 0.12555547058582305908f, -0.051747087389230728149f, 0.052271630614995956421f, 0.21214245259761810303f, 0.19052346050739288330f, 0.071573778986930847168f, 0.25151497125625610352f, 0.086612328886985778809f, -0.0067857787944376468658f, 0.0031685300637036561966f, 0.25418689846992492676f, -0.027311116456985473633f, -0.015631929039955139160f, 0.21076603233814239502f, 0.070051491260528564453f, 0.14407613873481750488f, 0.26633974909782409668f, 0.0055074957199394702911f, -0.089974500238895416260f},
  {0.0081742415204644203186f, 0.28939428925514221191f, -0.19508574903011322021f, -0.0072039733640849590302f, -0.13528595864772796631f, -0.17443056404590606689f, -0.088635385036468505859f, -0.074450567364692687988f, -0.25759357213973999023f, -0.27329197525978088379f, 0.071995899081230163574f, 0.054317839443683624268f, -0.017883189022541046143f, -0.086390197277069091797f, -0.35762423276901245117f, -0.17282411456108093262f, 0.11007951200008392334f, 0.072223730385303497314f, -0.11445311456918716431f, -0.016813397407531738281f, 0.024605218321084976196f, -0.25428420305252075195f, -0.083100207149982452393f, 0.089741721749305725098f},
  {-0.022039400413632392883f, 0.11352871358394622803f, -0.020536486059427261353f, 0.42189681529998779297f, 0.24306768178939819336f, -0.17934139072895050049f, 0.18744638562202453613f, -0.060058735311031341553f, 0.020868785679340362549f, 0.13503704965114593506f, 0.18612983822822570801f, -0.089582130312919616699f, -0.017042579129338264465f, 0.15735806524753570557f, 0.073262013494968414307f, -0.14657618105411529541f, -0.11767791956663131714f, 0.0097583541646599769592f, 0.080970376729965209961f, 0.031799513846635818481f, 0.12611149251461029053f, 0.084053829312324523926f, 0.022209469228982925415f, 0.060628339648246765137f}
};
static const float tensor_features_5_conv_5_fc_2_bias[72] = 
{0.42045304179191589355f, 0.37348699569702148438f, -1.0057667493820190430f, -0.046072743833065032959f, 0.26633018255233764648f, 0.37049409747123718262f, 0.29793718457221984863f, -0.0010244195582345128059f, -0.29195803403854370117f, 0.13965606689453125000f, -0.11234997957944869995f, 0.27939623594284057617f, -0.0070663783699274063110f, -0.087935872375965118408f, -0.79475241899490356445f, -0.10148877650499343872f, -0.13709565997123718262f, -0.57912880182266235352f, 0.42159479856491088867f, 0.20752622187137603760f, -0.27964749932289123535f, 0.063793733716011047363f, -0.0040468247607350349426f, 0.38842299580574035645f, -0.42843294143676757812f, -0.59011268615722656250f, 0.53295320272445678711f, -0.60434132814407348633f, -0.45355331897735595703f, -0.13129927217960357666f, 0.66425347328186035156f, 0.071127057075500488281f, 0.58277022838592529297f, -0.35748413205146789551f, -0.051069255918264389038f, 0.78097075223922729492f, 0.56151545047760009766f, -0.39614361524581909180f, -0.44907939434051513672f, -0.23297491669654846191f, -0.0083614196628332138062f, 0.44317287206649780273f, 0.10193008184432983398f, -0.064941331744194030762f, -0.49689081311225891113f, -0.72021108865737915039f, -0.025291925296187400818f, 0.24266591668128967285f, -0.0097499983385205268860f, -0.47871428728103637695f, -0.070709019899368286133f, -0.010189356282353401184f, 0.43825677037239074707f, 0.47252985835075378418f, -0.46210885047912597656f, -0.012223280966281890869f, -0.18852119147777557373f, 0.18001906573772430420f, -0.13998585939407348633f, -0.017439078539609909058f, -0.065055996179580688477f, -0.45729184150695800781f, 0.37896466255187988281f, -0.11938554793596267700f, -0.23906740546226501465f, 0.044186208397150039673f, 0.0068889129906892776489f, -0.28446155786514282227f, -0.26483976840972900391f, 0.24891433119773864746f, -0.27439409494400024414f, 0.084279172122478485107f};
static const float tensor_features_6_conv_5_fc_0_weight[32][120] = 
{
